19354 10
960600000229239 -0.35123304 -0.0014641886 0.5913889 -0.10570808 -0.20191626 -0.09966912 0.0008452239 -0.06318271 -0.20396799 -0.13253602
960600000451828 -0.29445818 0.08462842 0.5478417 -0.0392089 -0.20943384 -0.17502922 0.15538897 -0.09121699 -0.13018706 -0.006023374
960600000269305 -0.39500278 0.20356697 0.52816236 -0.14901948 -0.21411276 -0.18509623 -0.016309232 -0.12356313 -0.11258733 -0.09230185
960600000380432 -0.36485648 -0.008733418 0.53782815 -0.09295059 -0.18145385 -0.033920996 0.028253887 0.025617464 -0.2885593 -0.04281932
960600000479618 -0.39515993 0.17300972 0.5661408 -0.09165211 -0.24142484 -0.16334046 -0.0031921377 -0.13579361 -0.06710322 -0.12186762
960600000407586 -0.30605355 0.14106022 0.52588874 0.0037689228 -0.19050129 -0.16293599 0.13609694 -0.121452615 -0.13446322 -0.047503226
960600000295897 -0.4175521 -0.023790857 0.5068925 -0.21747085 -0.15193605 -0.055399075 -0.042885456 0.01664269 -0.35653126 -0.061148033
960600000263025 -0.25817215 0.085158646 0.6098274 0.015616392 -0.1981202 -0.19047454 0.19846982 -0.08213177 -0.0793858 0.049654905
960600000275493 -0.43718874 0.095880195 0.4446313 -0.05277506 -0.13282599 -0.111331366 0.17985687 -0.15925193 -0.16524732 -0.039935194
960600000298910 0.104168326 0.32506806 0.66261214 0.15992147 -0.24646734 0.010329974 0.27616182 -0.30776832 -0.032334883 -0.120235875
960600000398698 -0.3408988 -0.043845642 0.5626548 -0.37545502 -0.17777202 -0.108435854 0.062167656 -0.17448083 -0.22007015 0.034015767
960600000215832 -0.27590284 0.06475808 0.6260144 0.046451975 -0.22842863 -0.21581163 0.17827627 -0.15000822 -0.06880745 0.05079983
960600000349960 -0.38395318 0.037471827 0.63149875 -0.010711642 -0.17315757 -0.18486083 0.049928874 -0.121884026 -0.12232263 -0.052115932
960600000362680 -0.3228669 0.043227844 0.5520335 -0.06231423 -0.18845679 -0.17657392 0.24132927 -0.16354641 -0.0803177 0.01685628
960600000265171 -0.45824385 0.07688976 0.4376507 -0.22489403 -0.12446934 -0.058780704 0.12581812 -0.111525804 -0.18031344 -0.08687681
960600000335153 -0.33490616 -0.016494157 0.6573322 0.05713552 -0.21871012 -0.29413015 0.06295724 -0.16347936 -0.1375314 -0.09877002
960600000277541 -0.48475447 0.2154105 0.49714214 -0.16064 -0.19404666 -0.1026998 0.08901097 -0.14738755 0.0145867495 -0.09497556
960600000356530 0.036024213 0.47850344 0.6156922 0.16980009 -0.29349455 0.02647153 0.26138616 -0.3726721 0.07344632 -0.0869108
960600000360266 -0.38770664 0.10702342 0.65737176 -0.19621287 -0.2662801 -0.17273603 -0.026431868 -0.16187486 -0.012066207 -0.018513495
960600000361021 -0.39447075 0.117656805 0.57519275 -0.017166432 -0.22616541 -0.21779825 0.10305321 -0.12314581 -0.039360527 -0.010052066
960600000362649 -0.071423426 0.555634 0.7184528 -0.05908889 -0.38598272 -0.09753334 -0.058053993 -0.35357767 0.15491219 -0.13249804
960600000385675 -0.41160843 -0.0672189 0.59544605 -0.40367973 -0.21085411 -0.05454044 0.0004326986 -0.15642306 -0.21941902 0.096373975
960600000346839 -0.52295566 0.0422475 0.44041944 -0.20490956 -0.06260268 0.022642523 0.16880457 -0.16472547 -0.20044416 -0.03780968
960600000344456 -0.52341443 0.17360781 0.538312 0.0017348843 -0.2157699 -0.08722094 0.058305357 -0.14918543 0.006947343 -0.09074311
960600000418915 -0.37330684 0.26827237 0.5119643 0.012947476 -0.25726542 -0.2213935 0.107237056 -0.20210959 -0.021974673 -0.025932092
960600000311032 -0.39769033 0.0056151114 0.5619868 -0.14999153 -0.23300214 -0.27125385 0.064623475 -0.10875718 -0.14458941 0.00066021475
960600000367203 0.05996002 0.45145756 0.7295225 0.16944657 -0.4892833 0.13619274 -0.038662322 -0.23984471 0.012085169 -0.19594929
960600000302961 -0.32561952 -0.11161734 0.6990485 0.042615354 -0.16905995 -0.3008491 0.011019983 -0.16339923 -0.20621689 -0.21999031
960600000378974 -0.3851121 0.00013800754 0.5942293 -0.13068801 -0.2427596 -0.21430597 0.14635712 -0.124961056 -0.051419374 0.07262037
960600000256078 -0.33715564 0.12054827 0.5628584 0.15096132 -0.19981867 -0.22312629 0.22185318 -0.18833809 -0.04523268 -0.004723461
960600000332454 0.052453116 0.53200495 0.5979195 0.2645532 -0.28341794 0.06509049 0.31130928 -0.37891433 0.08987995 -0.14462192
960600000269571 -0.4939414 0.12939194 0.47727153 -0.10635844 -0.1963281 -0.12169768 0.08393268 -0.11906714 -0.080173075 -0.06400879
960600000307786 -0.27645943 -0.24319328 0.7575625 -0.0025618612 -0.28332493 -0.087492734 -0.03932808 -0.07434355 -0.23335657 -0.115324214
960600000476960 -0.4048321 0.35983786 0.5757091 -0.23240516 -0.35649145 -0.35735685 -0.20811182 -0.107427835 0.0003727735 -0.10411759
960600000377086 0.21056943 0.45164964 0.6104878 0.23974657 -0.46238163 -0.020527229 0.2280939 -0.23903912 0.04131522 -0.3205075
960600000405330 -0.46503958 0.1355239 0.60226935 -0.18931948 -0.2647674 -0.09949199 -0.09548728 -0.05688672 -0.05150322 -0.054218426
960600000383118 -0.2955017 0.119563356 0.46255028 0.23496555 -0.16229732 -0.25725383 0.3872127 -0.18365996 -0.15319327 0.056105115
960600000354558 -0.28220576 0.13226049 0.6314175 0.082792066 -0.32865727 -0.29891104 0.06763698 -0.07493244 -0.05175091 0.005262736
960600000317971 -0.30275118 -0.07685932 0.6749936 -0.03164135 -0.25580803 -0.2945806 -0.04659094 -0.027074622 -0.23991929 -0.038036212
960600000400175 -0.32344934 0.12141349 0.5300599 0.17087539 -0.09796806 -0.28298396 0.3333305 -0.12937683 -0.09799634 0.05669388
960600000478570 -0.5461971 0.0019378836 0.57594985 -0.26867294 -0.14490208 -0.049452223 0.023326825 -0.08221946 -0.12318605 0.048770946
960600000229795 -0.26248452 0.07436484 0.67566764 0.056541897 -0.21356249 -0.25279737 0.18524282 -0.15484256 -0.020280778 0.037574645
960600000254846 0.09850575 0.45787117 0.7338345 0.2022313 -0.49999845 0.13152766 -0.0018512885 -0.27725574 0.02331692 -0.23079105
960600000458162 -0.38768476 0.06217179 0.62095326 0.11175862 -0.20633556 -0.20104578 0.08236464 -0.17957306 -0.098762564 -0.04234039
960600000284981 -0.31946748 -0.012805254 0.5048775 -0.30904993 -0.078813955 -0.18317068 0.16978085 0.13078761 -0.21672326 -0.10073116
960600000264657 -0.42052585 0.1070075 0.5874513 -0.31496552 -0.24498014 -0.108130105 0.027372649 -0.16855726 -0.055531606 0.10831489
960600000378699 -0.44714585 0.35620898 0.55549574 0.21608406 -0.20426495 -0.54440665 0.006627215 -0.09144561 -0.06823968 -0.08139486
960600000430432 -0.013311419 0.57549214 0.7142736 -0.05786964 -0.46956015 0.011009395 -0.10711724 -0.31528097 0.11628543 -0.1611977
960600000263253 -0.3585317 0.34311512 0.63048345 -0.18892112 -0.37752748 -0.1500731 -0.12683865 -0.12712431 0.09346529 -0.071619116
960600000324806 -0.3086316 0.13078824 0.6017277 0.114342056 -0.25996262 -0.20709977 0.17621148 -0.0878096 0.00043909825 -0.05292279
960600000378323 0.17930986 0.5193172 0.6354167 0.23501803 -0.33206865 0.06336592 0.29020128 -0.25002035 0.050792236 -0.1534045
960600000432083 -0.27119058 -0.06555885 0.6703034 0.15510371 -0.15305392 -0.3732668 0.091956116 -0.25296828 -0.24587283 -0.21685715
960600000430774 0.17691319 0.49442098 0.6492954 0.2982085 -0.39848217 -0.022166805 0.25397313 -0.42741954 0.03892648 -0.17535155
960600000262903 0.12989005 0.6245403 0.4947007 0.27098438 -0.45516044 -0.045404997 0.255003 -0.5165021 0.027482469 -0.2018682
960600000437256 -0.38747883 0.17300211 0.7126944 -0.08653035 -0.14947571 -0.14840443 -0.051292278 -0.21942207 0.026836015 -0.21532841
960600000227507 -0.5950788 0.14548257 0.6341405 -0.12968507 -0.22733857 -0.1717738 -0.057323143 -0.19592108 0.033005763 -0.0031903323
960600000241052 -0.27035615 -0.2815044 0.70902884 0.01969173 -0.34382436 -0.07574857 -0.05828509 0.009090239 -0.35494375 -0.06699937
960600000266970 -0.4766523 0.29869348 0.60438293 0.14325239 -0.23331235 -0.45626253 -0.025020244 -0.15425023 0.008686413 -0.023623133
960600000441543 -0.23001617 0.17241889 0.47772965 0.06200738 -0.32700342 -0.43986627 0.07572697 -0.35763216 -0.16714671 -0.3003874
960600000307208 0.011838518 0.76595014 0.6648519 -0.03277302 -0.3037928 -0.015045904 -0.03307405 -0.30969405 0.1334065 -0.2780336
960600000351475 0.12948129 0.57042336 0.6757628 0.30484593 -0.36198586 0.08032338 0.32226288 -0.40222412 0.13404104 -0.04487004
960600000272317 -0.23737027 0.12273796 0.53859955 0.11091479 -0.26249424 -0.43939948 0.07976876 -0.4178078 -0.15074427 -0.39761126
960600000384863 0.02039055 0.4974826 0.7334096 0.041947626 -0.3262104 -0.060443368 0.0023798672 -0.3323866 0.045847535 -0.21197622
960600000261769 -0.57853544 0.17276339 0.49320018 -0.11825013 -0.13904734 0.04355997 0.10336208 -0.16917127 -0.0251298 -0.006677487
960600000302665 -0.50434595 -0.08671573 0.5823638 -0.20423129 -0.22288251 -0.08048453 0.050641984 -0.017385993 -0.11382213 -0.010134701
960600000304697 -0.23129673 0.10032333 0.458351 0.10292192 -0.37598598 -0.45141393 0.11174538 -0.3765921 -0.13933407 -0.36978975
960600000363089 -0.28317645 -0.07501779 0.6482289 -0.45581266 -0.05332456 -0.17356993 0.1681271 -0.37137055 -0.2023751 0.14037539
960600000306245 -0.37771836 0.123535156 0.6667282 -0.2297974 -0.21300349 -0.16914877 0.027971208 0.031421177 0.019989274 -0.0002782722
960600000320147 -0.11802311 0.7018158 0.6876647 -0.1427473 -0.49404392 0.05566594 -0.17255633 -0.23247491 0.23842873 -0.17019765
960600000388107 0.13683857 0.42985752 0.5993504 0.015739102 -0.49006525 -0.09139549 0.026217008 -0.5137325 -0.05604901 -0.38508865
960600000376077 0.014461283 0.5574154 0.70050424 -0.04294448 -0.42372686 -0.0948484 -0.093806654 -0.36428794 0.07403646 -0.27167064
960600000326031 -0.19517207 0.14444059 0.66306543 0.33430204 -0.039030474 -0.31622088 0.3032213 -0.22720477 -0.08375137 -0.17873609
960600000341779 -0.1638237 0.21369456 0.63673353 0.29112637 -0.06652435 -0.3913019 0.29279736 -0.21347526 -0.065876245 -0.16754347
960600000262367 -0.31526098 0.41721076 0.6257143 -0.15255678 -0.34433588 -0.20285375 -0.07385847 -0.2098933 0.11952906 -0.09687164
960600000324173 -0.32249862 -0.14217003 0.6192734 0.1762751 -0.25256395 -0.28635967 0.047285236 -0.20362623 -0.27733558 -0.18459266
960600000220764 -0.2500043 -0.26919073 0.72447765 -0.07650393 -0.3944202 -0.006985192 -0.08734369 -0.0074414 -0.3859692 0.03993936
960600000380878 0.204422 0.56085247 0.6254815 0.26883653 -0.3418719 0.033652417 0.3297111 -0.25927404 0.073443234 -0.11350628
960600000257904 -0.4561787 0.2705478 0.5866548 0.12662339 -0.2615383 -0.393391 0.03776703 -0.13874999 0.034740936 -0.060498014
960600000350052 -0.402957 0.048067234 0.6342172 0.11536805 -0.22888424 -0.19080606 0.09331493 -0.10717368 -0.088827506 0.011176128
960600000363822 -0.46055737 0.19914217 0.5925917 -0.14026237 -0.30320007 -0.14403655 -0.097317964 -0.023422582 -0.023320908 -0.05740696
960600000212015 -0.3231511 0.16938962 0.72769225 -0.11189058 -0.3737389 -0.26054958 -0.17805208 -0.073816165 -0.024229895 -0.052307066
960600000378306 0.2341035 0.54041576 0.6595173 0.2845594 -0.3311369 0.09344789 0.30909202 -0.2618814 0.03214174 -0.1281489
960600000309591 0.517979 0.76307964 0.7543426 0.13243692 -0.21700561 0.16457486 0.210615 0.11846944 -0.1403289 0.09521
960600000379287 -0.23204574 0.15412925 0.61686015 0.29325846 -0.12000018 -0.26106754 0.2928598 -0.22474296 -0.051678393 -0.13243783
960600000446252 -0.2155928 -0.32692105 0.8384746 -0.0019172097 -0.30181417 -0.05925587 -0.06791137 -0.12179201 -0.3014967 -0.106025256
960600000338345 -0.2651689 0.04291217 0.50289476 -0.19946101 -0.20438738 -0.13797466 0.11820147 0.034383316 -0.13813059 -0.25876755
960600000426103 0.18644035 0.61741847 0.45610917 0.19720292 -0.49229357 0.024558466 0.25758967 -0.5176748 -0.052528717 -0.14389837
960600000387699 -0.31352144 0.09824233 0.68848145 -0.21669562 -0.25220925 -0.14824325 0.055687387 0.08305792 0.06973689 -0.08055157
960600000300093 -0.43727994 0.38488108 0.45836106 0.17147434 -0.19641593 -0.60978174 0.0079211015 -0.095406145 -0.1667377 0.019060751
960600000314499 -0.077047154 0.24172631 0.512662 0.4449553 -0.18275492 -0.36047015 0.38710365 -0.20865893 -0.21389885 -0.085763164
960600000256442 -0.51841503 0.3888908 0.54770714 0.17626621 -0.23137479 -0.5538536 -0.055481553 -0.09315383 -0.03088975 -0.08642597
960600000264335 -0.23937266 0.15276638 0.5773089 0.3165774 -0.10810652 -0.3453971 0.29356307 -0.21999379 -0.14067212 -0.12346367
960600000418447 -0.20931563 0.13644388 0.6726386 0.3088577 -0.043680772 -0.38710663 0.320763 -0.24015306 -0.037508003 -0.21514182
960600000378769 -0.14284556 0.20879003 0.61802775 0.3084866 -0.107817605 -0.28564033 0.32402325 -0.22091813 -0.09164909 -0.12714916
960600000359719 0.5683282 0.76443034 0.738743 0.11549554 -0.2589383 0.29133323 0.23096249 0.08462843 -0.14323555 0.06523318
960600000395654 -0.3521387 0.5521041 0.6203024 -0.078331396 -0.32869044 -0.3131428 -0.17841682 -0.17343661 0.09652227 -0.16683048
960600000412237 -0.3482623 -0.047770306 0.60224175 -0.48673782 -0.17919877 -0.09846173 0.02746066 -0.22989783 -0.24734965 0.19338065
960600000355388 0.13471805 0.7408278 0.59276205 0.17489555 -0.47015423 -0.08730039 0.06205745 -0.40153185 0.032206513 -0.14884661
960600000270142 -0.2648071 -0.18629813 0.70803547 0.09346068 -0.31485564 -0.1391641 -0.014844 -0.09452895 -0.26176846 -0.12542808
960600000418960 -0.5192089 0.29289535 0.5440316 -0.14789277 -0.3393051 -0.43977454 -0.19873996 -0.067780904 -0.04853234 -0.075204805
960600000371253 -0.19946425 -0.1436279 0.7523846 0.23720397 -0.21330951 -0.19406077 -0.056657683 0.01100952 -0.38957986 -0.21591964
960600000252486 -0.35877344 -0.11565723 0.51439637 -0.2731009 -0.21595386 -0.10177258 0.049241666 -0.011120001 -0.27453858 -0.0945656
960600000264498 -0.6405766 0.0610352 0.5663202 -0.24101661 -0.15908249 0.010282274 0.09659856 -0.045846216 0.07735932 -0.06662244
960600000280871 -0.12356654 0.21202704 0.58433294 0.17951347 -0.058971222 -0.24898815 0.13643183 -0.10292195 -0.2595923 -0.23998787
960600000277120 -0.18267767 0.10010021 0.5009257 0.0034350716 -0.18732274 -0.17535716 0.46424276 0.1404662 0.13958988 -0.4086644
960600000480158 -0.2127249 0.2769432 0.7959111 -0.0039413804 -0.097593784 -0.31158003 -0.06691519 -0.23233175 -0.030778501 -0.3179261
960600000411355 -0.2706041 0.01273555 0.58823186 -0.3741778 -0.09524764 0.026010709 0.2370113 -0.32194024 -0.19054338 0.21772514
960600000306512 -0.36576885 -0.08194303 0.636098 -0.49023527 -0.10594015 -0.18831615 0.08106639 -0.14336 -0.23581934 0.23995385
960600000262030 0.2748232 0.31339002 0.8448858 0.1658716 -0.5225312 0.2961936 -0.064814605 -0.36379182 -0.11688552 -0.2906541
960600000249071 -0.19123538 0.11548306 0.4823005 0.21005538 -0.10836924 -0.2890644 0.5123953 -0.31634653 -0.19765124 0.21269545
960600000323588 -0.54551834 0.4095636 0.5032968 -0.15375465 -0.28509346 0.048830543 -0.040559508 -0.020539368 0.20353357 -0.29325017
960600000229135 -0.3328261 0.013647135 0.5765495 -0.51490533 -0.18716967 -0.13759018 0.063696645 -0.26049036 -0.19769011 0.15758935
960600000355890 -0.2097368 -0.1948573 0.81547374 0.06719426 -0.020476155 -0.12649721 -0.017308742 -0.06492733 -0.37032425 -0.3017463
960600000414303 -0.3563312 0.010576646 0.5743811 -0.21973057 -0.1573619 -0.08286813 0.19256054 0.17847025 0.01166261 -0.18900426
960600000263967 -0.2462678 0.28980398 0.65610826 0.06186813 -0.22025536 -0.36255854 0.11240993 -0.030413805 0.009530395 0.1125471
960600000302967 0.10578006 0.72663623 0.70247513 -0.017133394 -0.5177607 0.01541474 -0.081586346 -0.35042384 0.1336343 -0.17548765
960600000360609 -0.27675453 0.010285661 0.7745327 0.23677665 -0.22285305 -0.2305276 0.061007995 -0.21452643 -0.038841493 -0.20317669
960600000278616 -0.4133976 0.31011975 0.5951569 -0.15102664 -0.32329604 -0.52998114 -0.12435516 -0.114919946 -0.018203078 -0.027972762
960600000333685 -0.18410616 0.24478364 0.6057489 0.22994645 -0.32151806 -0.21447645 0.24589479 -0.13475424 0.0817311 -0.08926094
960600000268035 -0.3812347 0.11737594 0.6005496 0.05828781 -0.27017573 -0.15264747 0.14096938 -0.13586353 0.020312268 0.028825248
960600000260010 -0.25404558 -0.041779857 0.6462168 -0.5544607 -0.021155614 -0.15087014 0.17342122 -0.43821782 -0.22074738 0.18794468
960600000263341 -0.30409038 -0.088086456 0.6221535 -0.5419537 -0.15296698 -0.078424476 0.050338402 -0.14870472 -0.25736246 0.16863187
960600000366488 0.6156447 0.81349814 0.7673178 0.110554665 -0.23189683 0.25708333 0.22508372 0.08220384 -0.15249735 0.06460583
960600000226730 -0.31921315 -0.030817246 0.61215 -0.49568465 -0.2085871 -0.14594872 0.09734162 -0.26680645 -0.15922828 0.17495659
960600000361930 -0.18573403 0.15914321 0.59826016 0.3086241 -0.120320916 -0.28958705 0.31595394 -0.27755502 -0.08929941 -0.14667854
960600000348056 -0.32081676 0.3427241 0.52149427 0.04056094 -0.33623835 -0.4125875 0.008215291 -0.23600022 -0.002593468 -0.20506826
960600000226574 -0.2336437 0.098194025 0.5642361 -0.068159856 -0.2404153 -0.2992187 0.22490324 -0.39657962 -0.10730275 0.08816979
960600000334061 0.09951915 0.664313 0.6700335 0.11546807 -0.54742694 -0.08843033 -0.018364863 -0.3633421 0.07916851 -0.085327335
960600000261537 0.13268438 0.6561653 0.517147 0.27607447 -0.4209854 0.12586367 0.26145408 -0.45485905 0.024824793 -0.13495418
960600000261890 -0.11232131 0.15992267 0.36801293 0.436525 -0.075412825 -0.43175793 0.49299812 -0.1581056 -0.38828397 -0.047257617
960600000306330 -0.20400724 0.14929752 0.5647872 0.35961175 -0.11278159 -0.37168008 0.31833568 -0.23667969 -0.11322643 -0.19296303
960600000209728 -0.00060545054 0.7615657 0.6775172 0.10427616 -0.464149 -0.22126575 -0.18758418 -0.21286744 0.036014546 -0.14832863
960600000274026 -0.5058316 0.3569344 0.5890053 0.11458974 -0.2885958 -0.5577952 -0.08746459 -0.1249513 0.01053063 -0.077021375
960600000238789 -0.11540391 0.15146632 0.6191619 0.30608284 -0.3668991 -0.41227064 0.060695175 -0.24611825 -0.20363596 -0.2466349
960600000358548 -0.2055806 0.24251053 0.5349371 0.23846976 -0.20740294 -0.28198108 0.3325743 -0.22596906 -0.051288497 0.08397189
960600000398632 -0.5797107 0.073670775 0.4853871 -0.39411718 -0.14719684 0.02008268 0.06261419 -0.29484966 -0.09167189 0.026265865
960600000435370 -0.13513474 0.056250595 0.5804282 0.15817873 -0.20099697 -0.38208076 0.1551014 -0.44694448 -0.22320561 -0.38170028
960600000386759 0.10909117 0.7486718 0.69388175 -0.05849298 -0.48373893 0.050569516 -0.09487816 -0.34841502 0.120503224 -0.22552878
960600000279387 -0.22904612 0.31157038 0.65892804 0.334499 -0.022712681 -0.4310677 0.24207553 -0.227864 -0.0102661755 -0.17085153
960600000371267 -0.23550951 0.124699876 0.6660043 0.2902252 -0.08880466 -0.3185855 0.31959414 -0.23852427 -0.0010884952 -0.14590843
960600000264606 0.06383534 0.6982646 0.68427736 -0.005389499 -0.5619151 0.082025364 -0.05156788 -0.31896076 0.17667946 -0.1097418
960600000358525 -0.41111735 -0.03356843 0.56392825 -0.24931851 -0.08859945 -0.16428629 0.23153047 -0.027820123 -0.024149593 -0.10271717
960600000371067 -0.31300595 0.11610267 0.6215562 -0.2414339 -0.2566864 -0.1995445 0.18027298 -0.2939892 0.029782785 0.1547566
960600000362469 -0.15270989 0.19223876 0.6032839 0.17673665 -0.06492561 -0.25255716 0.09117809 -0.10281848 -0.2778076 -0.2575635
960600000411532 -0.44395116 0.2532947 0.7030869 0.12834851 -0.20922768 -0.3590451 -0.23814009 0.006606212 -0.14330435 -0.17294008
960600000307940 -0.24529174 -0.08876912 0.8935146 0.17491053 0.09858343 -0.19709553 0.13162659 -0.2643115 -0.10430317 -0.35985383
960600000368699 -0.14178617 0.11968588 0.5183162 -0.11286868 -0.2680248 -0.4403437 0.10902316 -0.52711564 -0.19116423 -0.22368197
960600000262519 0.099722095 0.81638426 0.69015026 -0.01380677 -0.43432197 0.003926821 -0.05669168 -0.36146536 0.15107249 -0.23227806
960600000382428 -0.1336015 0.05541627 0.4668737 0.055215288 -0.14226536 -0.2092233 0.4766381 0.1415878 -0.010646337 -0.4407562
960600000425979 -0.28654101 0.111644104 0.8029756 -0.06496062 -0.14440262 -0.20887786 -0.036874402 -0.290284 0.025507562 -0.24238497
960600000405965 0.0785777 0.6270087 0.72727937 -0.06426605 -0.47436795 -0.12727132 -0.16652316 -0.3789701 0.039906822 -0.28037527
960600000372088 -0.39388734 0.22080413 0.7115978 0.02682649 -0.25400314 -0.50686836 -0.23959553 -0.056988686 -0.13059126 -0.16120921
960600000250495 -0.1415679 0.09042008 0.5423051 0.082627155 -0.35976583 -0.5142016 0.08983174 -0.5097884 -0.19832493 -0.41066378
960600000361423 -0.3745567 0.23802343 0.5814895 0.10315149 -0.26251793 -0.23653135 0.18799187 -0.30187836 0.058594827 0.050438844
960600000361405 -0.549135 -0.07379126 0.51830137 -0.41652808 -0.122418575 -0.049149983 0.08547844 -0.19346109 -0.21378176 0.11142289
960600000268712 0.015926631 0.6559129 0.71067256 -0.1307229 -0.49610847 0.09269472 -0.10265567 -0.39888272 0.16981848 -0.11961189
960600000231449 -0.30467033 -0.035846513 0.6158453 -0.4852673 -0.16968076 -0.1650707 0.0986862 -0.22795166 -0.21150419 0.21855088
960600000287820 -0.39319327 0.0018309874 0.6826205 -0.15865402 -0.4205355 0.04293768 -0.11583881 -0.05133817 -0.08273503 0.024465226
960600000447378 -0.18183486 -0.1704081 0.6227008 -0.13619807 -0.17027986 -0.15804736 0.06258649 0.07630306 -0.3907891 -0.08242171
960600000302486 -0.35850984 0.024498262 0.69748956 0.089393206 -0.2501764 -0.22600645 0.23370884 -0.16580157 0.055609033 0.09679938
960600000349467 -0.14802529 0.07668866 0.573201 0.18362656 -0.12687492 -0.1753626 0.35165587 0.11704534 -0.08455155 -0.1718367
960600000372023 -0.34526354 0.45909628 0.59848267 -0.004720408 -0.2994084 -0.54957 -0.16563371 -0.07061052 -0.027528096 -0.08297304
960600000288266 -0.22984 0.14649959 0.47419134 -0.08327719 -0.13737583 -0.1892957 0.1893727 -0.059179552 -0.2381994 0.027962433
960600000265734 -0.42081955 0.38244936 0.6154164 0.22281653 -0.25035256 -0.38470167 0.04590912 -0.15761234 0.06602804 -0.02867917
960600000262584 0.20774159 0.2945913 0.959802 0.0107765095 -0.25564608 0.25162828 -0.040390864 -0.35780418 -0.019939678 -0.3961289
960600000316176 -0.21345644 0.12060057 0.46769345 0.044981338 -0.3859549 -0.6165568 0.07488972 -0.50949013 -0.2223967 -0.2927355
960600000373600 -0.1756476 0.28181526 0.5478265 0.36627457 -0.05105095 -0.21029651 0.45529047 -0.3444004 -0.022970963 -0.11316541
960600000364802 -0.26619142 -0.091887 0.7413401 0.07755492 -0.22883481 -0.31746238 0.0138270585 -0.24055435 -0.19143453 -0.16218174
960600000362576 -0.15215872 -0.18514468 0.857871 0.018798878 -0.1097408 -0.031616688 -0.098197415 -0.07107898 -0.37500867 -0.3221734
960600000418770 -0.18305081 -0.31069276 0.7858778 0.16469051 -0.24172974 -0.2019113 0.031197224 -0.15665329 -0.34081927 -0.25935325
960600000369666 0.17719573 0.76843363 0.4847693 0.02746053 -0.6479175 -0.0417442 -0.029850919 -0.48782092 -0.013954058 -0.29507256
960600000362413 -0.28081176 -0.18793288 0.796321 0.16269472 -0.2909808 -0.12088589 -0.15632944 -0.083993815 -0.35565615 -0.22269377
960600000275230 -0.17636968 0.18614532 0.63359684 0.16496436 -0.032853674 -0.2593043 0.1414498 -0.14909932 -0.21836883 -0.20419213
960600000350708 -0.20226288 0.21138577 0.5316062 0.10560207 -0.311675 -0.5786987 0.060838 -0.3996108 -0.15870875 -0.34074882
960600000363641 -0.35114473 -0.21873148 0.65930355 0.120536275 -0.31882873 -0.14831717 -0.05020955 -0.20694478 -0.3428079 -0.11070085
960600000370625 -0.20237745 0.12681106 0.8597934 0.07913779 -0.101075806 -0.28098878 -0.13871276 -0.18794002 -0.17125914 -0.3429296
960600000225983 0.17223467 0.76045686 0.7288178 0.03282946 -0.5558662 0.06340944 -0.016657187 -0.34550935 0.18953763 -0.13110994
960600000411152 -0.33312064 -0.052684505 0.6882887 -0.15107562 -0.2735116 -0.21639565 0.11702471 -0.035627935 -0.0061544157 0.077519275
960600000297185 -0.21039921 -0.17704459 0.790722 0.24692217 -0.1959718 -0.23341756 0.047463275 -0.2770841 -0.28012738 -0.2751792
960600000378402 0.13206153 0.8478868 0.7197741 -0.1403471 -0.47945812 0.047676373 -0.12122019 -0.35150245 0.16850185 -0.19308035
960600000360966 -0.085363634 0.19054055 0.6110901 0.17697643 -0.058034766 -0.2462346 0.15816537 -0.1487809 -0.23647696 -0.2753558
960600000288135 -0.5019606 0.08164307 0.64533895 -0.34209436 -0.121154934 -0.025667178 0.041197058 -0.18571648 0.03454301 0.03356204
960600000365576 -0.11653481 0.0915459 0.54512095 0.09067836 -0.24519712 -0.44233933 0.14694524 -0.4192958 -0.18799539 -0.42253894
960600000362824 -0.19637783 0.3122818 0.53729856 0.044758756 -0.27854976 -0.19192348 -0.03228328 -0.18587716 -0.16964512 -0.29250008
960600000313420 -0.21853347 0.3607262 0.62186205 0.14797962 -0.32486436 -0.5250581 0.0016877962 -0.19789262 -0.051102545 -0.011093266
960600000355645 -0.3826622 0.10741812 0.5313806 0.27624524 -0.11454594 -0.22049609 0.21812434 -0.13782673 -0.18780383 -0.038697932
960600000361540 -0.2829551 0.6023242 0.47827023 0.084221326 -0.347678 -0.50304025 -0.12542652 -0.2171387 -0.05822825 -0.26078388
960600000301037 0.21776071 0.6869757 0.72534084 0.3158559 -0.26956642 0.18420964 0.31297466 -0.40832603 0.14750162 -0.095055565
960600000468500 -0.35243008 -0.001197942 0.4236398 -0.30058417 -0.1611098 -0.08408904 0.2752491 0.21521723 0.029324923 -0.5538115
960600000352216 -0.19991578 0.20837958 0.59740955 0.15327959 -0.05302574 -0.25701714 0.10902643 -0.14770856 -0.21780731 -0.27885106
960600000229270 -0.21250735 -0.3090836 0.7809433 0.25914696 -0.27196515 -0.056165177 -0.098903544 -0.016933376 -0.48175296 -0.29403457
960600000373620 -0.22957498 -0.25314918 0.8931091 0.08479192 -0.11096355 -0.14363772 -0.06737415 -0.1858425 -0.3416776 -0.2617111
960600000352121 -0.13589334 0.19946486 0.68615174 0.08616984 -0.19757791 -0.29365307 0.22573206 -0.21124856 -0.09300884 0.27449995
960600000251472 0.34119466 0.6822143 0.6101919 0.1444589 -0.37656745 0.14092875 0.35423857 -0.20957555 0.14561164 -0.29421136
960600000375942 -0.37980494 0.2836646 0.6709192 -0.15178265 -0.318203 -0.26166034 -0.16240415 -0.14685896 0.041556597 -0.1408739
960600000317272 -0.45761585 0.109996155 0.5040844 0.09132874 -0.19802696 -0.114666395 0.30333155 -0.2417284 0.009819343 0.040049214
960600000402373 -0.46429715 0.10950632 0.54053706 0.2363311 -0.09085327 -0.08827813 0.17792845 -0.15474133 -0.16098194 -0.010843428
960600000369424 0.08930613 0.81314397 0.7133182 -0.0636973 -0.39897975 -0.010177959 -0.17965123 -0.29370165 0.06755879 -0.26124993
960600000386884 -0.37609842 0.017951729 0.6788911 -0.4256269 -0.12997597 -0.1494046 0.15738773 -0.08295541 -0.04242996 0.2442946
960600000354394 -0.31483456 0.08529946 0.61622924 -0.4954871 -0.28340068 -0.17218412 0.03712975 -0.40499166 -0.06361467 0.16446015
960600000351777 -0.23036678 0.014152974 0.4514149 0.16442223 -0.25001505 -0.4926319 0.10051645 -0.3022431 -0.38373262 -0.2971925
960600000346671 -0.28592855 0.028631672 0.57284474 0.0595744 -0.17945783 -0.2248903 0.3913581 -0.21790877 -0.0012305888 0.035764184
960600000302100 -0.40652496 0.20028777 0.5091897 -0.10216357 -0.27752632 -0.17858787 0.006318691 -0.088657066 -0.05555018 -0.15251948
960600000349588 -0.1718293 0.2286695 0.32672343 0.30217478 -0.16444013 -0.23354976 0.47617695 0.016059797 -0.082909 -0.48414367
960600000364550 0.2989795 0.59793526 0.77124083 -0.02186723 -0.5822368 0.14210485 -0.12978826 -0.30505708 -0.018408991 -0.25649443
960600000297261 -0.6852744 0.35712388 0.49697232 -0.01478541 -0.21745262 0.067329 0.044836264 0.05526578 0.16745606 -0.13252817
960600000352516 -0.4448899 0.3262899 0.6627829 -0.20375414 -0.36748552 -0.2312684 -0.2777021 -0.024335805 0.028582834 -0.13249277
960600000351015 -0.35875696 0.15446468 0.63397545 -0.026110006 -0.25411987 -0.2868298 0.100596376 -0.10163024 0.07422453 -0.05322249
960600000298556 -0.40355536 -0.15698573 0.764501 -0.2087017 -0.22558607 -0.13564704 -0.12790808 -0.029049318 -0.1784703 -0.0527702
960600000293441 -0.018704416 0.26020664 0.41087073 0.25986424 -0.2059331 -0.24841362 0.5606074 0.030942408 0.029502131 -0.44415972
960600000384018 0.1021674 0.67442507 0.72085136 -0.028256284 -0.54291534 0.16678464 -0.07063141 -0.35755357 0.15827148 -0.13207257
960600000366249 0.0076774196 0.19883971 0.51465374 0.005912337 -0.3779707 -0.33891717 0.14214088 -0.53472674 -0.1994833 -0.2785818
960600000311005 -0.16501023 0.26267114 0.685855 0.37649262 -0.27949986 -0.19887932 0.298844 -0.20777169 0.08494124 0.015452042
960600000339063 -0.31737933 -0.05867555 0.79650915 0.06350099 -0.025268717 -0.2148506 0.0385538 -0.23958525 -0.1481064 -0.3043592
960600000436786 0.0879499 0.73832047 0.6861993 -0.12664568 -0.5312966 0.16881444 -0.11181724 -0.35603744 0.15086564 -0.14645067
960600000296417 -0.28512943 0.46499184 0.6635673 -0.07191732 -0.3552085 -0.49436843 -0.26257974 -0.17120105 -0.017774008 -0.27395502
960600000302564 -0.35776448 -0.04045067 0.6557041 -0.19737037 -0.31781098 -0.25362682 0.07153021 -0.2887198 -0.053949933 0.08937557
960600000376345 -0.32076204 0.10568544 0.5217798 0.097435 -0.17238759 -0.16116674 0.3597084 -0.30263072 -0.05623793 0.07690354
960600000339484 -0.15959647 0.24570554 0.4330494 0.18061402 -0.30990064 -0.486027 0.17086305 -0.44171634 -0.19448406 -0.30790508
960600000221930 -0.5368815 0.0583922 0.52081585 -0.29179022 -0.13328603 -0.020382822 0.1223083 -0.199903 -0.11439588 0.1231067
960600000312652 -0.38026747 -0.025596833 0.663066 -0.27722323 -0.24048814 -0.07518171 -0.021038014 0.1620972 -0.16085404 0.1216866
960600000352925 -0.16780102 0.44469687 0.60032904 0.29998535 -0.32337248 -0.4221889 0.12310759 -0.13925539 0.012624615 -0.043915745
960600000397552 -0.3444342 0.26976842 0.7044075 0.19553271 -0.041340142 -0.3689013 0.09156948 -0.1629282 -0.005121295 -0.20007548
960600000364678 0.10486051 0.8346434 0.6947637 -0.07175648 -0.54849917 0.11048857 -0.17509708 -0.26985452 0.12589227 -0.1819728
960600000340820 -0.24187379 0.0032279312 0.4479788 -0.07196261 -0.1860479 -0.2671899 0.3181871 0.14783452 -0.03608212 -0.49085128
960600000299767 -0.25142273 -0.06383709 0.6187782 0.17790869 -0.23789531 -0.17930411 0.10082639 -0.20181093 -0.25919053 -0.15382195
960600000326804 -0.3244814 0.28192157 0.41311416 0.042310875 -0.44969213 -0.5838438 0.031922434 -0.464485 -0.08456451 -0.28219077
960600000382840 -0.3002625 0.19560565 0.7565059 -0.13962005 0.20761275 -0.37617216 0.16180497 -0.382815 0.0038148894 -0.39110366
960600000392028 -0.3211943 0.43838862 0.56172156 -0.038938932 -0.32928997 -0.2850996 -0.1334417 -0.08013814 0.0030379347 -0.25488383
960600000263923 -0.6081869 0.0727771 0.57865936 -0.16031447 -0.19506536 -0.025228899 0.11263958 -0.1213017 0.06643711 0.025589824
960600000265773 -0.28757736 0.5419884 0.60274696 -0.041469246 -0.3364892 -0.3339284 -0.16526203 -0.118368655 0.045172505 -0.16313277
960600000280772 -0.16692652 0.23168872 0.4010048 0.25685003 -0.1448462 -0.21479508 0.44005665 -0.023483437 -0.051565304 -0.38057965
960600000408617 0.15048176 0.7818765 0.7022464 0.01455433 -0.5792142 0.08614652 -0.07531457 -0.3573637 0.16760705 -0.16854188
960600000225792 -0.41326532 0.19494449 0.8028088 -0.04954949 0.24385992 -0.26391432 0.104869224 -0.3680332 -0.006298369 -0.34160802
960600000239938 -0.42454547 0.22646183 0.65349585 -0.22422329 -0.3722582 -0.07322949 -0.05636422 -0.03138361 0.12694773 -0.005236485
960600000364907 -0.1475617 -0.019824691 0.6417205 -0.15222873 -0.16194218 -0.098701835 0.37563014 -0.48428097 -0.1556552 0.28917226
960600000303830 -0.27719426 0.068298936 0.6032279 0.13600747 -0.28739655 -0.12631531 0.18899243 -0.080882154 -0.05578867 0.0025527577
960600000358674 -0.12670094 0.102546886 0.5190871 0.13640442 -0.32368016 -0.40764186 0.10728911 -0.37402746 -0.22655521 -0.36011198
960600000231487 -0.30435866 0.14356002 0.488986 0.06007725 -0.36304832 -0.48734787 0.06689475 -0.45162308 -0.09795132 -0.29829168
960600000481878 0.44034252 0.43382746 0.7592745 -0.089679636 0.2230398 -0.14005157 0.41049284 0.5508514 -0.40379775 0.21951453
960600000216797 -0.28234762 0.16248469 0.5657213 0.013649903 -0.27687836 -0.3401087 0.17377515 -0.4077642 -0.090879075 0.14994103
960600000384849 -0.5364538 0.18680432 0.6278911 -0.15737593 -0.32861072 -0.24505919 -0.07096726 -0.23142847 0.1241028 -0.04377914
960600000362674 0.2024174 0.8271026 0.68211025 0.07177419 -0.6346398 0.024213506 -0.026814936 -0.33812356 0.16492915 -0.14335787
960600000283195 -0.24106947 0.26972723 0.6658149 0.12777263 0.1611641 -0.4027345 0.22934918 -0.31301183 -0.09792819 -0.31986287
960600000356438 -0.45549476 -0.0948201 0.6354948 -0.35387403 -0.23206344 -0.06843798 -0.015575708 -0.06080018 -0.20584589 0.15805401
960600000383234 -0.035897277 0.2131304 0.52767986 0.36137617 -0.2404839 -0.2803784 0.4757533 -0.02275476 0.03452282 -0.32525828
960600000257570 -0.048893046 0.11746584 0.49694654 -0.054142192 -0.27660573 -0.41260734 0.16609673 -0.56585723 -0.23393317 -0.21866438
960600000341280 0.21369633 0.66403806 0.7589662 -0.05211031 -0.6434441 0.2362728 -0.15667394 -0.32576323 0.09390249 -0.28410524
960600000360613 -0.1857249 0.35367104 0.44405147 0.084422365 -0.38843563 -0.57566595 0.06386808 -0.4552006 -0.11586902 -0.3653142
960600000248975 -0.20992954 0.17085883 0.5681835 0.36590007 -0.13864934 -0.2728987 0.38104796 -0.21785 -0.018590117 -0.20475017
960600000327801 -0.3985267 -0.13549045 0.49191853 0.16714461 -0.22007833 -0.1217663 0.07218328 -0.18402651 -0.3876451 -0.1908564
960600000368632 -0.4693663 0.3067357 0.63583237 -0.3014627 -0.3095104 0.11657977 -0.09938443 -0.20748436 0.13111757 -0.012410787
960600000234590 -0.32615796 -0.25523013 0.8218772 0.08999471 -0.122398555 -0.1251797 -0.07052712 -0.12528968 -0.3362464 -0.17437656
960600000480132 -0.2854506 0.05171078 0.4390301 -0.55166143 -0.13643388 -0.08454598 0.3486685 -0.10241229 0.035198208 -0.25579968
960600000217244 -0.2923268 0.310631 0.7043719 -0.009699802 -0.037491728 -0.29465777 0.0851819 -0.2817342 0.06167052 -0.26764345
960600000258149 -0.49319968 0.13223444 0.6197593 -0.15471268 -0.32088152 -0.42447796 -0.09366863 -0.26531145 0.007530627 -0.0710187
960600000340989 -0.31962717 0.2208494 0.5504016 0.2896011 -0.06389413 -0.14608672 0.28548828 -0.31315973 -0.10066196 -0.041034967
960600000285735 -0.30362764 0.17676663 0.5084433 0.4429258 -0.09468027 -0.28526822 0.46580094 -0.28577816 -0.13312098 0.09705435
960600000272233 -0.22237048 0.22375786 0.49311045 0.4318985 -0.124747425 -0.25925523 0.52120423 -0.24648976 -0.097439244 0.08167909
960600000310036 -0.5180936 0.06441513 0.5686565 -0.45746025 -0.19003968 0.037201192 0.026204394 -0.24584304 -0.09555383 0.13378136
960600000337825 -0.19388013 0.09194968 0.64103365 -0.09314079 -0.21863517 -0.23605731 0.31709498 -0.3949977 -0.031948198 0.23861976
960600000231509 -0.3567291 0.12530605 0.6744859 -0.25713775 -0.3423202 -0.1457146 -0.106404066 0.047545392 -0.009611654 -0.057431962
960600000262144 0.25795454 0.71908945 0.69557405 0.15618478 -0.5035461 0.011499072 3.8361322e-05 -0.39999002 -0.005961466 -0.19823574
960600000222286 -0.25113446 -0.1152442 0.7145478 0.2215152 -0.23455523 -0.09174984 -0.032569315 0.013876844 -0.33360425 -0.15869209
960600000449328 -0.33431974 -0.15537496 0.94098026 0.1447557 0.0043645822 -0.19479533 -0.00089444267 -0.23092732 -0.12162474 -0.37969908
960600000392147 -0.19243565 0.22338088 0.6212075 0.37806427 -0.0844735 -0.38579085 0.34760055 -0.22162066 -0.03617906 -0.14486182
960600000360532 -0.33478945 0.40107584 0.68235385 -0.034994412 0.15308265 -0.31679037 0.09898945 -0.3072771 0.021367392 -0.35256392
960600000222330 -0.23535952 0.1882818 0.62129056 0.29782504 -0.3180208 -0.16730273 0.2559611 -0.15174778 0.045505814 -0.03875536
960600000225831 -0.3987509 -0.12359945 0.6550629 -0.524074 -0.1867186 -0.14722826 0.07061785 -0.19511439 -0.17693575 0.23059906
960600000264552 -0.3114701 0.25751826 0.40891996 0.051819533 -0.44447222 -0.6559753 0.07115937 -0.44075525 -0.08514112 -0.26758608
960600000199447 -0.11763557 -0.1085536 0.74442726 0.27989954 -0.16131638 -0.103048846 0.10304296 -0.16536744 -0.37967145 -0.039196458
960600000360268 -0.12566406 -0.18558325 0.743053 0.25477588 -0.28462118 0.00278491 -0.13714708 0.09586851 -0.54296666 -0.33157444
960600000356234 0.28353584 0.64386094 0.7761542 -0.065819934 -0.6203366 0.16823983 -0.18599235 -0.33858508 0.025979333 -0.2745912
960600000382688 0.24644251 0.6436926 0.78271323 0.02713856 -0.62199855 0.19738977 -0.13027434 -0.32934088 0.07524937 -0.23454739
960600000341826 -0.35989624 0.17920965 0.84769833 -0.07569465 0.24975778 -0.36182046 0.10752953 -0.3503959 0.024528086 -0.41096044
960600000296328 -0.16229291 0.27029416 0.7039922 0.085863136 -0.24817912 -0.42710122 -0.06581167 -0.34124124 -0.11062499 -0.3956631
960600000467024 -0.15408705 0.21950509 0.505697 0.1341218 -0.35018817 -0.5335234 0.082446314 -0.3928682 -0.1564445 -0.38538972
960600000296511 -0.51075697 -0.101335034 0.6315314 -0.2500763 -0.23709519 -0.18634862 0.0010632314 -0.19915101 -0.13169253 0.10312375
960600000434516 -0.16780157 -0.2585555 0.87579525 0.2320029 -0.33091122 -0.037043504 -0.19188274 0.01346595 -0.40821669 -0.27443722
960600000468367 -0.028306652 0.4448416 0.5400046 0.33972964 -0.37899834 -0.3607734 0.18030477 -0.2961176 -0.10113356 -0.08227
960600000283131 -0.30845279 0.5757888 0.6382301 -0.047047988 -0.19085601 -0.48021486 -0.1768071 -0.2555245 0.0014686341 -0.34460294
960600000348461 -0.18345283 0.17647499 0.50746626 0.389115 -0.121230945 -0.29870763 0.5222065 -0.2591932 -0.12636895 0.10723085
960600000225577 -0.27836156 0.035571363 0.74752265 0.1324322 -0.31116986 -0.24325551 0.14469562 -0.13537438 0.031872302 0.03973037
960600000288207 -0.5021446 0.4985268 0.52028966 0.21506825 -0.19010493 -0.6508163 -0.040895544 -0.087899216 -0.044445515 -0.06728068
960600000298316 -0.11532295 0.18336317 0.4308236 0.43715385 -0.13992395 -0.3728715 0.5278732 -0.18160194 -0.23902437 0.045632776
960600000337976 0.09795557 0.84952825 0.6997444 -0.026327616 -0.59279066 0.046271995 -0.19282606 -0.26119477 0.13319238 -0.109291814
960600000080059 0.19455896 0.7759038 0.74233705 0.035539586 -0.57911456 0.1121608 -0.042497143 -0.35213572 0.1751371 -0.09380285
960600000304283 -0.16948242 0.1762453 0.50200087 0.42762122 -0.13917188 -0.29229876 0.52608114 -0.25447303 -0.110104606 0.034820147
960600000351905 -0.49591714 0.14491703 0.49104026 0.016443586 -0.1863009 -0.056902703 0.26327088 -0.25593495 -0.005936663 0.056142498
960600000301067 0.15028994 0.83380806 0.7032339 -0.022584882 -0.54683864 0.16361898 -0.08619937 -0.3408108 0.17260274 -0.18712655
960600000216200 -0.10410965 0.008103393 0.5499143 0.041344278 -0.15049781 -0.1307572 0.4775505 0.31642577 0.04695824 -0.46075904
960600000441691 -0.26112255 -0.087533526 0.63407457 -0.5704572 -0.10211114 -0.07400276 0.1796691 -0.31138676 -0.24858867 0.27522093
960600000451291 -0.3908577 0.1644103 0.80789393 -0.116959974 0.27396184 -0.24312367 0.10994015 -0.31505445 0.020450162 -0.42128894
960600000393596 -0.1989969 0.31318057 0.45969245 0.11504396 -0.2624162 -0.513651 0.18799463 -0.47883984 -0.082250305 -0.3078389
960600000473036 -0.031252723 -0.23010653 0.6388411 0.1255945 -0.29223117 -0.11513619 0.25744426 0.22447562 -0.13919294 -0.7231083
960600000426909 -0.22857374 -0.11438867 0.8298498 0.12519512 0.06496592 -0.28604642 0.21355161 -0.20067157 -0.0832126 -0.30305204
960600000291295 -0.12905954 0.09672145 0.6054086 0.2601966 -0.1490093 -0.2238626 0.33359057 0.045347046 -0.11375763 -0.08712276
960600000215574 -0.20637512 0.32221493 0.45019686 0.059976727 -0.38303617 -0.6110375 0.06861015 -0.5104643 -0.10338234 -0.35797805
960600000362014 -0.01928964 0.0063029774 0.3512024 0.16954122 -0.21799639 -0.3829164 0.46921602 -0.03515338 -0.27359924 -0.41214752
960600000320171 -0.27011216 -0.2508282 0.8316746 0.17501578 -0.32169342 -0.10779437 -0.035030734 -0.03539487 -0.18765809 -0.21708372
960600000269141 -0.6800558 0.17629528 0.3682873 -0.056628864 -0.10423842 0.081458785 0.23054355 -0.15200816 -0.012517133 -0.1402769
960600000290378 -0.34842998 0.16704988 0.5204285 0.29700392 -0.112566926 -0.20252633 0.21334617 -0.105408736 -0.18364634 -0.09304771
960600000357869 -0.054389097 0.384892 0.51749986 0.3571218 -0.22991075 -0.44754252 0.27151158 -0.15774006 -0.16503763 -0.036983434
960600000215659 -0.15349276 0.18905877 0.69476277 0.41410893 -0.23812123 -0.2344754 0.31734896 -0.19641963 0.047287393 -0.033451445
960600000408979 -0.007779361 0.18717743 0.31212416 0.12213414 -0.13110802 -0.39274785 0.5611771 0.10864757 -0.11305726 -0.5640476
960600000364815 -0.18807118 -0.17866258 0.84775317 0.14463931 -0.16133836 -0.12586477 -0.11161439 -0.10910563 -0.38967654 -0.31223705
960600000351273 -0.41371134 -0.019505996 0.5842437 -0.1678391 -0.26728892 -0.32661486 0.103942834 -0.2894262 -0.13121901 0.14088453
960600000216911 -0.44914934 0.45315802 0.50181276 0.1416138 -0.1299271 -0.584458 0.006676411 -0.0014461675 -0.09584246 -0.06266177
960600000269051 -0.052185737 0.075193375 0.5748028 0.35503533 -0.17889892 -0.17521371 0.4654556 0.0014436628 -0.03842648 -0.2703188
960600000216271 0.24764466 0.80783135 0.66030294 0.09552216 -0.6020158 0.11787979 -0.0498215 -0.3696876 0.0442618 -0.17869474
960600000221138 -0.1666077 0.25376347 0.59657735 0.4190652 -0.11082396 -0.35452303 0.37766546 -0.21091147 -0.025981847 -0.13923211
960600000245451 -0.70242375 0.25257984 0.5051652 -0.095493004 -0.1981675 0.2437578 0.045024555 -0.06832757 0.114166185 -0.12434857
960600000271640 0.09760731 0.82635885 0.70744854 -0.106387794 -0.50866675 0.11828675 -0.1300547 -0.34816277 0.17969635 -0.24119125
960600000440005 -0.07398242 0.09253328 0.4337508 0.4829315 -0.18683647 -0.41521543 0.50474834 -0.2624332 -0.33179548 0.00656588
960600000233146 -0.5414027 0.3165092 0.66920316 -0.057041116 -0.1344627 -0.4610805 -0.22459465 -0.03505579 -0.060371988 -0.12448664
960600000358151 -0.36059958 0.4104155 0.56636983 -0.33650655 -0.4478415 -0.5305626 -0.2972566 -0.16058531 -0.04454594 -0.108358
960600000012443 -0.16907021 0.24250224 0.66437745 0.39485246 -0.04907234 -0.32684326 0.37114075 -0.30110866 0.011080349 -0.18989505
960600000262039 -0.053978253 0.23637788 0.48292682 0.32688963 -0.34475246 -0.47957516 0.24249125 -0.23833111 -0.2653477 0.010576251
960600000362592 0.07687557 0.8943567 0.7164801 -0.099344224 -0.4519049 0.010744461 -0.20540753 -0.26990336 0.11611401 -0.22637868
960600000372351 0.072535284 0.9188392 0.7138818 0.03550713 -0.47199944 0.0056929076 -0.15743417 -0.26890823 0.12683429 -0.14818658
960600000332973 -0.5618919 0.18773699 0.5702452 -0.1584467 -0.2750472 0.008497265 0.063389905 -0.26387435 0.1122299 0.03129891
960600000321805 0.04008818 0.16070227 0.37709036 0.19549191 -0.18641199 -0.39306098 0.66491187 0.06615917 0.006727379 -0.53941226
960600000434024 -0.35985363 0.42665154 0.5688479 -0.19760121 -0.3862458 -0.60646576 -0.28898194 -0.16704027 -0.097764 -0.12043325
960600000432660 -0.31166714 -0.018232962 0.5732324 0.38910162 -0.109837934 -0.24525796 0.39306268 -0.2463453 -0.14502326 -0.03076389
960600000431418 -0.33536127 0.17682116 0.5575591 0.0314447 -0.17996933 -0.19305642 0.33581156 -0.043013483 0.11977508 -0.090429425
960600000357292 -0.09996324 0.12629539 0.50374955 0.11162927 -0.30042848 -0.40584582 0.14544794 -0.46051186 -0.22533555 -0.39597943
960600000370034 -0.15636511 0.0013892957 0.667297 -0.60400563 0.1091148 -0.16097364 0.31426656 -0.53315896 -0.19508265 0.19396546
960600000324856 -0.28814465 0.15298244 0.6451533 0.31232578 -0.31837654 -0.26381463 0.18246812 -0.21022128 0.002760522 0.044997457
960600000469689 -0.094930656 0.2620213 0.46669602 0.35226315 -0.19201815 -0.27618483 0.45737946 -0.104838096 -0.023516018 -0.27196878
960600000375892 -0.32549092 0.11786331 0.6865827 0.2670327 -0.31026664 -0.19346733 0.20135967 -0.15970433 0.070487656 0.075543135
960600000419851 -0.30195567 -0.080477744 0.9519389 0.010908338 -0.021457186 -0.29465115 -0.13035576 -0.09347023 -0.1805496 -0.24869439
960600000295256 -0.36005393 -0.17366663 0.6324394 -0.09473832 -0.33084822 -0.17745112 -0.0558032 -0.034760818 -0.29552892 0.013866035
960600000293831 -0.35811266 0.06582821 0.84616387 -0.0019877087 0.26245522 -0.33160654 0.1197803 -0.33985925 -0.045409072 -0.43791822
960600000264071 -0.110304914 0.19854663 0.43154016 0.18025392 -0.15874662 -0.41374406 0.3878357 0.23927207 -0.059245568 -0.47253695
960600000343741 -0.20694725 0.34575957 0.64751136 0.19045165 -0.28618065 -0.6228416 0.036818676 -0.13403712 -0.03801732 -0.010743662
960600000483312 0.25334984 0.88367885 0.6891295 0.1503106 -0.55226326 0.054689392 0.00856009 -0.44148868 0.12577097 -0.20931661
960600000341551 -0.66091055 0.2585687 0.5195846 -0.058634944 -0.25017613 -0.05479441 -0.00026671222 -0.24749374 0.10953628 -0.10768944
960600000211287 -0.17567891 0.22376762 0.63593847 0.43023932 -0.21914853 -0.28470597 0.33577824 -0.21445353 -0.0011923941 0.0055751875
960600000160382 -0.034521554 0.30195898 0.42776093 0.08342312 -0.24497612 -0.27567893 0.34322602 0.2050782 0.06076996 -0.6381434
960600000402515 -0.16166626 0.3651964 0.6755174 0.30529103 -0.20532927 -0.41006783 0.13709927 -0.22681184 -0.04810425 -0.043727487
960600000484789 -0.19969834 0.44898063 0.5541289 -0.24368097 -0.5033434 -0.49159732 -0.23893331 -0.16610949 -0.040768556 -0.16839194
960600000392094 -0.22168933 0.045741074 0.9459179 0.058020793 0.2509399 -0.23538043 0.09651779 -0.31484854 -0.1276928 -0.44154173
960600000468837 -0.25925764 0.40222928 0.54108685 0.3341836 -0.210748 -0.31837925 0.3111793 -0.34872034 0.13342027 -0.2077405
960600000171887 -0.43950185 0.10963604 0.5891073 0.120841175 -0.22271936 -0.22858039 0.17921863 -0.1993794 -0.021336986 0.062090605
960600000262189 0.13891344 0.859194 0.6651869 -0.047924288 -0.5525133 0.19440164 -0.10779235 -0.37956744 0.13829774 -0.18739124
960600000326366 -0.298078 0.041949682 0.43378198 -0.13498545 -0.24682307 -0.13820669 0.16859132 -0.12721427 -0.20455071 -0.13412549
960600000262643 -0.47944888 0.41615048 0.5384772 0.14550735 -0.26289678 -0.49428356 -0.016262723 -0.19879967 0.03030081 -0.07579438
960600000354932 -0.18171577 -0.010622617 0.6772385 -0.6014047 0.10283508 -0.22040135 0.33369416 -0.540538 -0.17167717 0.2390826
960600000398837 0.14820808 0.82322925 0.7224797 -0.087297946 -0.583911 0.1615839 -0.13982518 -0.38793096 0.17751929 -0.19465543
960600000254976 0.059366185 0.0024364153 0.26865673 -0.16074556 -0.1828479 -0.26325554 0.51517516 0.25043583 -0.2496313 -0.6850758
960600000360108 -0.048775304 0.13460566 0.41684622 0.3151904 -0.18466859 -0.39250493 0.49463317 -0.06730302 -0.13838589 -0.35574922
960600000479106 -0.22751927 0.4834093 0.57270116 -0.23767526 -0.45427394 -0.46171716 -0.25743204 -0.15933795 -0.049930193 -0.16132593
960600000234313 -0.04321779 0.003294202 0.52421796 -0.11143131 -0.08979649 -0.21627368 0.45475522 -0.32362002 -0.29594877 0.21473508
960600000385824 -0.4089263 0.12044243 0.640966 -0.052630886 -0.40636313 -0.1316227 0.012365248 -0.19753537 0.060001 0.043020356
960600000353224 -0.36283484 -0.13588409 0.4102166 -0.123385645 -0.21867369 -0.19798666 0.16648906 -0.29410288 -0.40150738 -0.007714181
960600000337797 -0.24064468 0.3220391 0.56758815 0.3423891 0.04421782 -0.31395066 0.40659037 -0.38101885 -0.05772527 -0.07345412
960600000261799 -0.6190035 0.073162556 0.50218815 -0.16420516 -0.09493806 -0.016888203 0.16433774 -0.27560514 -0.03435632 0.032258213
960600000354207 -0.26881602 0.21512537 0.45639482 0.058988612 -0.15856425 -0.17029972 0.46886072 0.103076994 0.17759256 -0.3596858
960600000308576 -0.17966321 0.13305596 0.49076277 0.47299227 -0.12277683 -0.2964642 0.5469803 -0.21806145 -0.15598495 0.062646374
960600000483570 -0.09493461 0.0633464 0.63883287 -0.1120259 -0.17997292 -0.22258304 0.3923409 -0.4130298 -0.11201362 0.2808057
960600000296795 -0.28856552 -0.031268217 0.65375733 -0.591619 0.03712744 -0.2205185 0.25502875 -0.4621661 -0.1368208 0.17382102
960600000261845 -0.16982259 0.20316721 0.61095387 0.371164 -0.26681674 -0.33308974 0.29676372 -0.27982408 -0.03482065 -0.012091967
960600000346694 -0.34117034 0.1575335 0.8135938 -0.08901318 0.28054607 -0.29054198 0.12663056 -0.32933465 -0.042862557 -0.37420458
960600000263754 -0.25252527 0.48367545 0.7123789 -0.06597639 -0.4271083 -0.32701227 -0.20359953 -0.1634021 0.11959427 -0.1321524
960600000273047 -0.15443756 0.0103390245 0.28751847 0.2559535 -0.22673164 -0.4164943 0.44573113 -0.2902907 -0.4445403 -0.060835462
960600000409666 0.24869107 0.7177776 0.70396245 -0.068178035 -0.5631671 -0.029711472 -0.10128635 -0.42559975 0.045405764 -0.26895162
960600000297494 -0.36298385 -0.21903259 0.75546557 -0.048378192 -0.24959156 -0.04691362 0.03025939 0.090689376 -0.16114736 0.024167914
960600000312987 -0.62036407 0.18109539 0.50869846 -0.07929124 -0.36420247 0.14928982 -0.143963 0.0037223592 -0.06617432 -0.11520767
960600000464265 -0.17377539 0.13737598 0.52064306 0.21176283 -0.31150872 -0.41900027 0.14391454 -0.4450142 -0.17708063 -0.360084
960600000388648 -0.46659216 0.3605915 0.61844015 0.09005095 -0.2940582 -0.66667473 -0.14449896 -0.086631365 -0.03685545 -0.021687185
960600000308541 -0.48747417 -0.079188466 0.51742953 -0.38105997 -0.13578753 -0.026689697 -0.08351485 0.14959578 -0.3912048 -0.011088122
960600000003084 -0.22185145 -0.13518535 0.51655567 -0.07805683 -0.17812005 -0.2161194 0.15587609 0.09980111 -0.38137242 -0.12000423
960600000261427 -0.1726635 0.19694765 0.39176986 0.0357123 -0.49351832 -0.57978797 0.11000763 -0.49507222 -0.12565185 -0.32615682
960600000262848 0.3310352 0.6518609 0.69810176 0.21518977 -0.51638186 0.27053568 0.1649065 -0.29524314 0.07392867 -0.13883692
960600000356953 -0.35999316 -0.17069288 0.79132986 0.03044645 -0.47362888 0.14146817 -0.21010068 -0.110269114 -0.15930317 -0.17739908
960600000353874 -0.2676952 -0.05036913 0.6961363 -0.6027588 0.054185048 -0.17306888 0.29940572 -0.54087126 -0.13130052 0.24911986
960600000217182 -0.18765558 -0.044395417 0.63352895 -0.013270787 -0.09814555 -0.19781215 0.19735314 -0.06357791 -0.09960177 -0.5183141
960600000473172 -0.35315463 0.24617755 0.8076 0.03531867 0.037533876 -0.4684572 -0.09988259 -0.23614667 -0.08340866 -0.31829995
960600000462355 -0.21177478 0.48456052 0.622304 -0.2171182 -0.4955067 -0.50509423 -0.3053031 -0.13735743 -0.027840788 -0.13828169
960600000452780 -0.28069746 -0.099091746 0.5893997 -0.49112308 -0.15518495 -0.12325714 0.07818823 -0.38488406 -0.31353033 0.15138674
960600000242776 -0.36005443 0.20342655 0.83915323 0.042014394 0.30868626 -0.38864133 0.06976682 -0.25877234 -0.09797114 -0.40165263
960600000259915 -0.62606204 0.37112114 0.58598524 -0.21771896 -0.33546534 0.016877962 -0.15847893 -0.06087067 0.19790906 -0.14145835
960600000462667 -0.2416064 0.47059363 0.5675125 -0.26234284 -0.4525162 -0.42607513 -0.24354593 -0.20331107 -0.010149519 -0.14510147
960600000366956 -0.23796484 0.45206422 0.56572413 -0.20430791 -0.47288102 -0.4948916 -0.24222086 -0.14988916 -0.04646748 -0.1462143
960600000262160 -0.677264 0.2058402 0.55758715 -0.117549144 -0.26263413 -0.049242407 0.007774703 -0.26843598 0.14295693 -0.031098224
960600000369757 -0.3012538 -0.13466643 0.93761396 0.071915165 0.015116481 -0.31525818 0.1178518 -0.2657734 0.0056102485 -0.3673155
960600000366974 -0.2231468 0.5020989 0.5835318 -0.25860596 -0.4906327 -0.45775047 -0.26991308 -0.14731981 -0.017835485 -0.10243835
960600000458770 -0.13652067 -0.36687747 0.90775466 0.25641027 -0.2589154 0.11088058 -0.16416503 -0.06537688 -0.5501186 -0.37201667
960600000479134 -0.19967726 0.25575882 0.40046564 0.45094573 -0.20226549 -0.36140063 0.40637115 -0.21633074 -0.18399544 -0.05455988
960600000368880 -0.45033786 0.12962031 0.7078306 -0.09436295 -0.4379767 -0.06040284 -0.06831742 -0.11482963 0.12743963 0.054658405
960600000443017 -0.23266095 0.47140464 0.5918661 -0.25416914 -0.4725561 -0.48765683 -0.2644018 -0.13756928 -0.03633653 -0.13715912
960600000347168 -0.2566457 0.5167302 0.5576663 -0.21770114 -0.48332214 -0.4326444 -0.27999747 -0.1499905 -0.03303238 -0.1818428
960600000232165 -0.19332834 0.16549677 0.36570144 -0.05302856 -0.41160765 -0.45987007 0.15491663 -0.39892605 -0.11373538 -0.3663966
960600000267101 -0.4921785 0.15608361 0.4857017 0.036591843 -0.21654494 -0.05612395 0.20057529 -0.16576585 -0.0029683085 -0.03854534
960600000418754 -0.36133152 0.25120744 0.45722318 0.3528224 -0.03724712 -0.06693797 0.5064719 -0.33532774 0.010488271 -0.10944225
960600000342235 -0.4548982 0.17440897 0.49335173 0.04771963 -0.18312395 -0.056538943 0.33644256 0.032576207 0.15649919 -0.21807984
960600000216181 -0.358113 0.15254965 0.49368373 0.33914226 -0.074103355 -0.23673888 0.34229076 -0.15723898 -0.14448145 -0.06580142
960600000479794 -0.19920759 0.4461068 0.5758579 -0.21999593 -0.48283172 -0.49254623 -0.20633462 -0.18477671 -0.01684528 -0.16829173
960600000382697 -0.3367333 0.19469956 0.55637556 0.27222523 -0.17664759 -0.26453352 0.33119476 -0.17280418 0.018157182 -0.0018580605
960600000263857 -0.12870969 0.21160772 0.8512627 0.020577652 -0.09666797 -0.33477837 -0.09436731 -0.21690856 -0.10531279 -0.3953558
960600000362441 -0.29044542 0.5554775 0.57938033 -0.019651346 -0.3594917 -0.40927005 -0.1540312 -0.13435528 0.046565697 -0.2246819
960600000401802 -0.2715041 -0.11128742 0.69277054 0.17352137 -0.16789237 -0.4423684 0.08203932 -0.33452854 -0.2327002 -0.24555561
960600000264414 -0.1948547 0.25776863 0.3606847 0.08981316 -0.48505414 -0.54860234 0.07267245 -0.4651818 -0.18556549 -0.31414565
960600000367034 -0.2256992 0.49687472 0.5843177 -0.24025498 -0.4574916 -0.5095567 -0.25509053 -0.18381302 -0.025246652 -0.13249435
960600000384092 -0.26485917 0.04599475 0.7286209 -0.37449476 -0.0841829 -0.14839627 -0.023079641 0.43276006 -0.17848335 0.075744085
960600000238146 -0.22835483 0.167948 0.8409162 0.051061805 0.28809172 -0.26886886 0.1786262 -0.31497002 -0.085072115 -0.4057427
960600000331127 -0.130158 0.234589 0.68742144 0.46179998 -0.27684367 -0.39843097 0.15252857 -0.23029624 -0.12244404 -0.101712644
960600000404100 -0.62248975 0.38335478 0.45997006 0.0045123603 -0.23950231 0.12881607 0.08391902 0.12823369 0.22784041 -0.34351796
960600000300738 -0.36776966 0.21751696 0.76488554 0.14420389 -0.18178447 -0.44263837 -0.22419992 0.012161395 -0.16043924 -0.25894576
960600000379931 -0.23465258 0.2928807 0.37716833 0.058337573 -0.44349447 -0.6080585 0.044449147 -0.47062352 -0.16731945 -0.31097764
960600000229307 -0.63228625 0.41505885 0.57601845 -0.24410489 -0.29102555 0.024488425 -0.16610958 -0.04717477 0.21920526 -0.23612644
960600000480960 -0.19692968 0.50920856 0.5678998 -0.1701799 -0.5092333 -0.44105005 -0.23168038 -0.1689018 -0.017371923 -0.15412061
960600000346120 -0.27420262 0.19062106 0.8723685 -0.021627327 0.2660171 -0.39733955 0.09482358 -0.36275464 -0.078111164 -0.389934
960600000442924 0.2517953 0.86924964 0.6841302 0.0032610707 -0.5265526 0.08476668 -0.06657011 -0.37813187 0.11090117 -0.26148307
960600000483254 -0.33829486 0.21418971 0.8123965 -0.14643773 0.27998957 -0.27961275 0.14062744 -0.3459236 0.015523531 -0.3652057
960600000309572 -0.563989 0.27167636 0.6089131 -0.13314171 -0.20028903 -0.28912798 -0.16102122 -0.10761064 -0.020422634 -0.035708237
960600000265970 -0.18185665 0.2182058 0.5807894 0.32814354 -0.24133058 -0.44076303 0.1913917 -0.100176804 -0.14819731 -0.011894285
960600000363092 -0.2972281 0.0129388105 0.62902796 0.075213455 -0.22751534 -0.101617984 0.13629247 0.06139609 -0.08792112 -0.101291135
960600000264832 -0.43603483 -0.13587299 0.6293835 -0.52333003 -0.15544027 -0.18492123 0.05428888 -0.23220736 -0.2060373 0.22032918
960600000478754 -0.22960731 0.26800132 0.74609417 -0.017194135 0.20836227 -0.36080533 0.18494135 -0.42989594 -0.049107194 -0.37754768
960600000479461 -0.22942208 0.46090418 0.5721445 -0.20467061 -0.4982771 -0.5230396 -0.22248763 -0.18217456 -0.02658946 -0.14574413
960600000481486 -0.25885865 0.4683742 0.5788266 -0.27927372 -0.47645265 -0.48034203 -0.28242123 -0.14469369 -0.03824364 -0.17071593
960600000395929 0.15455888 0.9175677 0.6711963 -0.0075023295 -0.5332541 0.14860202 -0.14818913 -0.2860849 0.067835025 -0.15216798
960600000381293 -0.11779159 0.019464316 0.32263896 0.12634096 -0.22025044 -0.4328921 0.29171476 -0.040511906 -0.4262328 -0.3102719
960600000451560 -0.24667369 0.2421059 0.59598047 0.19835474 -0.18614003 -0.26391953 0.23602132 0.18984063 0.046281546 -0.1301939
960600000246792 -0.16996591 0.18003987 0.5069263 0.3704646 -0.16383322 -0.35692224 0.47091708 -0.24329019 -0.12476835 0.09893459
960600000357283 -0.4964723 0.13784023 0.51443356 -0.045781385 -0.15780526 -0.26977807 0.029212087 -0.17475261 -0.13041636 -0.07105225
960600000318297 -0.3205063 0.2467704 0.78629243 0.08024187 0.038937937 -0.53971314 -0.04856955 -0.24562472 -0.096246175 -0.3661922
960600000258962 -0.40934008 0.23421381 0.77856874 -0.0734981 0.18665725 -0.3760036 -0.00093255093 -0.23952147 -0.041387774 -0.3268405
960600000229812 0.30964914 0.75087136 0.69603175 0.21599534 -0.35059467 0.26179904 0.2720225 -0.42657867 0.10680663 -0.08563969
960600000247461 -0.21131477 -0.20532933 0.39058408 -0.05084684 -0.20717753 -0.2786798 0.21523285 -0.22708784 -0.49129805 -0.2310208
960600000384273 -0.31354427 0.16664134 0.6903036 -0.3918614 -0.3167821 -0.25767204 -0.048425276 -0.37161583 0.020184131 0.07997262
960600000296930 -0.4932288 0.24799247 0.78587455 -0.059194993 -0.02095754 -0.36207727 -0.11007879 -0.19513406 0.06684095 -0.16909453
960600000364919 0.046582416 0.17444792 0.34489033 0.3009625 -0.19213769 -0.32746518 0.64627844 0.037142426 -0.0869953 -0.4910851
960600000324792 0.27058947 0.7549871 0.7009369 -0.12537082 -0.4661119 0.0011038356 -0.08087356 -0.37639672 0.029678812 -0.27904105
960600000365858 -0.45888224 0.37079263 0.66969067 -0.13848975 -0.34612107 0.041811917 -0.13548514 -0.14861381 0.14420642 -0.011597526
960600000345681 -0.49392137 0.38166907 0.65106785 -0.15511772 -0.33002153 0.15226603 -0.10269059 -0.12360476 0.18174638 -0.04940588
960600000345195 -0.069681734 0.11053879 0.49767748 0.09186342 -0.29750103 -0.52268934 0.18731016 -0.48537 -0.21805753 -0.41487205
960600000348838 -0.30403212 0.37844124 0.3561993 0.14665781 -0.4434649 -0.7121986 -0.04161625 -0.33316574 -0.23949039 -0.24889128
960600000244537 -0.18880184 0.47575995 0.56787825 -0.23270418 -0.52776587 -0.52157825 -0.24700785 -0.18582736 -0.0400561 -0.12723368
960600000417980 0.212275 0.83797085 0.7336931 -0.056175817 -0.5665369 0.12061395 -0.14486614 -0.2795989 0.13673103 -0.25103745
960600000245479 -0.7097153 0.28313032 0.55249465 -0.11452238 -0.21001634 0.2742967 -0.034059245 0.04679564 0.1368387 -0.18086946
960600000331901 -0.23806544 -0.11230686 0.8551086 0.250542 -0.03492925 -0.19707255 0.027003082 -0.1838734 -0.21297969 -0.4158616
960600000357879 -0.30919397 0.09199525 0.47304934 0.11509841 -0.19216292 -0.42626297 0.1202745 -0.44025207 -0.27040067 -0.26537022
960600000384629 0.24863711 0.86751515 0.6728809 -0.006282131 -0.6131128 0.076583475 -0.12006399 -0.3179145 0.08922395 -0.21688159
960600000299300 -0.24347194 -0.091490306 0.812921 0.21689163 0.030046321 -0.2941236 0.015807059 -0.23970135 -0.34270123 -0.35648093
960600000312082 -0.1802417 -0.040691394 0.7378284 -0.6061146 0.07443899 -0.21027505 0.28957024 -0.5635769 -0.18240316 0.32269764
960600000260731 -0.4460151 0.5048037 0.42328355 0.3136829 -0.118048124 -0.6213681 0.07306673 -0.010355308 -0.18316014 -0.08345621
960600000306752 -0.059820626 0.22544725 0.69570947 0.4491275 -0.2948379 -0.3681831 0.13454093 -0.1814162 -0.16412677 -0.08055752
960600000233242 -0.46055973 -0.16769837 0.4592314 -0.24283145 -0.2718828 -0.05206233 -0.15185869 0.017981518 -0.55128366 -0.088546485
960600000201979 -0.24682267 0.1333074 0.563521 0.3082132 -0.21247068 -0.30180728 0.42832196 -0.23650958 -0.02050701 0.08776726
960600000339001 -0.2571384 0.18056211 0.55031294 0.34307683 -0.07417131 -0.45117223 0.16965346 -0.030602755 -0.31516784 -0.040720064
960600000366953 0.29354164 0.76177335 0.80121607 -0.030938989 -0.45198634 0.019641872 -0.059245773 -0.3553331 0.104723044 -0.29909614
960600000363019 -0.23136188 0.26754174 0.33488637 0.0113981515 -0.5184015 -0.57545877 0.06572379 -0.54739434 -0.18016192 -0.23654044
960600000353590 -0.2579556 0.22985405 0.49211496 0.41793653 -0.052793033 -0.21417604 0.40699255 -0.20137006 -0.13492219 -0.105035655
960600000340944 -0.24819295 0.1296838 0.5899859 -0.1542782 -0.09128087 -0.0925424 0.37224978 -0.3363252 0.0007974116 0.12726875
960600000359506 -0.25012693 0.16983882 0.5315864 -0.18535833 -0.09426973 -0.2723895 0.17102605 -0.07024442 -0.024718232 -0.31605202
960600000307900 -0.22324994 -0.26840946 0.7384433 0.088153556 -0.3273957 -0.04024873 -0.09101828 0.21355645 -0.34954882 -0.33383846
960600000437402 -0.2594231 -0.32168677 0.814147 -0.03679168 -0.15984356 -0.08167803 0.07331727 0.05299592 -0.12562838 -0.36894184
960600000437955 -0.5166645 0.02933761 0.6716277 -0.1261353 -0.38785365 -0.100002244 -0.08774113 -0.18953858 0.019333797 0.044862524
960600000264065 -0.07866196 -0.14150888 0.65573436 0.42235574 -0.31015182 -0.24431002 0.09396905 -0.22284403 -0.43352515 -0.31456158
960600000276052 -0.27444103 0.39950866 0.57338333 0.4042607 -0.21937138 -0.44552448 0.15082271 -0.15221767 -0.015792217 -0.13755159
960600000350512 -0.26747736 0.041705105 0.55461013 0.1303266 -0.2888852 -0.44341788 0.06587074 -0.5627784 -0.2161661 -0.3398091
960600000352157 -0.15101972 0.03550404 0.4997567 -0.016799789 -0.2490172 -0.23703696 0.43714792 0.040264163 0.06923761 -0.29513168
960600000280326 -0.24426706 -0.01069112 0.80324745 0.14734198 0.042791214 -0.3356644 0.01626496 -0.11628899 -0.25957987 -0.39739174
960600000221801 -0.35901168 0.050961226 0.8781181 -0.058390044 0.1961873 -0.34749654 -0.041315388 -0.1644264 -0.12891456 -0.4205747
960600000356705 0.1136167 0.13330302 0.32422876 0.0857078 -0.2895358 -0.3265692 0.47483143 -0.017398175 -0.21915184 -0.5188298
960600000318585 -0.2866428 -0.08556395 0.53455573 -0.25746518 -0.21266915 -0.120357215 0.133245 -0.104141794 -0.18884908 -0.13828263
960600000274031 0.19028468 0.8074082 0.76104856 -0.10990348 -0.56265604 0.16851147 -0.13593885 -0.41541004 0.15615208 -0.17954583
960600000373696 -0.19249535 0.3561355 0.3774011 0.009395161 -0.35538352 -0.5115039 0.09702817 -0.4590851 -0.1265898 -0.360586
960600000216127 -0.043795113 0.20701417 0.43722093 0.28967193 -0.14988717 -0.33283228 0.5915839 -0.076086 -0.053016488 -0.2272155
960600000379140 -0.3794105 0.03614283 0.7606996 -0.4936936 0.01571178 -0.06929318 0.17233084 0.09865238 6.784357e-05 0.22350402
960600000261405 -0.54501534 0.01544043 0.39135268 -0.3270874 0.024993464 0.080831155 0.19055022 -0.11746461 -0.2887054 -0.019059904
960600000265165 -0.55022365 0.42252114 0.582328 -0.120914824 -0.31253117 0.19942494 -0.035372533 -0.15005855 0.21951781 -0.086302556
960600000301072 -0.12790188 0.24473234 0.7411262 0.2802699 0.049372066 -0.5324339 0.19306569 0.14574358 -0.16449831 -0.027375396
960600000365380 -0.28067613 0.05625321 0.6536569 -0.5228153 -0.25332916 -0.1254329 0.07118822 -0.3428214 -0.09483597 0.26371813
960600000251849 -0.27272317 0.17961273 0.6280979 0.16389655 -0.21549606 -0.2892272 0.26901463 -0.2179603 0.047780808 0.04419412
960600000401399 -0.3025884 -0.012589255 0.63456243 -0.49026346 -0.01696031 -0.18071523 0.23648292 -0.5369398 -0.12803134 0.1660266
960600000310219 -0.18372066 -0.102559686 0.7577396 0.18884647 -0.14357838 -0.2965228 0.06065102 -0.38216645 -0.30656412 -0.20314808
960600000301071 -0.10445367 0.29218706 0.6347652 0.19236109 -0.018171342 -0.42820096 0.25646168 0.17368045 -0.15698063 0.0018144991
960600000263377 -0.2839711 0.49441382 0.6757371 -0.13986842 -0.24881575 -0.3196329 -0.106040075 -0.19678074 0.12169054 -0.20226346
960600000269349 -0.28140873 0.17645241 0.85498136 0.008492281 0.34898287 -0.27654597 0.16105449 -0.3274479 -0.0883191 -0.42336512
960600000317334 -0.26102298 -0.07538698 0.873343 0.15276851 0.025780413 -0.29380026 -0.0094018215 -0.13908775 -0.21602245 -0.33748114
960600000339191 -0.52222157 -0.1294449 0.5631588 -0.035919257 -0.15277725 -0.042273916 0.17773207 -0.05597322 -0.1681435 0.012473072
960600000438388 -0.07422094 0.19237013 0.23951763 0.16716112 -0.15117826 -0.37714025 0.5461502 0.115336575 -0.14650308 -0.6298858
960600000373905 -0.09727242 0.060293633 0.38131112 0.2539055 -0.26193035 -0.35650396 0.33558545 -0.21905144 -0.37059876 -0.14087997
960600000417401 -0.12468281 0.16567132 0.8150295 0.1886148 -0.1062357 -0.2925712 0.04293667 -0.26333138 -0.12408336 -0.20440793
960600000329097 0.18896931 0.84445864 0.68929666 -0.067724735 -0.45492765 0.11646006 -0.054223474 -0.39385056 0.13529311 -0.27876106
960600000393379 -0.09628775 0.16665882 0.34466076 0.23546839 -0.11957451 -0.4740569 0.6192832 0.1613518 -0.015280467 -0.57411027
960600000255882 0.050993305 0.3399015 0.56518257 0.39273402 -0.33591825 -0.41180646 0.22926621 -0.10809383 -0.21544382 -0.02565948
960600000313950 -0.4232248 0.46685776 0.52407044 0.23704089 -0.1882455 -0.62028563 -0.06394887 -0.10270094 -0.13595392 -0.06084785
960600000307288 -0.39361775 0.39284083 0.66213906 0.10659217 -0.17797853 -0.6701122 -0.18068518 -0.07481788 -0.10696648 -0.18041773
960600000381070 -0.45212665 0.029021941 0.6567676 -0.09858114 -0.27996507 -0.23984239 0.119080134 -0.1156225 0.056238312 0.106627636
960600000262506 -0.28624082 0.3693302 0.5747452 -0.068680465 -0.11010712 -0.29480037 0.07850411 -0.17809236 0.0134081915 -0.25150847
960600000364133 -0.48575717 0.17996994 0.5639015 0.15211932 -0.18887445 -0.016550995 0.22229995 -0.24616213 0.044164613 0.060516477
960600000265431 -0.18985285 0.07351847 0.57841396 0.08427683 -0.12425979 -0.037755862 0.39806274 0.21864545 0.024102027 -0.26989833
960600000278572 -0.19749895 -0.14799494 0.9337662 0.22444323 0.074255966 -0.21755402 0.1092695 -0.2899746 -0.19159259 -0.37778914
960600000264972 -0.10500516 0.03288253 0.62752014 -0.12350602 -0.15350957 -0.12617591 0.41247305 -0.5244756 -0.08428118 0.19839433
960600000305480 -0.3714857 0.2301258 0.8224592 0.08903573 -0.17549495 -0.5598703 -0.30157328 0.052592933 -0.16910033 -0.21679796
960600000308405 -0.3278968 0.51446277 0.5783881 -0.08898543 -0.40419054 -0.48773897 -0.27590683 -0.16495328 -0.05112808 -0.2366
960600000430684 -0.30010584 0.072869234 0.6108436 -0.079105474 -0.30232558 -0.30033818 0.18685755 -0.3503304 -0.018511122 0.1393761
960600000356379 -0.35272127 0.4651279 0.51987284 0.36544675 0.04332071 -0.5795389 0.20105134 -0.07892472 -0.15611014 -0.08365853
960600000336741 -0.30614483 0.19197734 0.7895946 -0.079936594 0.3592716 -0.37749457 0.16189064 -0.34060338 -0.08715756 -0.52049863
960600000263826 -0.29436243 0.2022871 0.62657624 0.24937695 -0.26464126 -0.20154172 0.25831917 -0.14720552 0.08323955 0.0013439591
960600000386857 -0.3398277 0.15108418 0.5392106 0.36421221 -0.08325653 -0.28015804 0.24922746 -0.16661656 -0.20899147 -0.041172385
960600000349722 -0.18214786 0.2138324 0.3585255 0.040201142 -0.5381882 -0.58121306 0.1099223 -0.5843843 -0.16138653 -0.31341505
960600000473348 -0.1447211 -0.2949821 0.73562324 0.22994408 -0.47220016 0.062357478 -0.2205231 0.048965435 -0.58789504 -0.30948395
960600000373700 -0.36168125 0.15461466 0.58264923 0.08699561 -0.2573206 -0.13425556 0.26115596 -0.1430514 0.06931918 0.040779036
960600000354720 -0.37567934 0.48981324 0.59923786 -0.0044599394 -0.19172338 -0.60551476 -0.19947219 -0.055856254 -0.10402472 -0.26516038
960600000276925 -0.3925229 0.32174093 0.5443337 0.18061727 -0.3247138 -0.23492421 0.11961164 -0.24657713 0.060117465 -0.002401409
960600000219070 -0.7470476 -0.045961343 0.46147603 -0.3143623 -0.0709224 0.0012071641 0.10426578 -0.20234951 -0.14503239 0.011631979
960600000262187 -0.14614469 0.13573793 0.5490922 0.4262529 -0.30326697 -0.41962776 0.39310122 -0.27050072 -0.12499986 0.0790484
960600000368458 -0.31734008 0.1742003 0.7970655 0.14827465 -0.21658882 -0.5729428 -0.27044156 -0.052320216 -0.23007728 -0.3030782
960600000334458 -0.6138511 0.37745988 0.5939557 -0.032629736 -0.30835202 0.15844971 -0.12500304 -0.03195218 0.15263598 -0.12940612
960600000483667 -0.29823127 0.57157135 0.57913387 -0.08128616 -0.24667877 -0.4288167 -0.15480392 -0.22022 0.016480735 -0.32053313
960600000265351 0.22455522 0.62907434 0.8202245 -0.015316189 -0.38211855 0.13388951 0.054912873 -0.40348843 0.18030885 -0.20884816
960600000307508 -0.23451081 0.09612361 0.5945923 0.120584875 -0.09788369 -0.034321487 0.36700404 0.2515932 0.050978985 -0.2800983
960600000331748 0.023361044 0.229224 0.46376994 0.58359945 -0.169479 -0.42091593 0.5608703 -0.20135027 -0.28835288 0.03735077
960600000419425 -0.36284912 -0.06558073 0.76586056 0.016084751 -0.00600232 -0.27150276 0.14830646 -0.35746485 -0.045573823 -0.17997856
960600000353414 0.036519945 0.050746974 0.31734896 0.029430974 -0.19063273 -0.11514907 0.5204868 0.31660587 -0.18701881 -0.7443659
960600000386041 -0.38572502 0.129593 0.5641292 0.39679024 -0.093550555 -0.058754005 0.32805422 -0.09080099 -0.06633007 -0.077877276
960600000379475 -0.3381253 0.19760147 0.8490751 0.0061409827 0.34685266 -0.2854578 0.13863975 -0.37112468 -0.048486974 -0.47258702
960600000340874 -0.39220276 0.36227912 0.6101548 0.061124798 -0.29101697 0.042835824 0.15908535 -0.0790003 0.26605096 -0.15166321
960600000364886 -0.26601472 0.23678145 0.45980307 0.4174725 -0.09450689 -0.27666804 0.5245285 -0.303146 -0.09944438 0.077219345
960600000341208 -0.35508934 0.111019194 0.6963262 -0.40033317 -0.31042522 -0.12032908 0.059420153 -0.35572076 0.049259927 0.24041376
960600000360608 -0.010924708 0.043582514 0.42423743 0.013611101 -0.14163053 -0.19904569 0.5535528 0.29055646 -0.01749749 -0.64858735
960600000358983 -0.187821 0.17439744 0.6141064 0.05351311 -0.28983903 -0.2525095 0.22023119 -0.4787127 -0.04593275 0.14899607
960600000262494 0.10171478 0.15995847 0.5277318 -0.08097004 -0.0635781 -0.262337 0.49113074 0.47016636 -0.07193657 -0.39423254
960600000367623 -0.23023702 0.02422445 0.78217953 0.22689801 -0.080347225 -0.3546094 0.023963442 -0.31840596 -0.24010514 -0.29264084
960600000315644 -0.41935164 -0.05516044 0.7718532 0.18333013 -0.22602285 -0.385356 -0.2883174 0.15034503 -0.3612082 -0.15356466
960600000393453 0.25260273 0.795362 0.69945383 0.12703457 -0.54146343 0.2960351 0.018781995 -0.34764925 0.124645986 -0.25701824
960600000369131 0.23570088 0.88737094 0.69155765 -0.059997603 -0.565832 0.122166984 -0.08112132 -0.3299416 0.15328649 -0.21206065
960600000446215 -0.3623932 0.0835124 0.7625166 0.14496458 0.06313341 -0.41572398 -0.018722596 -0.1670183 -0.2186134 -0.286955
960600000380033 -0.30988526 0.22381294 0.83232814 0.057657883 0.30136573 -0.2627026 0.19431293 -0.37320182 -0.005206222 -0.41382068
960600000306010 -0.07539897 0.19091605 0.4596334 0.5844526 -0.089154646 -0.39666423 0.51995325 -0.21151122 -0.34698558 0.004835179
960600000361446 -0.20250073 0.18166088 0.8796669 0.12067776 -0.16252653 -0.2809154 -0.13522206 -0.19814135 -0.07406474 -0.37940285
960600000434614 -0.31651238 0.46771723 0.44121715 0.08871993 -0.21307348 -0.5842618 -0.023335623 -0.35760242 -0.13817744 -0.3696453
960600000382863 -0.15978998 0.5616178 0.61986893 -0.032957435 -0.27061903 -0.40293226 -0.06711977 -0.12563215 0.06501494 -0.3528733
960600000358723 -0.05833099 0.15447582 0.51999557 0.44996172 -0.1590461 -0.41821095 0.53487533 -0.22920172 -0.1825578 0.056731038
960600000256196 -0.09841222 0.2897432 0.53333527 0.42941964 -0.16909331 -0.34441695 0.45361972 -0.20165637 -0.09957017 0.031963035
960600000417404 -0.115527906 0.38990602 0.4671047 -0.35953614 -0.45434222 -0.36654082 -0.25278836 -0.19484137 -0.28535855 -0.15406655
960600000386541 -0.26457286 -0.010320546 0.6258987 0.20332769 -0.2241096 -0.4749354 0.017901817 -0.43907055 -0.2899717 -0.3599372
960600000027335 -0.59735036 0.13352126 0.4153332 -0.0054998803 -0.102970324 0.103598416 0.24713883 -0.0976741 -0.053576894 -0.0871937
960600000365042 -0.27632856 0.31329805 0.6871835 0.09084018 0.073416926 -0.22442845 0.20271543 -0.3268109 0.03990332 -0.26854843
960600000250559 -0.12483807 0.19323002 0.49839336 0.4557136 -0.114280626 -0.3893094 0.51317877 -0.24376844 -0.1781697 0.019663215
960600000418734 -0.2183106 0.4107732 0.51452404 0.17494783 -0.3068353 -0.33178526 0.1083155 -0.44350561 -0.023939492 -0.26026693
960600000406162 -0.29790753 0.2092936 0.9012036 -0.113413915 -0.11675133 -0.3058218 -0.2265321 -0.20916061 -0.009858081 -0.31808627
960600000260947 -0.34066275 0.42596072 0.49120983 0.2671718 -0.36565366 -0.65467805 -0.016666004 -0.20461625 -0.12872544 -0.044712473
960600000225916 -0.17744601 0.5619348 0.6542018 -0.032991942 -0.42672557 -0.33321548 -0.14184979 -0.19676086 0.10176768 -0.1754848
960600000479606 -0.13604699 0.052768987 0.3584577 0.3533675 -0.15343228 -0.40843067 0.44201198 -0.26284966 -0.41926038 -0.124210104
960600000354376 -0.09942463 0.22572264 0.34470472 0.592312 -0.17648897 -0.30704555 0.5562402 -0.18694392 -0.34999263 0.029780073
960600000339467 -0.1495706 0.16264819 0.4997643 0.4523933 -0.12831318 -0.28541824 0.55953586 -0.32136652 -0.17104062 0.14655776
960600000362566 0.08175655 0.065915145 0.4461063 0.02164692 -0.0893379 -0.17350453 0.63673675 0.32531464 -0.024346525 -0.61934096
960600000467466 -0.24733104 -0.034509018 0.8544339 0.15746512 0.2000771 -0.10735214 0.22868979 -0.33206978 -0.10986875 -0.44489887
960600000369390 -0.32097664 0.45176792 0.514667 0.36360228 -0.18233015 -0.39903367 0.16037895 -0.114140786 -0.03362948 -0.11625696
960600000428924 -0.19469668 0.041885007 0.6207748 -0.048185125 -0.16978715 -0.14562349 0.4083872 -0.3822619 -0.082750484 0.27941903
960600000304604 -0.16206762 0.10618242 0.560038 0.3363499 -0.1422781 -0.23022217 0.41695085 -0.18090487 -0.06357045 -0.18450652
960600000356825 -0.17033316 0.124036625 0.61835325 0.11118694 -0.15327851 -0.21084338 0.13122143 0.04171464 -0.23905708 -0.019961175
960600000391826 -0.57252675 0.12274012 0.5239446 -0.23912862 -0.22588278 0.033713333 -0.010272506 -0.04445817 -0.024290957 -0.03429103
960600000272298 -0.11944377 0.01395215 0.634276 0.31419876 -0.14315444 -0.17482813 0.38544056 0.05826913 -0.10331234 -0.16297813
960600000237014 -0.45322093 -0.08435208 0.52986515 -0.26974574 -0.23941132 0.0041935584 -0.12471167 0.089854784 -0.31846046 -0.18050818
960600000356520 -0.34373674 0.24125221 0.81826866 -0.19373405 0.31988767 -0.37817857 0.11958151 -0.33043778 0.020076659 -0.40584543
960600000343204 -0.28792107 0.07799305 0.62709445 -0.13086265 -0.2789875 -0.2136695 0.25390834 -0.38916698 0.034525197 0.16988012
960600000378529 -0.16377723 0.69009316 0.46989667 0.17999722 -0.42472354 -0.3988356 -0.0679419 -0.32010216 -0.054714892 -0.25560072
960600000360162 -0.28928953 0.538332 0.59337723 -0.0071930275 -0.30459678 -0.45399642 -0.14002016 -0.14837863 0.0037529487 -0.24579282
960600000363676 -0.25807816 -0.06945072 0.9671319 0.020114116 0.04558217 -0.25691372 -0.042846024 -0.29959613 -0.12364356 -0.45613712
960600000320866 -0.35212386 -0.15610205 0.4945395 -0.15480731 -0.18082762 -0.24854863 0.1319765 -0.21162839 -0.34961814 -0.044797406
960600000326381 -0.31164312 0.020829527 0.8546384 0.04615374 0.2647124 -0.19903734 0.2031552 -0.3643892 -0.047887646 -0.427271
960600000477455 -0.0809346 -0.009141114 0.4683799 -0.17924823 -0.21010736 -0.1420664 0.46033525 0.22082007 0.023663731 -0.50423855
960600000219252 -0.16572052 0.14975254 0.89857566 0.082527645 -0.07863187 -0.27049127 -0.12020139 -0.15961781 -0.11571851 -0.35004216
960600000335357 -0.47501045 0.28061485 0.6162501 0.1607532 -0.20047003 -0.623556 0.024735961 -0.12636796 -0.010786744 0.027868459
960600000263233 -0.25925186 -0.049503602 0.40751484 -0.23999372 -0.18910237 -0.23864174 0.35287893 0.31602827 -0.024031227 -0.5409749
960600000340648 -0.1766059 0.24994726 0.37139502 0.016273929 -0.4079474 -0.44396463 0.076054074 -0.528403 -0.18716154 -0.44437176
960600000396704 -0.30899504 0.21656115 0.7867543 0.24608998 -0.19061638 -0.4042472 -0.25543404 0.09483805 -0.2255564 -0.26818284
960600000322390 -0.63642615 0.11325508 0.5569081 -0.2707689 -0.14467041 0.059481133 0.12634566 -0.07353955 0.126817 -0.08827565
960600000352463 0.28043193 0.81505245 0.77373683 -0.05748597 -0.54350877 0.122364454 -0.102040604 -0.33904406 0.13622902 -0.263161
960600000295688 -0.22859728 -0.010798627 0.83691376 0.16223428 0.0057087806 -0.23656249 -0.008270793 -0.21358828 -0.24822325 -0.35640866
960600000303939 -0.284271 -0.008348401 0.6138274 -0.5495227 -0.13151045 -0.16171701 0.13309106 -0.41318873 -0.2215631 0.28981936
960600000296871 -0.34226748 -0.032703117 0.6682348 -0.617701 -0.18073696 -0.110070124 0.08033045 -0.3714816 -0.16727975 0.2946024
960600000286301 -0.30988693 -0.012831817 0.5831997 -0.48391625 -0.108312204 -0.0055008107 0.2374434 -0.34872094 -0.15967675 0.21963628
960600000373684 0.28946564 0.7701116 0.7274116 0.25368753 -0.31310707 0.22946064 0.27993798 -0.37112466 0.14245954 -0.070685536
960600000454071 -0.4508539 -0.14028774 0.46089602 -0.16642568 -0.24966848 -0.07627832 0.07496604 -0.07069998 -0.35336316 0.026499685
960600000216122 -0.33082405 0.423194 0.6257842 0.15607376 -0.14340122 -0.71527755 -0.13162827 -0.03611267 -0.15887523 -0.17624894
960600000364805 -0.133036 -0.030504122 0.6603892 0.251563 -0.23241818 -0.3164319 0.0851018 -0.26214725 -0.29732773 -0.26461136
960600000342307 -0.57975674 0.31407115 0.6953047 0.041586407 -0.27054176 -0.26353565 -0.16744919 0.10742267 0.083311245 0.018628083
960600000419038 -0.22299743 -0.15352887 0.9399689 0.08663785 0.23564725 -0.007957939 0.1376804 -0.24882478 -0.2321478 -0.4414452
960600000457703 -0.09571083 0.1342019 0.53322256 0.061191157 -0.2664667 -0.5333228 0.17560346 -0.4884503 -0.15309823 -0.40947694
960600000363763 -0.3666424 0.2759727 0.50052834 0.156677 -0.19810647 -0.088872775 0.39590222 -0.21614465 0.15613931 -0.056784682
960600000282030 0.311164 0.8684799 0.6614622 -0.058051247 -0.54660606 0.23336966 -0.024123924 -0.3202988 0.115434736 -0.2592661
960600000323856 -0.27687466 0.0951191 0.5550025 0.2792384 0.037812352 -0.094747126 0.28626078 -0.2678802 -0.21048737 -0.27957374
960600000368683 -0.39175317 0.0048577124 0.72626704 -0.32269374 -0.04253375 -0.094216436 0.12257626 0.30168408 -0.06810964 0.15386173
960600000351209 -0.48068672 0.14756992 0.47935608 0.20778722 -0.18831101 -0.033620548 0.3566854 -0.3120576 0.045871835 -0.04768868
960600000346997 0.18941076 0.95333445 0.69905204 0.05270224 -0.56361246 0.051123798 -0.15177615 -0.27695057 0.12257874 -0.14330511
960600000387662 -0.32919684 -0.08757755 0.76127595 -0.31408966 -0.19526325 -0.06352987 -0.03573411 0.42873138 -0.17329901 0.060629513
960600000365437 -0.047426015 -0.097137555 0.5040565 -0.28690523 -0.3089616 -0.085209124 0.2681247 0.36510256 -0.03009556 -0.69083995
960600000333547 -0.022718852 0.23433961 0.3832094 0.56566364 -0.17534043 -0.37419766 0.5636358 -0.23314063 -0.32102972 0.036546014
960600000381717 -0.1693869 0.24797499 0.35191965 0.076148145 -0.57760733 -0.5348804 0.067803554 -0.5255317 -0.17091191 -0.34593254
960600000394560 -0.36466664 0.08866901 0.6367325 0.06905116 -0.3096782 -0.3098378 0.18848866 -0.19592158 0.053404614 0.107867464
960600000365227 -0.035434935 -0.06044179 0.70432395 -0.19607483 -0.095327444 -0.16380759 0.40406263 -0.1336152 -0.11901683 0.14805529
960600000382423 -0.15572266 0.27375153 0.5963634 0.15685345 -0.082777694 -0.31907773 0.35255453 -0.34812042 -0.05089017 0.06255222
960600000359910 -0.36143044 -0.11277771 0.6768103 -0.013256687 -0.1250208 -0.35274476 0.0742487 -0.46091712 -0.16020131 -0.27820647
960600000381736 -0.09779615 -0.28604192 0.8393227 0.33135664 -0.2593986 0.0009976246 -0.052867964 -0.12667872 -0.4596874 -0.36024714
960600000296509 -0.42129734 0.37553042 0.56894267 0.20767939 -0.077874154 -0.71919817 -0.09291137 -0.053841505 -0.22898677 -0.1745871
960600000262027 -0.2000996 -0.22720918 0.9733695 0.19342 -0.06164213 -0.12914342 -0.1333148 -0.10255945 -0.36066756 -0.41928276
960600000336799 -0.06805871 0.2076775 0.7472966 0.25352952 0.013628819 -0.46284235 0.23459177 0.12784933 -0.17516111 -0.011925996
960600000393312 -0.6167516 0.17575257 0.5187005 -0.17213671 -0.19929868 0.0822725 0.12738918 -0.16208525 0.12096565 -0.08714622
960600000220592 -0.39036095 0.24022152 0.61507297 -0.26795903 -0.17592701 -0.3585099 -0.06908487 -0.27432936 -0.011324182 -0.18402141
960600000346050 -0.24150209 -0.081688985 0.8754932 0.08988122 0.020431539 -0.32105199 0.04712779 -0.18661495 -0.15707423 -0.34594196
960600000265339 -0.21025687 0.33454508 0.362549 0.13443926 -0.5305625 -0.57718766 0.050712556 -0.5171732 -0.13460419 -0.35642603
960600000374455 -0.28364226 0.03994841 0.41478777 0.1208088 -0.27239293 -0.22748972 0.22040555 -0.3828905 -0.24251747 -0.1960595
960600000318635 0.23570825 0.7496553 0.6511734 -0.050922472 -0.5837206 0.021662511 -0.11324827 -0.46352556 0.021418665 -0.28049257
960600000329967 -0.16383854 0.060181014 0.547038 -0.019370956 -0.21992913 -0.36689556 0.32000646 -0.50655556 -0.1423788 0.09247143
960600000313983 0.20366384 0.94024056 0.70194864 -0.023664724 -0.5518993 0.14819205 -0.111788586 -0.32387608 0.13298276 -0.18765375
960600000386788 -0.23058942 0.25021118 0.37416017 0.1077725 -0.5372426 -0.5634809 0.07424979 -0.47884777 -0.13064972 -0.3221803
960600000457421 -0.5320962 -0.011179193 0.61782914 -0.3902616 -0.060853597 0.07054125 0.14180972 -0.23840699 -0.09221575 0.22566223
960600000342056 -0.2022606 -0.37896216 0.87672794 0.29223806 -0.47341192 0.046808083 -0.18625762 -0.04418044 -0.43678245 -0.20107162
960600000231790 -0.49137157 0.18886344 0.6530923 -0.09495321 -0.22839876 -0.36853653 -0.21013674 -0.03194664 -0.09177178 -0.1577156
960600000325836 0.075667925 0.19453692 0.37379175 0.31628427 -0.20655277 -0.3749081 0.673446 -0.03417073 -0.07429368 -0.3750052
960600000363804 -0.5740849 0.36565194 0.6195923 -0.16782266 -0.35885403 0.087236464 -0.10190154 -0.17705761 0.21185914 -0.032063726
960600000424827 -0.23386244 0.11624893 0.35041276 -0.010027686 -0.4142891 -0.51103944 0.21275906 -0.45052895 -0.1513099 -0.291688
960600000264010 -0.34668866 0.5400498 0.6135734 -0.21860954 -0.22032684 -0.120412774 -0.16286486 -0.16319938 0.090388834 -0.20308013
960600000383042 -0.26528975 0.38278207 0.7141108 -0.1122221 -0.46543932 -0.1031488 -0.2457931 -0.054575834 0.096645184 -0.21824199
960600000216455 -0.3249128 -0.028073696 0.6332933 0.20802471 -0.11540459 -0.38435438 0.07068861 -0.44476518 -0.25116372 -0.40229955
960600000349508 -0.3101145 0.5987502 0.6627615 -0.10413455 -0.20506096 -0.4014365 -0.18147902 -0.2091426 0.09576154 -0.2963044
960600000293549 -0.69943 0.3105289 0.5115125 0.047666803 -0.21414647 0.13424048 0.08290166 -0.10538176 0.20353754 -0.19416745
960600000381601 -0.113618866 0.037317242 0.5000217 -0.2298219 -0.29228354 -0.30166885 0.16083203 -0.49430713 -0.31699234 0.094099134
960600000448165 -0.3130211 -0.01936292 0.7585267 -0.09510295 -0.21496199 -0.42001224 0.006393655 -0.24914001 -0.02826771 -0.10407718
960600000410561 -0.3243296 0.4978047 0.5818414 0.40738595 -0.17837258 -0.4595865 0.10381538 -0.15232092 -0.018012036 -0.060274024
960600000313007 -0.34756222 0.208905 0.7988476 0.012757767 0.1387267 -0.31710413 0.059657056 -0.33996746 -0.016274575 -0.37908933
960600000379258 -0.61119187 0.4855325 0.5255261 0.028594546 -0.26072857 -0.11012549 -0.088121526 -0.010037548 0.15017994 -0.12387013
960600000347184 -0.2763415 -0.013736249 0.5501247 -0.028779935 -0.268311 -0.39139953 0.09058256 -0.09531783 -0.18112522 -0.18659678
960600000364649 -0.2005225 -0.33140123 0.8866832 0.14667904 -0.44618055 0.098786935 -0.1887403 -0.09578595 -0.34075078 -0.21063492
960600000337691 -0.14408405 0.29485878 0.6504455 0.492559 -0.2081345 -0.31916955 0.37475348 -0.170752 0.015051349 0.04770594
960600000263239 -0.2925207 0.12433252 0.94401705 -0.014138919 0.35309872 -0.33325127 0.10960366 -0.34204298 -0.070565596 -0.41559255
960600000449089 -0.07265475 -0.0650863 0.5210993 0.33443058 -0.36623242 -0.3811867 0.20812419 -0.24680036 -0.35417178 -0.2407833
960600000255465 -0.44218308 0.52612823 0.44701242 0.15180328 -0.18273862 -0.5865749 -0.03787812 -0.13939692 -0.10426124 -0.10648808
960600000483552 -0.5394306 -0.003665424 0.29795924 -0.14416207 -0.11421127 -0.015288326 0.17954294 -0.25230002 -0.33423308 -0.13021855
960600000371219 -0.11558176 0.21566923 0.4996521 0.36293304 -0.1263 -0.3238397 0.561947 -0.33717763 -0.148497 0.21346252
960600000410294 -0.66673636 0.26665914 0.45959523 -0.13090244 -0.16248447 0.0043015503 0.13015193 -0.100744925 0.16879798 -0.20372273
960600000360200 -0.17218357 0.2126709 0.45014745 0.39774773 -0.12166337 -0.1099672 0.52874386 -0.099851914 -0.051202767 -0.2015006
960600000364801 -0.18912089 -0.058567595 0.69958776 0.27028114 -0.23031959 -0.29524258 0.07444212 -0.29631063 -0.24730623 -0.23649542
960600000428489 -0.3717674 0.33637497 0.46747297 0.2167944 -0.14925386 -0.47239146 0.10686085 -0.044590887 -0.164434 -0.031782664
960600000292303 -0.04723395 0.008508651 0.6829222 -0.7313386 -0.028409114 -0.21585321 0.2153905 -0.15116142 -0.29678786 0.3697328
960600000354923 -0.37722576 0.16356885 0.3741168 0.12787932 -0.12258177 -0.044293046 0.28334582 -0.08651888 -0.20250699 -0.17165518
960600000354522 -0.42914847 0.31381455 0.69069177 -0.12225789 -0.20297632 -0.4769241 -0.24530321 -0.09999881 -0.06755294 -0.16208588
960600000243924 -0.42488402 0.026302846 0.5287002 -0.19807002 -0.12131565 -0.21109737 0.16021791 -0.13638327 -0.22822088 0.2251051
960600000423665 -0.31637996 0.48329312 0.526289 0.3849866 -0.22455172 -0.44584712 0.14983517 -0.086441666 -0.00017099333 -0.106701076
960600000217026 -0.4286834 0.5529318 0.65801 -0.041079238 0.01622598 -0.31865945 -0.041393343 -0.21282497 0.076816544 -0.17016552
960600000370208 -0.055801503 0.2650748 0.36731613 0.47771263 -0.29983693 -0.44743663 0.4299429 -0.43403202 -0.3175983 -0.04251856
960600000164227 -0.21165152 0.23570366 0.54002905 0.18298356 -0.29056162 -0.27094772 0.27521557 -0.45170453 -0.058487542 0.107422866
960600000471730 -0.11328289 0.26443526 0.6526419 0.36970225 -0.045240257 -0.3298701 0.41059256 -0.30338284 -0.008663113 -0.14817742
960600000344192 -0.36909035 -0.073458835 0.6252371 -0.6525516 -0.15166105 -0.054065846 0.09023168 -0.3300872 -0.21792735 0.23871826
960600000256682 -0.10525806 0.14499667 0.45615143 0.6022848 -0.20030287 -0.39542416 0.5670575 -0.27959853 -0.24469924 0.032974284
960600000294053 -0.12633884 -0.12669523 0.83367354 0.24049106 -0.23758572 -0.12070574 -0.09879844 -0.13171819 -0.35742968 -0.3422111
960600000296271 -0.13906603 0.16068812 0.64438194 -0.13501321 0.03817363 -0.17166036 0.2344524 0.52847284 -0.19122098 0.021043036
960600000262238 -0.3657293 0.38683623 0.6851924 -0.20183888 -0.37521693 -0.14170794 -0.1813936 -0.17691943 0.15931068 -0.17652135
960600000376204 0.27450767 0.94588834 0.6536091 -0.013444128 -0.58176386 0.19207714 -0.07016239 -0.37633827 0.14001223 -0.26450562
960600000389600 -0.27161357 -0.052527495 0.72740066 -0.6073193 0.13722111 -0.2063497 0.28191522 -0.5394202 -0.1477582 0.1945432
960600000358866 -0.36906955 0.14464132 0.43788314 0.20762718 -0.087262645 -0.15147668 0.33375004 -0.18500587 -0.19139874 -0.011118512
960600000379616 -0.43199447 0.22809021 0.47538996 0.37256274 -0.05855423 -0.13409 0.35199976 -0.19555473 -0.08613646 -0.04023966
960600000444986 -0.089670874 0.07629085 0.57836527 -0.11934491 -0.14413254 -0.18099928 0.45307556 -0.44268793 -0.15531947 0.2932907
960600000396308 -0.4071986 -0.08901092 0.7810911 0.037373606 -0.24560054 -0.37785083 -0.2993319 0.1332229 -0.33922845 -0.15023306
960600000425561 -0.36398968 -0.022799512 0.8244538 -0.013733901 0.0027177685 -0.35335198 0.093668185 -0.2904449 0.03796921 -0.30071333
960600000372654 -0.049206346 -0.11709728 0.4151637 -0.24537073 -0.23849232 -0.032872282 0.42487347 0.29050714 -0.11151953 -0.6886457
960600000416293 -0.3670792 -0.22963485 0.64671826 -0.09666679 -0.4120056 -0.0056667905 -0.10135609 0.034748275 -0.3000273 -0.08202423
960600000416255 -0.31289467 0.076958805 0.77023125 -0.042266995 0.04943953 -0.37181032 0.093667336 -0.33008543 -0.011265776 -0.3629326
960600000211998 -0.5788494 0.021460382 0.43025506 0.25432053 -0.03444267 -0.08502525 0.31727958 -0.16367134 -0.18992859 -0.027831005
960600000286355 0.181974 0.15423352 0.5938287 -0.071367525 -0.038664825 -0.25372854 0.51098496 0.45934206 -0.063423045 -0.3073557
960600000261479 -0.29747984 -0.14620319 0.68731135 0.19795573 -0.1165495 -0.39422345 0.06554474 -0.42128414 -0.31463787 -0.39569885
960600000478927 -0.5507051 0.25918698 0.45229596 0.18764555 -0.24677938 -0.1152809 0.12553154 -0.34928587 0.016994363 -0.15259717
960600000265062 -0.08891067 -0.03925354 0.2799011 0.28716958 -0.22367412 -0.43386233 0.39218435 -0.30219948 -0.6021428 -0.094256856
960600000231524 0.053642962 0.31373486 0.43398 0.38625965 -0.23582774 -0.45265394 0.5134433 -0.36909044 -0.18076198 -0.06654457
960600000373404 0.39087054 0.28451994 1.1138084 0.09770266 -0.3907455 0.45820308 -0.051149603 -0.35837418 0.046287857 -0.40251428
960600000354871 -0.13259575 0.25885722 0.6594965 0.37060526 -0.015707586 -0.32279313 0.3835621 -0.24691047 -0.081176564 -0.042095173
960600000265709 -0.1691409 0.2170684 0.45029882 0.36618638 -0.24315342 -0.26678896 0.33655235 -0.04644502 -0.16346693 -0.1443708
960600000289153 -0.16818833 0.30901417 0.68560404 0.27380094 -0.2573651 -0.3929365 0.2077454 -0.087129384 0.025364013 0.14813112
960600000355865 -0.24983723 -0.07339178 0.40350753 -0.036661517 -0.47913283 -0.40198392 0.11896277 -0.31685936 -0.17550479 -0.3734875
960600000429089 -0.503546 0.5039843 0.48754013 0.21431494 -0.27324632 -0.6070215 -0.03224602 -0.17877848 -0.00876021 -0.056360632
960600000316729 -0.19833794 0.20147389 0.4938552 0.41208768 -0.13269155 -0.33158314 0.5107302 -0.25432187 -0.14014113 0.11382337
960600000227524 -0.3771267 0.20262837 0.7534229 -0.03742502 0.2617706 -0.36792508 0.043493528 -0.31165993 -0.14856204 -0.5139168
960600000318195 -0.3790437 0.09459178 0.8682422 -0.109080985 0.12246549 -0.4207995 -0.01964771 -0.23312098 -0.038636945 -0.29814804
960600000320295 -0.37131685 0.20192789 0.6190839 0.2918939 -0.16443582 -0.24967967 0.17000818 0.020082772 0.046884302 -0.23667313
960600000250003 -0.6566662 0.23195063 0.6140459 -0.054897748 -0.32894784 0.05155362 -0.06703334 -0.08441962 0.21510552 -0.17001973
960600000236671 -0.38613448 -0.16924703 0.39414644 -0.12539041 -0.21610612 -0.17194901 0.07149843 -0.1828035 -0.5323396 -0.023993246
960600000298125 -0.37923032 0.092964776 0.59617466 -0.1887962 -0.22995348 -0.3032361 0.023404337 -0.17326719 -0.11543451 0.0073828846
960600000228872 -0.5086234 0.19266905 0.63553417 -0.14926851 -0.33344325 -0.28456584 -0.041549068 -0.22548342 0.1057798 0.043112256
960600000428994 -0.11637021 0.048263475 0.3786938 -0.08828301 -0.08646665 -0.25389847 0.52669376 0.2854732 -0.01801453 -0.6394375
960600000376272 -0.34652388 0.2752842 0.63385427 0.09920715 -0.069339715 -0.61359805 -0.18539828 -0.028719513 -0.32163152 -0.2908968
960600000385269 -0.42029956 0.116520196 0.75429 -0.16255143 0.057461396 -0.2801557 0.03254812 -0.29442456 0.06561554 -0.38601243
960600000375730 -0.28144157 -0.23826632 0.9878076 0.09238039 0.033261556 -0.046358798 -0.003330779 -0.18924375 -0.17536058 -0.44483596
960600000322439 -0.10079189 -0.3125922 0.9784702 0.23072606 -0.13667957 -0.089663275 -0.09218496 -0.16915248 -0.41149756 -0.3544673
960600000300289 -0.24023534 -0.16560753 0.52687955 0.2736876 -0.24467376 -0.21970095 0.16029248 -0.27150542 -0.44166532 -0.17483151
960600000355689 -0.20422922 -0.076582305 0.65100336 0.20677 0.00905697 -0.13354242 0.31745133 -0.07887611 -0.15459183 -0.3294282
960600000463653 -0.27650493 0.041791096 0.5022937 -0.28841558 -0.15258294 -0.15253414 0.28181216 0.2138086 0.12853232 -0.62311655
960600000260970 -0.36644816 -0.0020354763 0.7526207 -0.03703426 0.059206527 -0.0971038 0.033999696 -0.07581023 -0.16185617 -0.2041538
960600000225688 -0.06321311 0.21668193 0.53303456 0.4397895 -0.14507055 -0.32234228 0.51253486 -0.15372248 -0.09672508 -0.043227363
960600000451818 0.014002726 -0.18940164 0.9541836 0.16126604 0.019440267 -0.27473128 0.1182206 0.010043957 -0.2831285 -0.28941375
960600000377769 -0.1634548 0.40085042 0.40239578 0.6368597 0.0029419619 -0.3569431 0.55479634 -0.054047123 -0.27010596 0.037457652
960600000219368 -0.058100134 -0.07423566 0.4836603 0.27195203 -0.51034456 -0.04831132 0.07515133 0.051175673 -0.40817383 -0.3087806
960600000287641 -0.14630952 -0.020751458 0.6527731 -0.4268377 -0.1447177 -0.20443983 0.20900255 0.55387557 -0.02956498 -0.25448596
960600000355652 -0.20689058 0.23151898 0.43577763 0.48397046 -0.15702972 -0.26314068 0.532776 -0.27837884 -0.13882163 0.044321854
960600000332194 -0.30589902 0.54614705 0.5712619 -0.2558294 -0.50550723 -0.5628957 -0.37812832 -0.21834372 -0.056733053 -0.20244248
960600000381412 -0.015236962 0.072099455 0.44892687 -0.005642632 -0.19071752 -0.23774043 0.5526403 0.29663947 0.069964044 -0.60684115
960600000379350 -0.57076705 0.050225515 0.4650594 -0.069143765 -0.04157547 0.06777842 0.2996282 -0.2364381 -0.113512814 0.08289264
960600000440643 -0.27659565 -0.08929344 0.7346474 -0.53861535 0.13341258 -0.23167364 0.2604267 -0.5513909 -0.15217376 0.18833105
960600000333298 -0.15443282 -0.1152191 0.37287924 -0.22326295 -0.20554674 -0.31904393 0.28368932 -0.43984306 -0.482101 -0.0036002265
960600000428259 -0.20082028 0.24365588 0.64491 0.25885284 0.08753924 -0.4647113 0.24585955 0.073342904 -0.16225831 -0.09717385
960600000340330 -0.3514558 0.4708604 0.62086904 -0.21680753 -0.4281537 -0.41565984 -0.21490343 -0.20254609 0.073886395 -0.055730116
960600000278412 -0.32422742 0.4767999 0.6749138 -0.19681065 -0.15705934 -0.5638773 -0.21972987 -0.22205901 -0.04570603 -0.27766293
960600000444136 -0.123285785 -0.03615055 0.98948365 0.11452892 -0.05330023 -0.2499807 -0.1259762 -0.1362875 -0.22142537 -0.3981721
960600000355924 0.30878374 0.847561 0.79590935 -0.013402366 -0.567272 0.15039767 -0.055484615 -0.39508402 0.18353869 -0.17781858
960600000358997 -0.20152596 0.0704433 0.63513124 -0.10148679 -0.24516235 -0.2598091 0.3122098 -0.40507802 0.0073279054 0.16543546
960600000345347 -0.39823705 0.1317701 0.6691176 -0.3311963 -0.20677288 -0.4458684 -0.10464733 -0.26708144 -0.070639215 0.02706929
960600000216225 -0.274134 0.092097394 0.4970191 0.05752362 -0.392732 -0.61706126 -0.008188733 -0.5669896 -0.20041454 -0.45114267
960600000377958 -0.23262383 -0.056688774 0.8434056 0.1628016 0.06063897 -0.32611495 0.044848997 -0.23494205 -0.28082308 -0.3599734
960600000325120 -0.57546836 0.16691808 0.61388415 -0.20661378 -0.28011185 -0.11373002 -0.15080597 -0.008020975 -0.019725997 0.0075608497
960600000433138 -0.1656882 -0.09146141 0.6062664 -0.39188385 -0.21427208 -0.29090706 0.203956 -0.44889387 -0.2727678 0.27393678
960600000360141 -0.12725411 0.2055602 0.7001729 -0.08234204 -0.08944812 -0.18728092 0.15777887 0.32940567 -0.09693656 0.07733134
960600000407552 -0.13559401 0.31861305 0.43472424 0.3132294 -0.19045973 -0.27608174 0.40129414 -0.20804751 -0.09075472 -0.20932318
960600000254958 -0.6724594 0.26982176 0.5139405 -0.08832754 -0.15936661 0.03555915 0.102021605 -0.16826326 0.14998275 -0.0851181
960600000427926 -0.08735069 0.2656492 0.44460085 0.4815843 -0.18070725 -0.32619286 0.6069928 -0.30758592 -0.14096428 0.10006969
960600000341289 -0.17793722 0.19917075 0.58601373 0.3887836 -0.107352205 -0.43759266 0.16807678 -0.1538465 -0.31175223 -0.13057949
960600000360493 -0.5963977 0.2657505 0.59156215 -0.21016473 -0.2888463 0.11315443 -0.06299964 -0.17007236 0.13237154 -0.026923494
960600000261211 -0.29344156 0.49680978 0.56124336 0.38733602 -0.23125884 -0.44557798 0.10922779 -0.20336437 -0.014677576 -0.07667307
960600000354859 -0.0930778 0.06238408 0.6528789 -0.4070904 -0.13122979 -0.22582799 0.19569795 0.4789783 -0.044402733 -0.1837949
960600000274606 -0.21856485 0.020670915 0.98511857 -0.021630907 0.3782648 -0.19716671 0.10447722 -0.3232253 -0.13540721 -0.5615979
960600000270861 -0.33576024 0.58758265 0.3984484 0.3830878 -0.07843641 -0.7815821 0.13477533 0.0026596307 -0.23775151 -0.014688473
960600000371985 0.07015319 -0.13085552 0.596554 -0.22854415 0.0024852862 -0.19813462 0.5394684 0.23701388 0.030035222 -0.82139105
960600000470087 -0.2561573 0.22985943 0.64116085 0.43847656 -0.32482547 -0.15855567 0.23855688 -0.1625688 0.057228647 -0.03520229
960600000397351 -0.18038417 0.34478024 0.48522738 0.58264273 -0.07159408 -0.30543703 0.55499715 -0.21773376 -0.06161655 -0.04845592
960600000370376 -0.34072655 -0.031241832 0.7931571 0.089942 -0.19771168 -0.37391058 -0.22452037 -0.02314772 -0.31050462 -0.18875328
960600000265140 -0.24511272 0.42966896 0.4658457 0.3387464 -0.23390275 -0.5606798 0.117526844 -0.16861509 -0.1527916 -0.13466084
960600000378199 -0.18447708 0.03534713 0.6730789 0.23317832 -0.20797418 -0.35004774 0.03917738 -0.19316238 -0.2674117 -0.2835499
960600000227163 -0.09266305 0.14900793 0.68985516 -0.56556994 -0.23216234 -0.025769757 0.110916644 -0.47345012 -0.1234124 0.31465185
960600000480763 -0.16537979 0.2698743 0.4317105 0.12153862 -0.13531655 -0.13087258 0.56498224 0.023685979 0.16933367 -0.41770262
960600000313199 -0.33261248 0.17445126 0.8715008 -0.09101849 0.2635203 -0.229702 0.13178575 -0.31673235 0.053758148 -0.3526897
960600000262450 -0.038905613 0.48416775 0.39469135 -0.21122424 -0.4037592 -0.4144153 0.17641811 0.23084499 0.19324374 -0.76454294
960600000334044 -0.10692717 0.19594559 0.49151918 0.22474176 -0.26652533 -0.53369075 0.18868472 -0.44817725 -0.21299268 -0.36845815
960600000380948 -0.16421439 0.027314577 0.48588693 -0.35579023 -0.012128532 -0.03450638 0.41100043 -0.48742688 -0.33492866 0.2694129
960600000359424 -0.23498707 0.10636267 0.6246917 -0.011889038 -0.20074478 -0.3184986 0.25929812 -0.32959452 -0.044267308 0.120920114
960600000404658 0.18216072 0.94916296 0.6808568 -0.093515 -0.59646314 0.24212845 -0.14827634 -0.36692464 0.16618761 -0.25473887
960600000281537 -0.6309935 0.031951297 0.4068533 0.04056726 -0.084827125 0.020948496 0.30511627 -0.14255446 -0.065159045 -0.12005329
960600000231004 -0.68114674 -0.010832706 0.5670709 -0.23681231 -0.17881 0.016509674 -0.038771976 -0.03686728 -0.052161425 -0.06494362
960600000263519 0.04769748 0.054106932 0.3450992 -0.011919103 -0.17638537 -0.17414849 0.55471283 0.27632278 -0.10201331 -0.7763634
960600000414359 -0.27181467 -0.085903004 0.6733484 0.16700105 -0.12369964 -0.39563137 0.0661961 -0.36266193 -0.2730859 -0.4248662
960600000358211 -0.05492421 -0.04289875 0.6048294 0.25310364 -0.19177988 -0.29785782 0.19720653 -0.06681423 -0.23675461 -0.5825893
960600000246957 -0.1540221 -0.0111121135 0.81091154 0.32849032 -0.28689224 -0.14750634 0.09647654 -0.1704381 -0.05954822 -0.2232036
960600000261205 -0.07644998 0.03354633 0.30444178 -0.09407307 -0.15199602 -0.22409244 0.5027 0.28087205 -0.12695096 -0.73851156
960600000162749 -0.34762034 -0.050268568 0.56008244 -0.50759846 -0.26481816 -0.27699792 0.06817356 -0.43884024 -0.2111683 0.22667235
960600000419184 0.3035991 0.8376404 0.7426805 0.07388343 -0.5302256 0.26546362 0.0047106897 -0.3384493 0.13574791 -0.22441608
960600000367220 -0.2061626 0.14956136 0.4838921 0.4187567 -0.024813045 -0.3179946 0.3712304 -0.184436 -0.31386873 -0.07712297
960600000319096 -0.057056695 0.1773185 0.46802863 0.46373212 -0.23414882 -0.4032725 0.5180002 -0.3065113 -0.19952512 0.06984376
960600000368104 -0.72600627 0.1988647 0.51832575 -0.11785358 -0.19586416 0.18721028 0.05915176 -0.11730053 0.14428425 -0.10110581
960600000338413 -0.21782506 0.08740994 0.43394783 0.00038927497 -0.3756374 -0.5960902 0.019520303 -0.49376947 -0.27578455 -0.39769292
960600000400088 -0.322961 0.54786676 0.55954933 0.396929 -0.21582763 -0.4935881 0.104723826 -0.08921381 0.02892262 -0.08244067
960600000281708 -0.4128665 0.23711489 0.35432172 -0.027037201 -0.46457243 -0.5272401 0.04461615 -0.3848156 -0.03716904 -0.29540092
960600000351686 -0.25536907 0.06671007 0.6711334 -0.20875247 -0.3454142 -0.08355527 -0.06869258 -0.015954394 -0.07089057 -0.08735913
960600000294728 -0.42933393 -0.09887402 0.5833326 -0.5205151 -0.11420028 -0.040506482 0.14493655 -0.36336485 -0.20006657 0.22080664
960600000264634 -0.71554554 0.30604208 0.5078326 0.022579199 -0.17441732 0.16239023 0.13098414 -0.07791435 0.19755769 -0.116204105
960600000360290 -0.07977147 0.14254507 0.66451895 0.45254177 -0.37478295 -0.31430584 0.28833476 -0.16185145 -0.057085235 0.008307947
960600000219548 -0.33715957 0.09917 0.42766178 -0.08153804 -0.4591542 -0.3847182 0.006992701 -0.4128672 -0.13125655 -0.3133016
960600000370589 -0.30806598 0.11304789 0.9237768 -0.027281681 0.3302318 -0.31650522 0.10551288 -0.27997336 -0.026613334 -0.51155746
960600000359300 -0.25105238 0.335493 0.55600494 0.3174709 -0.028229246 -0.45238793 0.20473973 0.06677244 -0.17572658 -0.060697652
