19354 10
960600000000233 -0.241565 2.074882 -0.016483 -0.899294 -1.356222 0.958876 -0.796140 -0.212481 -0.288491 0.398483 
960600000272298 -0.261542 0.214963 0.464135 -0.266524 -1.683619 0.222997 -1.602637 -0.095728 0.159938 0.592870 
960600000253401 -0.025465 1.541698 0.532172 -0.475924 -0.689663 0.218657 -1.443742 -0.872435 0.316406 -0.582091 
960600000401445 0.051386 0.559255 0.165422 0.101635 -0.397437 1.155519 -0.150588 -0.266888 0.170235 0.947691 
960600000418915 0.447881 0.136203 0.935535 -0.437337 0.049200 0.656084 -0.240124 0.026590 0.026726 1.126633 
960600000327801 0.299039 -0.329471 -0.986642 -0.471134 -0.698590 0.858706 -0.077502 -0.758169 -0.336374 1.357736 
960600000466298 0.493764 1.505605 -1.347794 -0.110115 -1.441049 0.763419 0.158919 -1.047712 0.260300 -0.382257 
960600000232564 0.102123 0.613290 1.479460 0.759147 -0.533929 0.709542 -1.630342 0.845148 -1.172915 -0.624637 
960600000393379 0.199532 1.325957 0.443505 -0.543768 -1.116516 -0.189990 -1.149957 -0.424308 0.539622 -0.589595 
960600000371253 0.096533 -0.508766 -0.496000 -0.132952 -1.433968 0.454533 -0.233795 0.701676 0.175853 0.128480 
960600000373713 0.099657 1.167881 -0.281017 0.255605 -1.400535 0.835346 -0.048052 -0.380702 0.446530 -0.145189 
960600000248929 0.231191 1.452954 -0.619116 -0.405291 -0.698976 0.523902 -0.075441 -0.494463 0.184727 -0.448652 
960600000356737 0.929874 1.082634 -0.722026 -0.611267 -0.103107 0.078924 0.436792 -0.455879 0.082530 0.267492 
960600000338766 0.210015 0.940352 0.046133 -1.423215 -0.760996 0.000892 -0.388524 0.718377 -0.025229 -0.202442 
960600000386135 0.309472 0.373224 1.008450 -0.332147 -0.675054 0.482833 -0.522091 -0.569905 0.031696 0.964813 
960600000319192 -0.105709 0.664144 0.613626 -0.700555 -1.249167 0.569153 -0.620940 -0.292060 0.360277 0.347608 
960600000432568 0.017439 1.471377 -0.741524 -0.538330 -1.060002 -0.023321 -1.354389 -0.300955 -0.168080 0.234530 
960600000427900 0.279911 2.030504 0.197484 -1.839103 -1.374188 0.279212 -0.530073 -0.036482 -0.165264 0.349770 
960600000380271 0.447990 1.148965 1.087681 0.861773 -1.299275 -0.113860 -1.990374 -0.380736 -0.208961 -0.117337 
960600000256935 -0.377764 1.148156 -0.497838 0.409522 0.440346 1.411828 -1.782288 0.187341 -1.126261 0.839584 
960600000416750 -0.178754 0.864024 0.533115 -0.475794 -1.156314 0.478442 -0.859376 0.050893 0.652506 0.140167 
960600000387536 0.305848 -0.326811 -0.100161 -0.085007 -1.685636 0.451518 0.110149 -0.249225 0.679677 -0.173091 
960600000378332 0.272223 1.219339 -0.040816 -0.524256 -0.212717 0.565815 -0.906138 -0.513506 0.357592 1.482123 
960600000350052 0.064106 -0.270637 0.323445 -0.357760 -0.756189 0.594768 -0.833592 0.143073 0.351405 1.586802 
960600000343656 0.367908 1.251867 0.035055 -0.002099 -0.167309 -0.096949 -0.998259 -0.323938 0.034483 -0.546053 
960600000350199 -0.381202 1.389432 -0.540834 0.029136 -1.007364 1.396145 -0.384114 -0.572068 -0.007756 -0.224093 
960600000265967 1.043453 0.931525 -0.345796 0.002990 -0.372468 0.046424 0.520175 -0.197369 -0.527239 -0.282100 
960600000367629 0.190410 1.435778 -0.017532 -0.447200 -0.120279 0.265314 -0.944421 -0.309709 -0.181648 0.407113 
960600000416673 -0.163877 -0.198763 -0.205997 -0.308217 0.581230 1.132900 -0.292263 0.430756 1.162493 -0.542910 
960600000398481 0.651264 1.079820 -0.003437 0.218128 -0.149519 -0.283098 -0.964750 -0.737642 0.249553 -0.909692 
960600000387246 -0.038026 1.380659 0.878934 -0.344640 -0.519485 0.922498 -0.593393 0.187197 0.868982 0.545911 
960600000369784 -0.299276 0.491849 0.479825 -0.816456 -0.870667 0.198914 -1.134463 0.782112 -0.296270 -0.359660 
960600000334051 0.468081 1.177916 0.941620 0.628147 -0.331832 0.643966 -0.971333 0.710213 -0.891374 -2.175976 
960600000383118 0.047636 1.511936 0.659947 -0.290884 -0.378149 0.739917 -0.997204 0.079289 -0.352299 1.136799 
960600000357494 0.459887 1.142684 1.196191 -0.056474 -0.084100 0.595993 -0.564294 -0.389215 -0.043085 0.772946 
960600000355388 -0.054227 -0.144668 0.970310 -1.598453 0.027549 0.701075 -0.531179 -0.161200 1.420764 -0.281939 
960600000438085 0.134596 1.154497 -0.552000 -0.039017 -0.747231 0.998271 -0.057077 -0.901794 -0.228806 0.186831 
960600000363571 0.608043 1.282465 0.775159 -0.279737 -0.120640 0.250819 -0.863550 -0.854685 0.093795 0.939631 
960600000355589 0.257708 1.305091 0.393508 -0.449336 -0.372217 0.115674 -0.643479 -0.318333 -0.205269 -0.659063 
960600000221543 0.275152 2.062023 -0.110336 -0.304240 -1.289846 1.193905 0.485741 -0.251897 0.208991 -0.302441 
960600000482835 -0.124348 1.397903 -0.163597 -0.105434 -0.806259 1.240360 -0.289141 -0.971079 -0.075908 0.207761 
960600000354878 0.389867 1.696557 0.081181 -1.386474 -1.162676 0.151746 -0.217946 0.059257 0.387772 0.076004 
960600000385571 0.300563 0.465955 0.976519 -0.453528 -0.336447 0.988826 0.069063 -0.092439 0.783574 0.879818 
960600000297837 -0.354322 0.897692 0.399019 -1.743525 -0.467285 0.596512 -0.727277 0.383442 -0.040836 -0.129159 
960600000229812 0.034125 1.034776 0.905619 -0.592264 0.195052 0.611317 -0.903875 0.099875 1.713658 -0.236620 
960600000310521 0.099133 1.704924 -1.163580 -0.220865 -1.043570 1.317234 0.211013 -0.551271 0.085090 -0.078766 
960600000369855 -0.058818 0.711002 0.924432 -2.038527 0.082854 1.447124 0.050922 -0.908367 -0.234679 -0.814468 
960600000274457 0.210033 0.719351 0.904192 -1.717438 0.087267 1.050878 0.325367 -0.505986 -0.349693 -0.391309 
960600000368818 0.031171 0.742128 -0.503786 -0.369252 -0.547474 0.884292 0.100812 -0.640339 0.358982 -0.152330 
960600000315713 -0.214227 1.209547 0.457212 -0.631198 -1.033324 0.718120 -0.893030 0.352205 0.451412 0.694780 
960600000422607 1.411708 -0.587810 -0.094935 0.932163 -1.427372 0.500061 0.683395 -0.975526 0.312334 0.305661 
960600000279387 0.020385 0.724065 0.548757 -0.696690 -0.787921 0.743441 -0.168947 0.637088 1.106796 0.399499 
960600000259818 0.001647 0.655142 0.394806 -0.903569 -1.066340 -0.139543 -1.007120 0.389668 0.316550 -0.362567 
960600000405926 0.081063 1.407649 -1.686728 -0.687404 -1.630821 1.248263 0.400177 0.319824 -0.884280 -0.138759 
960600000350409 0.139715 1.201740 -0.888606 -0.026567 -1.046663 0.330765 -0.500760 -0.302046 -0.637139 -0.545515 
960600000243298 0.508892 1.965001 -0.737185 0.136137 -1.321857 0.646034 -0.074641 -1.196644 0.074649 -0.898845 
960600000379256 -0.332477 0.700905 -0.381030 -0.094147 -1.329829 0.283676 -1.581151 -0.367346 0.310745 0.327894 
960600000355924 0.247779 -0.635807 0.898644 -0.964161 0.106412 0.605612 -0.642463 0.014423 1.904837 -0.046945 
960600000263207 0.445466 1.174547 0.301417 -0.607313 -0.176237 -0.186832 -1.156536 -0.736051 0.031023 0.127832 
960600000355964 1.075594 0.712895 -0.440733 0.430171 -1.165698 -0.013915 0.415982 -0.621672 0.573481 -0.684365 
960600000279281 -0.140425 1.204479 -1.337623 0.096754 -0.959008 1.292859 -0.000445 0.115095 -0.329090 -0.165056 
960600000324127 -0.037887 1.457067 -0.488658 -0.503517 -0.085470 0.355454 -1.008772 -0.691295 0.216783 -0.605972 
960600000215659 -0.146511 0.791341 1.319034 -0.382705 -0.826831 0.937173 -0.696024 0.012801 0.364937 0.688966 
960600000341071 -0.170251 1.498047 0.277000 -0.411113 -0.538654 0.671430 -0.946188 -0.154258 0.267501 0.144789 
960600000264710 -0.046834 2.201280 -1.005836 -0.042521 -1.942878 1.079613 -0.642902 -0.458297 -0.149121 0.165815 
960600000418754 0.251128 1.475584 0.357368 -0.723526 0.331222 0.346951 -1.124300 -0.326696 0.358815 0.969658 
960600000325074 -0.698956 0.808107 0.939171 -0.480416 -1.018188 1.335717 -0.750655 0.968930 0.727065 -0.334911 
960600000393541 0.624571 2.221670 -0.511140 -1.047057 -0.710562 0.292178 -0.398389 0.933621 -1.316776 -0.705346 
960600000358335 0.070200 0.754605 1.254123 -0.405486 0.154410 1.486354 -0.228081 -0.473086 0.399811 0.990001 
960600000267199 0.563092 1.844330 -1.061363 0.068877 -1.460830 1.156406 0.316844 -1.120600 -0.140010 -0.018259 
960600000247226 0.077650 1.164046 -0.172985 -0.567926 0.207779 0.403890 -0.848351 -0.454444 0.130679 0.242350 
960600000377936 0.149249 0.993168 0.781531 -0.115072 -0.999232 0.277503 -0.619543 -0.081748 0.666366 -0.372242 
960600000253754 0.099271 0.985751 -0.076727 -0.739973 -0.047068 0.190323 -1.001202 -0.350887 0.283105 0.487183 
960600000344871 -0.792855 0.868437 -0.549921 -0.399824 0.085387 1.176651 -1.853844 -0.497615 -0.227611 0.509901 
960600000264972 -0.314743 0.579084 0.792169 0.265920 0.425077 1.710313 -1.209549 -0.351395 -0.138647 1.075053 
960600000450730 0.129982 1.609479 1.118405 -0.538000 -0.142558 1.126948 -0.713966 -0.976735 0.238579 0.822179 
960600000281092 0.247925 1.241443 0.869017 -0.089880 -0.160047 0.961626 -0.493657 -0.484499 0.178602 1.075252 
960600000404676 -0.031803 1.234791 0.429077 0.066093 -1.342448 0.936754 -0.332640 0.077462 -0.318384 0.186494 
960600000280700 0.267704 -0.731191 -1.461686 -1.400624 0.077442 1.351744 0.659512 -0.946199 -0.045901 0.233882 
960600000314615 -0.043987 2.159800 -0.809236 -0.687430 -1.702567 0.912475 -0.470200 -0.202826 -0.040698 0.271549 
960600000303192 0.572580 1.147334 0.510824 0.596799 -0.236841 0.499448 -0.240660 -0.345218 0.175069 0.177811 
960600000266037 0.281250 1.556923 0.439173 0.562208 -0.321140 0.240794 -1.553152 -0.790812 0.339674 -0.484443 
960600000417610 0.546302 2.246521 -0.524262 -0.534410 -0.754851 0.329239 -0.274488 -0.065782 -0.932372 -0.337994 
960600000394487 0.067326 1.811840 -0.130509 -0.511023 -0.351456 0.477985 -0.957086 -0.661822 -0.037573 0.006444 
960600000394888 -0.243322 1.196485 0.094216 0.239368 1.010795 1.394003 -1.180748 -0.320636 -0.276362 0.125586 
960600000282728 1.342280 -0.483649 0.552108 0.323392 0.339015 -0.106044 -0.128657 -0.068448 -0.201995 0.686031 
960600000349588 0.172329 1.171736 -0.008654 -0.566813 -0.837334 -0.203208 -1.118519 -0.557840 0.315275 -0.142722 
960600000345230 -0.356754 -0.049720 -0.299429 -1.291947 -1.003779 0.535166 -1.280046 -0.392750 0.201362 1.207852 
960600000326031 -0.182184 0.687504 0.568857 -0.254413 -0.883558 0.821644 -0.491123 0.423101 0.760491 0.423065 
960600000362680 0.361321 0.675846 0.791975 0.415930 -0.155526 0.741053 -0.894975 -0.426990 -0.314885 1.260518 
960600000056217 0.052462 1.315731 0.285253 -0.547815 -0.000526 0.508613 -0.870133 -0.262952 -0.216471 0.453531 
960600000378217 -0.151319 0.594846 0.587851 -0.102593 -0.880494 0.877978 -0.942431 0.271466 -0.989428 1.044088 
960600000355866 -0.106399 0.842619 0.949142 -0.067369 -0.947938 0.905009 -0.729973 0.166775 0.607704 0.716527 
960600000356234 0.371174 -1.520444 0.789072 -0.703382 -0.119041 0.617582 -0.306620 -0.262473 1.492718 -0.516494 
960600000354871 -0.191081 1.069335 0.396759 -0.597425 -0.659278 0.640190 -0.719134 0.375482 0.865119 0.209216 
960600000326366 0.429004 0.133192 0.248864 0.519503 -0.314741 0.570145 -0.576498 -0.885032 -0.126383 0.795024 
960600000307134 0.861229 1.235867 0.326508 -0.100707 0.149366 -0.567785 -1.660676 -1.188420 0.534218 -0.374899 
960600000356540 -0.279156 1.252666 -0.770127 0.687067 -0.367453 1.357431 -1.085654 -1.128353 -0.802611 -0.114428 
960600000269856 0.044194 0.810518 0.974331 -1.745809 -0.103998 1.241681 0.231163 -0.445360 -0.476881 -0.389367 
960600000414982 -0.105140 1.202058 -0.228911 -1.098697 -1.110253 0.716916 -0.173418 0.230172 0.053340 0.213001 
960600000285735 -0.057900 1.888147 0.642154 -0.664602 -0.463429 0.847434 -1.301346 -0.321856 -0.204391 1.194432 
960600000464030 -0.288331 0.743030 0.998061 -0.118498 0.486220 1.914247 -0.492531 -0.483587 0.055490 0.701338 
960600000404570 -0.269063 0.659648 -0.141721 -1.487533 -1.192437 0.392010 -1.529366 -0.492598 0.744136 1.210001 
960600000458075 0.095315 0.841122 0.392738 -0.602080 -1.367485 0.964904 0.149965 0.045727 1.492744 0.625634 
960600000346160 -0.075719 1.016899 0.750085 -0.600635 -1.315917 0.527038 -0.826669 0.527311 0.741564 0.667703 
960600000276925 0.382990 0.187220 1.127458 -1.016320 -0.012820 0.639274 -0.334028 -0.218625 0.229517 1.166228 
960600000480707 0.473969 1.912867 -1.759337 -1.066866 -0.829788 0.508177 -0.357621 0.072602 -0.732344 0.814882 
960600000349291 0.222635 1.935126 -0.141924 -0.133238 -0.835506 0.917008 0.231509 -0.109880 0.326690 -1.003967 
960600000376132 -0.072992 0.959618 -0.245388 -1.153715 -0.645818 0.028051 -1.223627 -0.389581 0.094561 0.443226 
960600000265140 0.140686 0.713067 0.396603 -1.688646 -0.710027 0.591503 0.167345 0.395831 0.539710 0.274988 
960600000215941 -0.651363 0.690090 0.412238 -1.603046 -0.377815 1.092737 -0.836118 -0.224434 -0.072519 0.033171 
960600000363207 -0.007240 1.449154 -0.275773 -0.348636 -0.571087 0.366499 -0.745223 -0.203942 0.070566 -0.305656 
960600000296518 0.070887 0.062730 0.422379 -0.386908 -0.863335 -0.068024 -0.858082 0.399357 0.170445 -0.338774 
960600000324020 0.496093 1.227222 0.231045 -2.296772 -1.035601 0.500722 0.258594 1.169010 -0.284618 0.508592 
960600000277458 -0.039898 0.929227 0.836453 -1.915555 0.046859 1.621315 0.272130 -0.717030 -0.229287 -0.962508 
960600000259711 -0.061090 1.776291 0.096237 -1.275133 -1.078531 0.553562 -0.454791 -0.000438 0.292884 -0.026080 
960600000279068 0.243103 0.425249 -0.786459 -0.138455 0.120250 0.601303 -0.270876 1.073628 1.256170 -0.075290 
960600000300087 0.158666 1.358502 -1.120162 -0.906650 -1.409371 0.346595 -0.510031 0.580451 -0.674255 0.497696 
960600000268919 0.182088 1.777758 0.295248 -1.883320 -1.267110 0.668668 -0.055403 1.081931 -0.361437 0.011832 
960600000483786 -0.389744 0.200933 -0.025332 -0.333416 -1.282113 0.126385 -1.881201 -0.169070 0.152975 0.271790 
960600000256953 0.073963 1.429980 0.553242 -0.598038 -0.457867 0.511561 -0.632107 -0.418724 0.092198 0.028495 
960600000353104 0.639602 -0.491065 -0.785553 0.063697 -0.860127 -0.037775 -0.177420 0.500710 -0.113784 0.461848 
960600000384164 0.144063 2.228863 0.306565 -1.138273 -1.153286 0.614380 -0.383532 -0.273574 -0.009394 -0.013055 
960600000319781 -0.027875 2.710403 -1.376096 -0.234412 -1.506798 1.425391 -0.296853 -0.143475 0.266053 -0.694196 
960600000344220 0.109415 0.776239 1.801796 0.388010 -1.104439 1.423451 -0.475943 -0.282138 -0.031908 0.936945 
960600000388878 0.181447 1.857183 0.117590 -2.051767 -1.245418 0.401069 -0.285088 0.655067 0.157045 -0.099815 
960600000262032 0.398704 -0.308312 0.840922 -0.160862 1.067392 0.750243 -0.717027 -0.603368 0.821495 0.346348 
960600000317955 0.241778 1.422237 -0.425694 0.170827 -0.684842 1.214481 -0.204810 -1.038413 -0.414513 0.973945 
960600000258739 0.069936 1.597281 -1.554066 -0.826899 -1.216276 0.839714 -0.205806 0.285981 -0.637428 0.368618 
960600000451575 -0.035996 0.577593 0.663373 -1.834259 0.096377 1.309294 0.077705 -1.048245 -0.221814 -0.621071 
960600000292539 -0.286612 0.757836 0.381048 -1.604332 -0.817339 0.728671 -0.528443 -0.495383 0.041818 0.198114 
960600000392513 -0.161411 1.438427 -0.200118 -0.161982 -0.302792 0.713624 -0.665113 -0.242278 0.196299 -0.538989 
960600000310491 0.082031 1.732453 -0.006793 -0.316404 -0.416542 0.679451 -0.820961 -0.235411 -0.566121 0.546419 
960600000313600 0.108421 0.550308 -0.618057 -0.430434 -0.908635 -0.039647 -0.872964 -0.704552 0.242613 -0.142093 
960600000301037 -0.134047 1.046726 1.036026 -0.694516 -0.268979 0.594982 -1.194966 0.050899 1.739967 0.017096 
960600000337040 0.538628 1.026817 0.063333 -0.213088 -0.536819 -0.075933 -0.391586 0.504108 -0.361485 0.152241 
960600000354432 -0.293237 0.681559 0.228133 -1.590877 -0.270300 0.684688 -0.599852 -0.084958 -0.051672 0.046906 
960600000226207 0.035329 0.383449 -0.092436 -1.131340 -1.204400 0.131271 -1.226912 -0.361161 0.431934 1.412819 
960600000420849 0.042729 1.067636 1.058770 -0.682043 -1.153712 0.579858 -0.572721 -0.085657 0.555609 0.404466 
960600000313869 0.566057 1.996372 -1.587722 -0.390888 -1.088731 0.898977 0.194375 0.246068 -0.837079 0.339421 
960600000310226 0.124206 2.318220 -1.207287 -0.618236 -1.879089 1.165456 -0.083193 0.200308 -0.552304 0.105662 
960600000216144 -0.397057 0.270567 0.005769 -0.375169 -1.743082 0.082577 -2.436137 -0.129676 0.618743 0.956519 
960600000394484 -0.012886 0.605623 0.310392 -0.295175 -0.917446 0.125514 -1.120741 -0.197919 0.315981 0.308369 
960600000364742 -0.089055 1.291141 0.495356 -1.331412 -0.391200 0.811434 -0.227718 -0.231872 0.486904 -0.095075 
960600000361475 -0.109682 0.297853 0.082140 0.058855 -1.172706 0.014124 -1.851778 -0.360793 0.425649 0.345047 
960600000316329 0.905100 0.059162 -0.106244 0.696414 -1.064966 0.009871 -0.024468 -0.843825 0.163724 -0.305972 
960600000298552 0.264312 0.779924 1.265784 0.509704 -1.167498 1.094264 -0.232425 0.055262 0.402431 0.780903 
960600000439189 -0.213458 0.390927 -0.388126 -1.156455 -1.345333 0.496453 -1.049054 0.036647 1.024876 1.432410 
960600000222812 0.239808 1.114099 -0.283653 0.611083 -1.665628 0.201875 -1.242799 -1.092347 -0.135414 -0.368825 
960600000298630 0.146286 0.749754 1.176124 -0.262422 -1.026540 0.546943 -0.392202 -0.238070 0.657408 0.035436 
960600000261537 -0.289343 0.291472 0.762809 -1.383271 0.137761 0.700538 -0.877630 -0.610704 0.742561 -0.078184 
960600000359073 0.016246 1.193982 0.885217 0.028196 0.370971 1.084466 -1.347847 -0.814700 -0.181556 0.853619 
960600000358753 1.162778 1.774737 0.108307 -1.160000 -0.367769 -0.500944 -0.482712 1.068714 -0.710722 0.103657 
960600000382428 0.399678 0.944474 0.721198 0.405722 -0.662174 -0.098460 -1.741282 -0.834644 0.241093 0.261636 
960600000262848 0.162475 0.328269 1.263906 -0.278337 -0.459673 0.302581 -0.765696 -0.266188 0.931642 -0.558994 
960600000432660 -0.379690 0.665589 0.018537 -0.302930 -1.109273 0.929267 -1.309102 -0.166544 0.037535 1.466274 
960600000337691 -0.211360 1.010452 0.972003 -0.633436 -1.041795 0.950232 -0.567902 -0.018486 0.669026 0.460680 
960600000304669 0.486576 1.114304 0.243184 -0.720404 0.084988 0.070657 -1.130091 -0.493865 0.060765 1.137097 
960600000298910 -0.170872 0.607501 0.490082 -0.238259 -0.430608 0.745702 -0.627905 -0.237523 0.607761 0.316254 
960600000306752 0.058199 0.430374 0.253535 -0.769196 -1.396261 0.812271 0.281126 -0.008528 1.037803 0.149413 
960600000357087 -0.130104 0.879220 0.718803 -1.093682 -1.128106 0.511395 -0.789819 0.599022 1.052466 0.570441 
960600000346762 0.066711 0.147952 -0.562072 0.024472 -0.737749 0.763533 -0.224743 0.602068 0.509433 0.857221 
960600000415332 0.273188 1.150423 0.122169 -0.798423 -0.703297 -0.011201 -0.557596 -0.300979 0.196411 -0.058945 
960600000294618 0.294253 1.714716 -0.140679 -0.215157 0.058722 0.581575 -0.452692 -0.345359 0.029572 0.241725 
960600000311684 -0.132193 0.479183 -0.045921 -0.963381 -1.003209 0.104932 -1.366813 -0.874756 0.297435 0.404613 
960600000360183 0.355643 1.652951 -0.819889 -0.100905 -1.240780 0.873938 0.106078 -0.997460 -0.026523 -0.431759 
960600000377971 0.010903 1.109410 0.511510 -1.425842 -0.423260 0.597713 -0.272230 -0.225094 0.161158 0.224332 
960600000357879 -0.493659 -0.122397 -0.013422 -1.521673 -0.292084 1.694874 0.113959 0.384840 -0.344822 0.476165 
960600000261813 -0.343068 0.091296 -0.474947 -0.283106 -0.575370 1.878351 0.385928 1.341643 0.034460 -0.549940 
960600000384869 -0.299840 1.563688 -0.878479 -0.818436 -1.309873 1.208936 -0.357687 -0.873163 1.013275 -0.019614 
960600000286548 0.746876 1.181097 1.744575 0.706795 -0.473451 0.400795 -1.087429 0.114723 -1.233754 -0.157126 
960600000303145 0.066129 1.324337 -1.345809 -0.498735 -1.508019 0.937692 -0.070821 0.145328 -0.943007 0.157860 
960600000306015 0.141011 0.877131 -0.142555 -0.874986 -0.200611 0.007333 -1.005735 -0.622519 0.033609 0.208908 
960600000320935 1.017112 0.298835 0.689039 1.090854 -1.533794 0.826192 0.153748 -1.016442 -0.015715 1.202101 
960600000275493 0.615848 0.409970 0.544597 0.114912 0.030185 0.555559 -0.378564 -0.568381 -0.496131 1.132013 
960600000305260 0.003717 0.565816 1.211293 0.821310 -0.596054 0.791726 -1.538805 0.799270 -1.186976 -0.541056 
960600000358994 -0.032752 1.002166 -0.173560 -1.144790 -0.726474 -0.004616 -1.572638 -0.806319 0.065001 0.497559 
960600000377075 0.192769 1.361034 -0.109956 0.093844 -0.395497 0.447716 -0.552477 -0.204265 -0.137743 -0.002353 
960600000302486 0.257978 0.773360 1.229998 0.244924 -0.595451 0.945918 -0.794896 0.069862 0.065286 1.545674 
960600000468354 -0.419875 0.765169 0.100038 -1.669840 -0.566613 0.593404 -0.755922 -0.494061 -0.083430 -0.491616 
960600000324806 0.293854 0.342718 1.195141 -0.238360 -0.511412 0.612009 -0.411289 -0.077796 -0.034845 0.867125 
960600000369126 0.226022 0.643298 1.091365 -0.684136 -0.376937 0.424190 -0.285456 0.266751 0.182910 0.046354 
960600000468367 -0.024607 0.649407 0.496835 -1.052153 -0.850714 1.064251 0.099463 -0.624015 1.386575 0.474743 
960600000364864 0.354214 1.896569 0.089657 -1.772036 -0.931656 0.328114 -0.414084 0.415584 -0.956013 0.278229 
960600000220509 0.462394 1.587440 -0.781173 0.228927 -1.536377 1.160943 0.418626 -0.842629 -0.205287 0.099127 
960600000367407 0.193332 0.307371 -0.246542 -0.144955 -0.688819 0.392093 -0.030707 0.192784 0.257546 -0.210382 
960600000420211 -0.011908 0.853955 0.066369 -0.163427 -0.012928 0.669155 -0.514722 -0.276911 -0.122454 -0.064957 
960600000451263 0.254200 1.475946 1.085536 -0.464103 -0.236618 0.685089 -0.566062 -0.498489 0.419826 0.468604 
960600000254854 0.310641 0.407945 0.464184 0.125884 -1.293379 -0.379625 -1.653888 1.380727 -0.010628 0.137823 
960600000339381 0.169700 1.144371 1.150388 -0.040333 -0.071716 0.451923 -0.912399 -0.175950 -0.263407 -0.402413 
960600000401770 0.169293 -0.958353 -1.223412 0.535523 -0.999828 1.824251 0.448776 -0.045491 -0.606221 -1.446183 
960600000263923 0.925806 0.435169 0.882295 0.524129 0.211597 0.448457 -1.133415 -0.293761 -0.383783 1.822879 
960600000306678 0.306685 0.751818 1.137412 0.089408 -0.623850 0.329438 -0.760209 -0.576219 -0.071864 0.095259 
960600000260385 0.195738 0.446707 -0.136498 0.095460 -0.900531 1.191334 0.707798 0.045866 -0.073690 -0.421358 
960600000222390 1.197645 0.442951 0.524654 0.683589 0.263630 0.674394 -1.205714 -0.540270 -0.902246 2.444026 
960600000404190 0.552396 1.531618 0.326616 -1.630889 -0.776973 0.622531 0.171362 1.080879 -0.501793 1.078568 
960600000258301 0.519594 1.659184 -1.198422 0.420685 -1.462461 0.777419 -0.147283 -1.128855 -0.134625 -0.308422 
960600000217233 0.064115 0.519903 0.915604 -0.342426 -1.242119 1.007937 -0.090961 -0.460961 0.707784 0.848143 
960600000356853 0.480598 -0.053122 0.113412 -0.751440 -0.676590 -0.277025 -0.399691 0.533524 -0.004725 0.307354 
960600000412763 0.429221 1.318145 0.902323 0.366000 -0.545118 0.577750 -0.618134 -0.748514 0.002812 0.527740 
960600000012443 -0.262608 0.698327 0.574489 -0.688933 -0.794515 0.897380 -0.493238 0.525549 1.023213 0.416126 
960600000379386 0.150540 -1.170624 -0.528279 0.213751 -2.066213 0.904466 -0.418489 0.431057 -0.132822 0.660711 
960600000360124 0.378022 -0.836823 -0.896627 0.427129 -1.460400 0.560140 -0.656007 0.251728 -0.598588 1.152383 
960600000370912 0.090884 1.569504 1.080143 -0.115012 0.239874 1.213325 -0.927028 -0.492173 -0.092087 0.878612 
960600000263373 0.289910 1.357546 -0.692570 0.040704 -1.155806 -0.455122 -1.789858 -0.483102 0.319441 -0.230010 
960600000265970 0.122907 0.736532 0.378572 -0.267703 -1.303207 0.826210 -0.124538 -0.931219 0.353858 0.724312 
960600000359000 0.247619 2.224668 -0.984822 -0.685557 -1.234530 1.050440 0.234719 0.217384 0.288996 0.190692 
960600000316845 0.060910 1.669957 0.667556 -0.410284 -0.218485 0.281718 -1.447131 -0.260768 0.009743 0.211344 
960600000163416 0.920584 2.095001 -1.330546 0.160082 -0.975811 0.715566 0.284991 -0.142371 -0.442295 0.412051 
960600000261263 0.008259 1.971006 -0.576331 -0.791903 -0.936518 1.191251 -0.046995 -0.895651 -0.405395 -0.265167 
960600000216797 -0.183770 0.038964 1.147564 -0.698559 0.013022 1.619852 -0.342462 -0.198410 -0.633651 0.976490 
960600000367952 1.326674 -0.300656 -0.663903 -0.173320 0.957517 -0.412226 -0.624118 -0.390099 -0.174799 0.606794 
960600000314649 0.894328 -0.980669 -0.785173 0.420434 -1.933620 -0.076445 -0.278836 -0.353430 0.003608 -0.245004 
960600000295888 -0.143107 1.004096 0.189968 -0.123091 -0.204642 1.138296 -0.102663 -0.483448 0.355592 -0.184134 
960600000380413 -0.023244 1.449266 0.011238 -0.083349 -0.591216 0.461261 -0.776969 -0.139069 0.133147 -0.449937 
960600000270176 0.159784 1.365531 -0.671144 -0.210138 -0.869979 1.069697 0.361032 -0.017173 0.562517 0.211383 
960600000291906 -0.354560 1.326990 0.427891 -0.666975 -1.134840 0.889792 -1.013209 0.062503 0.600343 0.751411 
960600000442973 -0.222519 0.558304 0.772629 -0.471276 -1.124101 0.823088 -0.689940 -0.232719 0.369732 0.588102 
960600000331678 0.840254 0.970103 -0.270129 -1.427886 1.049551 -0.205625 -1.147902 -0.308281 -1.179277 0.341427 
960600000264454 0.072790 1.720102 -1.195271 -0.318579 -1.112524 1.338484 0.047598 -0.729628 -0.246927 -0.047795 
960600000363970 0.018235 0.589468 0.504899 -0.338207 -0.973618 1.553217 0.219907 -1.217492 -0.266830 0.560841 
960600000292807 -0.312153 0.827137 -0.572937 0.074131 -0.626094 1.222581 -0.858107 -1.254120 -0.240075 0.419993 
960600000360195 -0.131559 0.901611 0.047866 -1.293544 -0.331455 0.616506 -0.607073 -0.418050 -0.118472 0.403815 
960600000261891 -0.175632 0.712436 0.730021 -0.458082 -1.276824 0.636915 -0.847829 -0.323268 0.353404 0.510611 
960600000376306 0.122366 1.467997 1.129931 -1.529463 -0.713048 0.491576 -0.740220 -0.065182 0.421409 0.770024 
960600000385885 -0.142588 0.577381 0.127760 -0.764570 -0.940197 0.208499 -0.974587 0.024855 0.591923 0.334968 
960600000329127 -0.266117 0.796346 0.837162 -0.216942 -0.623542 0.686583 -1.060950 -0.030619 -0.155114 0.207179 
960600000291823 -0.003699 0.785036 0.605464 -0.045759 -0.835064 0.330561 -0.830353 -0.028195 1.221240 -0.247094 
960600000258526 0.595200 2.118763 0.206594 0.260571 0.347497 0.178579 -1.654125 -0.377624 -0.342551 0.551572 
960600000272427 0.082676 1.830677 -0.694390 -0.585640 -0.600983 0.552658 -0.526669 -0.499448 0.237867 -0.097278 
960600000219204 0.255653 0.104378 0.239615 -0.162755 0.054476 0.287630 -0.301204 0.438553 0.007949 -0.257411 
960600000380308 0.406934 1.519467 -0.395707 -1.043909 -1.195548 0.310684 -0.269204 1.552227 -0.588440 0.252242 
960600000343273 0.418986 0.364391 0.065116 -0.286669 0.352285 0.250484 -0.112604 0.294493 -0.146375 -0.458384 
960600000225174 -0.068515 -0.170229 -0.343263 0.255204 -0.785594 1.064408 -0.190302 0.207899 0.573066 0.804095 
960600000265062 0.131294 1.754953 -0.482081 -0.086532 -1.597828 1.345781 -0.091378 -0.677414 -1.021972 0.685124 
960600000354032 0.926137 0.707130 -0.258468 0.455452 -1.434758 0.149351 0.338030 -0.440015 -0.053927 -0.368940 
960600000480359 0.171725 0.783050 0.281563 -0.462101 -0.211085 0.218441 -1.002242 -0.549983 0.665957 0.661559 
960600000294964 0.423782 1.158531 0.332613 -0.458861 0.048016 0.165480 -0.599130 -0.509770 -0.001069 0.412268 
960600000365312 0.127129 1.651702 0.248106 -0.008169 0.084566 0.964574 -1.011659 -0.496045 0.123577 1.111342 
960600000481721 0.111079 1.996166 -0.205159 -0.854593 -1.092447 0.715461 -0.173684 0.036143 0.957381 0.084555 
960600000380432 0.768898 0.127646 0.476412 0.682782 -0.671281 0.369997 -0.343764 -0.319742 -0.625724 1.021864 
960600000297044 0.036500 1.878880 0.224571 0.051366 -0.630063 0.837603 -0.724030 -0.354459 -0.344971 -0.063454 
960600000296859 0.209027 1.951422 0.299994 -0.517096 -0.191016 0.537107 -0.715499 -0.618680 0.244059 -0.093442 
960600000285039 -0.092993 1.197996 -0.461838 -0.854102 -1.051470 0.229816 -1.119143 -0.393321 0.017153 0.541645 
960600000340274 -0.292417 1.565599 0.152951 0.201270 -0.407024 1.262737 -0.659443 -0.445422 0.054814 0.089338 
960600000384192 -0.080296 1.392134 1.033029 -0.105840 -0.252966 0.647265 -1.179931 0.040226 0.084283 0.087670 
960600000261332 0.830875 -0.248025 0.748283 -0.232742 0.513024 0.127139 -0.211944 -0.214051 1.148195 -0.597802 
960600000251157 0.365244 1.751752 -0.023977 -0.097638 -0.009909 0.610981 -0.376598 -0.295396 0.082370 0.442694 
960600000370719 -0.023551 1.716623 0.252388 -0.273284 -0.627890 1.039785 -0.889014 -1.395448 0.215198 0.454093 
960600000351338 0.788495 1.864045 0.613034 0.104459 0.258058 0.078894 -1.578036 -0.766180 -0.212148 0.827053 
960600000379678 0.458032 -0.740562 -1.157407 -0.336730 -1.713773 0.052385 -0.538437 -0.409785 0.243310 0.546811 
960600000272217 -0.422064 1.747827 -0.115648 -0.028747 -0.792359 1.215063 -0.784019 -0.355168 -0.279803 -0.226621 
960600000387784 0.377002 1.570619 1.187386 0.477881 0.024984 1.095775 -1.006415 -0.290508 -0.086438 1.300241 
960600000401010 -0.260786 1.123239 -1.205804 -1.410163 -1.193466 0.664641 -0.743663 -0.090394 -0.329672 0.736186 
960600000374409 0.515411 1.031395 -0.132513 -1.347356 0.676356 -0.268493 -1.162331 -0.437863 -0.746531 -0.056972 
960600000365773 0.621337 -0.725632 -0.483867 -0.236100 -1.499400 0.219060 0.142341 0.609976 0.195136 0.511028 
960600000392718 -0.204059 0.449031 -0.413630 -1.084586 -1.319038 0.481578 -1.099377 0.037754 0.932925 1.398268 
960600000211287 -0.217678 0.728096 1.379691 -0.493061 -0.863614 1.030215 -0.685559 -0.113711 0.318345 0.562730 
960600000282397 1.001537 0.460520 0.828710 0.761460 0.211159 0.582092 -1.034861 -0.219207 -0.475070 1.885036 
960600000279024 0.197771 1.561287 0.125636 -0.408612 0.184450 0.157226 -1.079115 -0.424343 -0.073559 -0.749109 
960600000264644 -0.065808 1.439718 0.197890 -0.493775 -0.230652 0.362338 -0.922290 0.067603 0.198477 -0.529395 
960600000242285 -0.310857 1.156222 -0.578876 -0.077191 -0.828687 1.558130 -0.581666 -1.418265 -0.386695 0.308969 
960600000321826 0.228744 1.572837 -0.548388 0.100481 -0.995737 0.369599 -0.907450 -1.170044 0.395820 -0.074881 
960600000262305 0.543489 2.113361 -0.076972 -1.082882 -0.723641 -0.104522 -0.696083 -0.330626 -0.617758 -0.142257 
960600000466248 0.263794 1.397305 0.916957 -1.037459 -0.983058 -0.056761 -0.693769 0.143290 1.093252 -0.672983 
960600000347134 -0.313758 1.773612 0.560487 -0.406610 -0.845761 1.032381 -1.101665 0.044973 0.562683 0.356496 
960600000356243 0.450281 0.300412 0.927129 -1.996676 -0.534967 1.258501 0.984493 0.325226 0.461287 0.399624 
960600000485140 -0.222086 1.600676 -0.195304 -0.081238 -0.609567 0.949312 -0.666504 -0.488399 0.492357 -0.189029 
960600000274376 0.436630 1.948231 1.084053 0.244895 0.261301 1.142455 -0.733109 -0.327632 -0.020162 0.966520 
960600000054666 0.058669 1.278262 -0.410204 0.149647 -0.918427 1.256719 -0.562781 -1.872555 -0.651660 0.065838 
960600000369755 1.330676 0.166791 0.333570 0.010314 -0.004137 -0.255681 0.289195 -0.527330 -0.276581 -0.658945 
960600000285208 0.453794 2.157652 -0.496607 0.612319 -1.375821 0.151386 -0.966761 -0.544280 0.001763 -1.028300 
960600000324287 -0.169948 1.914630 -0.504031 -0.469030 -0.499186 1.190583 -0.309258 -0.545835 0.500868 -0.159053 
960600000274311 -0.698816 -0.374185 -0.903687 -0.653828 -0.499791 1.320523 -0.800920 0.660588 0.822831 -0.763480 
960600000348828 -0.286493 1.690788 0.098299 -0.588697 -0.202406 0.886711 -1.340648 -0.452016 0.257782 0.544299 
960600000232975 -0.339787 -0.112907 0.182596 -0.737971 -1.676994 0.075182 -2.555917 -0.245893 0.793161 1.293982 
960600000406209 -0.074635 0.993829 -0.035522 -0.256250 -0.628487 1.269628 -0.535267 -1.872093 0.290550 0.275973 
960600000306330 0.011524 1.050991 0.442852 -0.552726 -0.973724 0.505403 -0.479580 0.654780 0.260242 0.570852 
960600000399259 -0.159400 1.931797 0.217379 -0.493073 -0.448353 1.087651 -0.956582 -1.015422 0.219906 0.161206 
960600000264712 0.160725 1.703032 -0.048583 -1.117659 -0.954837 0.036825 -0.796292 0.191729 -0.187015 -0.189558 
960600000358309 0.771923 1.910794 1.265888 -0.060405 0.330284 0.294404 -1.178460 -0.864668 0.683030 0.565382 
960600000468002 -0.164918 0.815044 0.201181 -1.132927 -0.259116 0.644434 -0.527125 -0.248412 0.002588 0.277622 
960600000386538 0.235292 2.277182 -0.002971 -0.479818 -1.266966 0.909984 -0.023840 -0.004118 0.065292 -0.481195 
960600000381377 -0.002251 1.657461 -0.827000 -0.461705 -0.354409 0.788315 -0.251069 -0.250272 -0.107968 -0.536045 
960600000233616 0.391698 0.229736 -1.860948 -0.079499 -1.009859 0.726521 0.206569 -0.350180 -0.162168 -0.049816 
960600000366283 1.052392 0.914802 0.172814 0.565197 0.272697 -0.534217 -1.047714 -0.482540 0.572131 -0.806531 
960600000354201 0.233004 0.616206 0.783461 -1.548201 0.216179 1.603625 0.648942 -0.946685 0.382834 -0.430237 
960600000289153 0.116399 0.944494 1.384690 0.153937 -0.449240 1.099849 -0.540517 -0.145496 0.214955 0.911375 
960600000332247 -0.041844 -0.119671 -0.897947 0.280318 -1.028956 1.239434 -0.132309 -1.397546 -0.344866 -0.236037 
960600000344961 -0.306602 2.373871 0.141515 -1.139286 -0.203666 0.931013 -1.610871 -0.845039 0.054709 -0.182916 
960600000390783 0.093119 1.509263 -1.799397 -0.274328 -1.070217 1.381931 0.268201 -0.247525 -0.322521 -0.314775 
960600000377508 0.453848 0.215484 -0.246576 -0.964554 0.096223 -0.214971 -0.991005 0.122401 -0.765593 0.838669 
960600000357651 -0.124975 0.402511 0.403463 -1.602501 -0.981902 0.169713 -0.672099 0.337356 0.134315 0.109100 
960600000446917 0.035543 1.668558 0.140322 0.034738 -0.540439 1.081488 -0.302660 -0.716985 0.135287 0.047240 
960600000385995 0.442330 -0.176556 -0.317965 -0.479029 -0.111272 -0.066173 -0.244020 0.737975 0.346222 -0.215453 
960600000359370 0.130681 1.135103 -1.229506 -0.306094 -0.695975 0.875514 0.181008 -0.354657 0.169851 -0.226914 
960600000382492 -0.493871 1.261701 -0.243507 -1.153891 -0.814505 0.576615 -1.500686 -0.120610 0.751686 0.455213 
960600000264167 0.676203 -0.920705 -0.692171 0.004642 -1.232144 0.432157 0.223381 -0.635723 -0.544829 0.213034 
960600000351905 0.682833 0.628361 0.817058 -0.237217 0.148721 0.612618 -0.439319 -0.577426 -0.139773 1.529658 
960600000379712 0.079568 1.292026 0.153686 -0.105079 -0.524742 0.444386 -0.775060 -0.800638 0.679483 -0.286155 
960600000435370 -0.915655 -0.585473 -0.326480 -1.188304 -0.262600 1.618240 -0.588372 0.161693 0.461307 -0.383033 
960600000273130 0.348740 1.499297 -0.507111 -1.145565 -1.331625 0.535089 0.058596 1.478149 -0.489069 0.243433 
960600000347979 0.209230 -0.498986 1.032365 0.399285 -0.009712 1.643850 -0.678260 -0.183465 -0.475256 1.649536 
960600000209728 0.489260 -0.131948 1.333315 -1.841811 -0.261377 0.680625 0.302013 0.862712 0.784166 0.057964 
960600000262030 -0.202815 -1.336299 0.296442 -0.286357 -1.148276 0.949112 -0.277430 -0.404597 0.710209 -0.741125 
960600000362139 0.619301 2.087718 1.143780 -0.004688 -0.064159 0.540847 -1.200506 -0.880395 0.655321 0.770439 
960600000354560 0.170018 1.443637 -0.360986 -1.019174 -0.828885 0.288582 -0.474831 0.558939 -0.967974 -0.130416 
960600000259371 0.217087 1.099704 0.562618 -0.415211 0.185170 0.385302 -0.826752 -0.586475 -0.036908 0.141630 
960600000257863 1.008347 1.324923 0.984473 -0.263547 0.156381 0.190549 -0.342482 -0.424795 0.051535 1.030391 
960600000263967 0.496313 0.754289 1.477714 0.407353 -0.221996 0.745693 -0.549762 -0.029031 -0.417854 0.821171 
960600000378306 -0.134512 0.632455 0.936990 -0.584794 -0.619284 0.495179 -0.841340 -0.198135 1.127136 -0.194191 
960600000324422 -0.067410 1.041808 0.088251 -1.268071 -0.122629 0.897311 -1.011664 -0.410194 -0.044821 1.580287 
960600000251170 0.627212 0.572478 -0.406092 -0.082530 -1.030826 -0.042834 -0.044490 -0.627672 0.512562 -0.107888 
960600000166244 0.618631 2.013593 1.088794 0.087429 0.181739 0.541795 -1.110803 -0.848091 0.769510 0.578524 
960600000400906 -0.114327 0.139817 0.813008 -0.816965 0.064420 1.768365 0.298750 -0.828297 0.296106 0.326039 
960600000368464 0.443608 1.505963 0.691241 -1.997044 -1.063418 0.269041 -0.199869 1.121711 -0.359845 0.027013 
960600000431885 0.272733 0.817336 1.256814 0.355981 0.853030 1.739396 -0.523025 -0.645569 -0.439134 0.919815 
960600000357048 -0.043207 1.876562 -1.211681 -0.563679 -1.217767 1.101292 -0.137411 0.435353 -0.182228 0.083891 
960600000377664 -0.395351 1.444530 -0.020680 -0.927395 -0.770722 1.418328 -0.367371 -1.102378 0.236444 0.231349 
960600000225724 0.350953 1.552228 -1.978708 0.062195 -1.799645 1.029265 0.130195 -0.012130 -0.681474 -0.401910 
960600000232461 0.332329 1.109586 1.069174 0.501365 -0.934422 0.136349 -1.499880 0.819260 -0.853391 -0.366107 
960600000293970 0.421010 1.276097 -0.769923 0.026986 -0.734435 0.158720 -0.261314 -0.532521 0.042442 -1.056820 
960600000260600 0.324625 -0.093538 1.017002 0.761167 -0.687682 0.161348 -1.629420 1.109661 -0.709947 -0.477730 
960600000314556 -0.101608 0.714662 0.086132 -1.061572 -0.188088 0.651625 -0.351890 -0.086353 -0.005723 0.247070 
960600000379412 0.298742 -0.527700 -0.153845 -0.512867 0.747540 1.156115 0.326469 0.528889 1.107644 -0.103930 
960600000481038 0.005977 0.943037 -0.608298 0.326794 -0.378916 0.471504 -1.196787 0.221411 -0.226880 0.813008 
960600000317272 0.661529 1.008670 0.900980 -0.047174 0.121411 0.639054 -0.809920 -0.706241 -0.252057 1.606946 
960600000263634 -0.405741 0.840568 0.541644 -1.539313 -0.522362 0.930888 -0.513753 -0.460463 -0.001342 -0.209639 
960600000364579 0.094569 1.868437 -0.157862 -0.878159 -1.118197 0.433124 -0.443292 0.076647 0.706197 0.012559 
960600000342105 0.025698 0.548807 0.706181 -0.516548 -0.453254 1.094217 -0.074635 0.174340 0.826471 0.773412 
960600000484912 -0.334039 0.447161 0.038271 -0.450538 -1.145430 0.573543 -1.079996 0.075308 0.178078 0.719412 
960600000269051 -0.212260 0.375601 0.225660 -0.353649 -1.189420 0.208191 -1.486631 -0.610015 0.509307 0.389067 
960600000386857 -0.165348 0.145967 -0.442760 -1.140038 -1.186996 0.470299 -1.162772 -0.099841 0.752115 1.661513 
960600000343144 0.265591 1.773026 0.790418 -1.061648 0.333231 0.444844 -1.026572 -0.711948 0.038316 0.405053 
960600000300896 -0.543687 0.236101 0.198694 -0.753354 -0.789314 0.768208 -0.983516 -0.100744 0.693788 0.331038 
960600000339179 -0.096696 1.235668 0.957282 -1.078919 -1.262920 0.524229 -0.674145 0.112823 0.770025 0.128903 
960600000376475 0.198315 0.480702 0.950592 0.008589 -1.232133 0.322101 -0.577399 0.247301 -0.197129 0.158633 
960600000331504 -0.013881 0.392741 0.325369 0.218220 -0.510033 0.913780 -0.469253 -0.376583 -0.177825 0.698893 
960600000339916 0.061119 1.442584 0.726919 -0.485160 -0.191453 0.694748 -0.950620 -0.548206 0.285942 0.667548 
960600000356379 0.289852 1.132030 0.221522 -1.730944 -0.760691 0.183093 -0.465119 1.239134 0.700838 0.821347 
960600000347802 -0.174940 0.687303 0.539518 -1.663809 -0.331938 0.507409 -0.692256 -0.441584 -0.275570 0.027907 
960600000326342 0.306714 0.663533 -0.210309 0.185783 -0.516664 0.476109 -0.144184 -0.377718 -0.656521 0.219098 
960600000369081 -0.239721 0.310349 -1.274870 -0.893864 -1.246709 1.546542 0.119777 -0.275853 -1.119595 0.859662 
960600000315299 -0.229277 0.221302 0.169296 -0.538603 -1.276508 -0.078472 -2.041162 -0.026732 0.128036 0.652560 
960600000217188 0.328688 1.605125 0.762207 -0.303625 -0.020647 0.640969 -0.665875 -0.690017 0.223690 0.502659 
960600000364133 0.720680 0.868555 0.853895 -0.361354 0.298415 0.717140 -0.442572 -0.523617 -0.044383 1.669998 
960600000222345 0.123629 1.312035 0.017601 -0.316088 -0.200542 0.249191 -0.640281 -0.208641 0.324479 -0.603162 
960600000222402 0.072748 0.437073 1.121177 -1.779539 0.041559 1.884461 0.653949 -0.870559 0.595728 -0.404258 
960600000377233 0.247158 1.555155 0.136319 0.029098 -0.363908 0.717197 -0.344787 -0.459973 -0.213794 0.012984 
960600000378624 0.302524 0.559704 0.474446 -1.406950 0.289738 1.661138 0.764206 -0.963596 0.128507 -0.984740 
960600000312988 -0.536640 0.389877 1.213008 -1.207174 -0.276473 1.822231 -0.532031 -0.067131 -0.545352 0.796793 
960600000234313 -0.145001 1.176189 0.317175 0.671729 -0.085780 1.353175 -1.169846 -0.581627 -0.760284 0.744791 
960600000464342 -0.917215 -0.620080 -0.810840 -0.295039 -0.632484 1.925751 -0.934916 1.469216 0.545635 -1.054798 
960600000402515 -0.462047 0.457345 0.469491 -0.504670 -1.017291 1.424141 -0.181991 0.594849 1.252784 0.195130 
960600000268035 0.772954 0.671309 1.289138 0.108836 -0.279969 0.709316 -0.267690 -0.467893 -0.175454 1.429409 
960600000339467 -0.209227 2.137203 0.604800 -0.501194 -0.271917 1.118657 -1.470221 -0.386648 -0.430479 0.880617 
960600000318197 -0.220952 0.472167 0.650419 -0.959858 -0.938327 0.151640 -1.090971 0.791843 -0.185150 -0.245439 
960600000245796 -0.377744 1.365167 -0.469881 -0.243512 -0.062133 1.090949 -0.828442 -0.347277 -0.414827 -0.094009 
960600000270112 -0.037381 1.014880 0.906138 -0.540613 -0.924426 0.636611 -0.511327 -0.049110 0.754559 0.067908 
960600000309036 0.483719 0.113693 -0.602982 -0.140792 0.620102 0.226498 -0.374784 -0.740397 -0.397810 -0.446911 
960600000223369 0.001406 1.249699 -1.373988 -0.310581 -1.222871 1.026755 -0.029298 -0.412545 -0.174181 0.091443 
960600000360613 0.222020 0.249280 0.739122 -1.307281 0.103205 1.595051 0.855628 -0.366008 0.765658 -0.296976 
960600000275815 0.770171 1.678023 0.814492 0.292479 0.200729 0.515169 -1.046203 -1.016239 0.337656 1.198957 
960600000380530 -0.175864 0.888686 1.021344 -0.196565 -0.860152 0.667256 -0.949388 0.037559 0.679586 0.291735 
960600000373399 -0.531770 1.269335 0.724396 -0.178250 -1.548976 1.686447 -0.373102 -0.253689 -0.386779 -0.190517 
960600000323687 0.095139 0.651020 0.755755 -1.554497 0.259266 1.807692 0.615104 -0.870135 0.653493 -0.277989 
960600000256383 -0.610772 -0.532147 -0.227235 -0.183612 -0.642246 1.929176 -0.331223 1.315069 0.393574 0.431408 
960600000388996 -0.329738 1.186481 -1.131431 1.013121 -0.688317 1.838958 -0.651156 -0.914424 -0.182718 -0.133314 
960600000249923 -0.417753 1.484664 -0.936610 0.202894 -1.138109 1.505254 -0.350146 0.326960 -0.422134 0.185116 
960600000431284 -0.148946 1.106162 -0.309909 -0.291228 0.160634 0.743358 -1.107146 -0.356399 0.238676 0.737724 
960600000480301 -0.108887 2.039033 -0.222558 -0.359326 0.216401 0.778624 -1.047431 -0.242884 0.013519 -0.098375 
960600000455507 -0.194869 0.604516 0.020048 -1.472786 -0.989146 0.121494 -1.258607 -0.681413 0.287214 0.267812 
960600000355237 0.366919 1.678646 0.679089 -0.772836 -0.210302 0.517196 -0.444574 -0.617828 0.461850 0.599550 
960600000341083 0.136372 0.140991 0.677611 0.337225 -1.105470 -0.048746 -1.579761 1.000231 -0.046916 0.363183 
960600000296127 0.255908 0.595551 -0.271045 0.422945 -0.552005 0.216361 -0.691316 -0.733984 0.549607 -0.897448 
960600000448696 0.555815 -0.237901 0.329173 -0.252667 0.749323 0.325594 -0.297916 -0.683037 0.113630 -0.343888 
960600000378356 0.400685 1.290212 0.222455 -2.215365 -0.882417 0.696003 0.344659 1.045106 -0.107079 0.664307 
960600000379891 -0.149527 1.396544 -0.990398 -0.031053 -0.448892 1.386626 -0.451185 -1.138056 -0.643164 -0.370506 
960600000261558 -0.155085 0.857305 -0.476195 0.241993 -1.121121 1.068341 -0.134491 -0.521683 0.180107 -0.210166 
960600000225972 0.271251 0.734438 -1.266303 0.057826 0.296498 0.838051 -0.117183 0.901140 0.720279 0.235855 
960600000303570 -0.310898 0.753697 0.360948 -1.236133 -0.426365 0.757328 -0.500415 0.085779 -0.092895 -0.044790 
960600000388169 -0.813654 0.696509 -0.691831 -0.607440 -0.903807 1.435383 -1.598760 -1.456776 -0.120069 0.693999 
960600000308430 0.190923 -0.139571 -0.597942 -0.542627 -1.701681 0.741662 0.398332 -0.456504 -0.174334 -0.071095 
960600000382341 0.537325 1.891528 -0.421878 -0.009894 -1.212826 0.676229 0.246385 0.075515 -0.483179 -0.257280 
960600000361057 0.017123 0.716802 -1.613407 -0.313074 -1.120122 1.021512 0.219668 -0.073519 -0.395091 -0.158523 
960600000328923 -0.518384 0.709032 0.655361 -1.529604 -0.404321 0.718752 -1.128497 -0.398362 -0.120312 0.025010 
960600000357869 0.135599 1.101914 0.387843 -0.505892 -1.339476 0.719182 -0.025196 -0.241072 1.020955 0.427547 
960600000346599 -0.154461 1.195388 0.546232 -0.370690 -1.056926 0.665198 -0.808370 0.299456 0.714439 0.465241 
960600000373979 0.320474 1.409999 -0.831245 -0.188528 -0.970426 0.839127 0.410452 -0.283781 -0.106631 -0.520393 
960600000377280 -0.006151 1.148726 -0.169344 -0.153373 -0.177313 1.015962 -0.019833 -0.290791 -0.178330 -0.040153 
960600000282356 0.161783 0.433151 1.390571 0.068733 -1.373903 0.300772 -1.134356 -0.469548 0.375568 0.342388 
960600000483825 0.020330 0.140641 0.857288 -0.287720 0.317168 1.668895 -0.094483 -0.294673 -0.440640 0.928190 
960600000267339 -0.527496 0.799997 0.163226 -1.578105 -0.526355 0.882628 -0.683410 -0.246019 0.145378 -0.047383 
960600000262719 -0.232298 0.931375 1.059831 -0.498880 -1.206317 0.778947 -0.809401 -0.092598 0.454251 0.355022 
960600000352882 0.858951 2.051490 0.533061 0.246508 -0.003708 -0.176314 -1.935246 -0.563176 0.127285 0.876860 
960600000434033 0.464901 1.842388 1.345085 0.435563 -0.218711 0.338495 -1.281129 -0.375903 0.045940 -0.219653 
960600000361636 -0.206463 -0.231430 0.119326 -0.776529 -1.542685 -0.033773 -2.092007 -0.238923 0.621303 1.029372 
960600000262646 -0.123664 1.943938 0.031460 -0.462082 -1.088841 0.944183 -0.466721 -0.351400 -0.277068 0.050164 
960600000386041 0.151581 0.149933 0.275640 -0.884769 -0.935797 -0.001165 -1.447379 -0.583871 0.454434 1.368649 
960600000283426 0.198690 1.847219 0.151692 -0.531774 0.029992 0.354498 -1.328963 -0.711903 0.162843 0.333671 
960600000308351 -0.180305 0.914419 0.980901 -0.244750 -0.346905 1.762699 -0.374492 -0.829204 -0.308030 1.096045 
960600000443191 0.972675 0.418630 0.686858 -1.708860 0.527989 1.521395 1.052032 -1.334203 -0.506753 -0.996170 
960600000359045 -0.649309 1.795215 -0.181198 -0.031452 0.305824 1.666603 -1.580688 -0.740270 -0.274904 0.230681 
960600000251102 0.620095 1.202036 -0.429060 0.132578 -1.179731 -0.744102 -1.883304 1.109397 -0.858221 -0.671744 
960600000318884 0.130285 1.151250 0.172208 -0.733181 -0.596409 0.042966 -0.901722 -0.128996 0.705164 0.232522 
960600000310551 1.168229 0.754370 -0.510580 0.812814 -1.568389 0.565751 0.863992 -0.420186 0.101812 -0.849313 
960600000341344 0.208674 1.223361 -0.268245 0.145591 -0.402636 0.838583 -0.056163 -0.694731 -0.214054 -0.194201 
960600000397453 0.146959 0.646034 1.020214 -1.776379 0.008897 1.865364 0.692445 -1.118415 0.498455 -0.230665 
960600000364631 -0.490843 1.495820 0.060751 -0.049697 0.446427 1.169439 -1.635669 -0.252507 -0.605245 -0.042067 
960600000379210 -0.265247 -0.442061 0.238006 -1.015156 -1.389136 0.152866 -2.057803 -0.763893 0.022108 1.117196 
960600000358867 -0.101070 0.631706 1.344109 0.748829 -0.589247 0.980856 -1.505473 0.356735 -1.165627 -0.495816 
960600000296526 0.614122 0.799989 0.790971 0.967381 -0.715951 -0.107025 -1.837210 -1.143682 0.465448 -0.588468 
960600000229795 0.078781 0.179378 1.279395 0.073104 -0.361375 0.960091 -0.690857 0.059076 0.064209 1.050861 
960600000264718 0.063115 0.306818 -0.285739 -0.488740 -0.082439 0.810510 0.156475 0.924019 0.943216 -0.635151 
960600000394085 0.129465 0.087357 0.058952 -0.038235 0.026119 0.752991 -0.253547 -0.066675 0.697848 0.538245 
960600000432016 -0.528070 1.100770 0.590872 -1.505930 -0.345439 1.277092 -0.717063 -0.374643 0.391810 0.464797 
960600000444645 -0.157514 1.310709 0.092664 0.038354 -0.220274 0.683800 -1.322749 -0.507530 0.188702 0.429117 
960600000369538 -0.459385 1.229283 -1.097899 -0.312410 -1.420635 1.472066 -0.404738 0.375379 -1.003946 0.565809 
960600000314036 1.371482 0.766924 -0.630648 0.835002 -1.542773 0.214213 0.652610 -0.498504 -0.219668 -0.572946 
960600000226284 0.848603 0.212692 -0.110196 -0.492694 0.260300 0.095228 -0.618694 -0.425130 0.017831 1.627123 
960600000308772 -0.420488 0.744731 0.217943 -1.890272 -0.554597 0.589557 -0.952356 -0.380282 0.000631 0.122726 
960600000279488 0.749688 1.047188 1.587528 -0.115040 -0.539320 0.438927 -0.868931 -0.081850 0.397597 1.637462 
960600000273666 0.325835 1.439815 -0.034822 0.268854 -1.086739 -0.039185 -1.363254 -1.033252 0.835824 -0.605708 
960600000428209 0.053523 -0.280127 0.274794 -1.681288 0.017901 2.329140 1.401120 0.473064 0.370738 -0.472069 
960600000381293 0.073233 0.921441 -0.710166 0.016082 -1.252177 0.618032 -0.383662 -0.828473 -0.213437 0.051846 
960600000262187 -0.052822 1.522479 1.246948 -0.029635 -1.265084 1.513646 -0.318198 -0.398990 0.175828 0.778596 
960600000360532 0.325725 0.664971 -0.321408 -0.406836 -0.028672 1.217328 0.441676 1.288859 1.241431 0.536598 
960600000265563 -0.127250 0.625995 0.942210 -0.231253 -1.422503 0.469708 -0.778971 0.291581 -0.245438 -0.204692 
960600000333326 -0.197829 0.533019 0.448372 -0.807674 -1.039626 0.077179 -1.078644 0.529398 -0.228314 -0.278416 
960600000320130 0.513731 1.488980 -0.115652 -0.447744 -1.419757 -0.413734 -0.705217 0.745723 0.124876 -0.252621 
960600000329219 -0.173281 1.659268 -0.040245 -1.152696 -0.281974 0.732885 -0.995242 -0.005657 0.624149 0.896365 
960600000318697 -0.334302 0.446921 0.074958 -1.464397 -1.267859 0.421367 -0.750201 0.401042 0.000720 0.218593 
960600000402394 1.079490 1.117838 -1.311643 0.116621 0.331668 -0.166876 -0.341930 -0.106619 -0.500733 0.129020 
960600000373574 0.607775 0.941095 0.751935 -0.117764 0.422028 0.579239 -0.710932 -0.658922 -0.141381 1.288864 
960600000353557 1.064260 0.242822 -0.889238 -0.099021 -0.307993 -0.821920 -0.808561 -0.815848 0.706258 -1.357943 
960600000265717 0.106734 1.040911 0.744784 -0.433840 -1.328642 0.138635 -0.812244 0.807214 -0.429695 -0.110235 
960600000360672 0.386240 2.053800 0.677039 -1.037316 0.266926 0.375813 -1.129922 -0.748453 0.049612 0.591765 
960600000322170 -0.537085 1.310716 -0.600154 -1.079130 -1.262223 0.848721 -1.426117 0.218831 0.463776 1.119229 
960600000362918 0.047705 0.092559 -0.144168 0.145269 0.031201 1.322759 0.051366 1.074531 1.191853 0.044590 
960600000222330 0.225434 0.731283 1.179340 -0.431746 -0.635347 0.662630 -0.407361 -0.434162 0.304343 0.769479 
960600000362730 -0.027089 -0.218924 -0.725153 -0.218619 -0.924752 0.891594 0.186173 -0.256898 -0.354778 -0.842394 
960600000471417 -0.373070 1.232913 0.828376 -1.868032 -0.292639 0.860342 -0.847773 -0.329159 0.116287 0.209062 
960600000387286 0.111039 1.917573 -0.907992 -0.257516 -1.874147 1.321216 0.197740 0.099932 -0.606939 0.229209 
960600000357914 -0.274116 0.822564 1.148484 -1.361930 -0.103834 0.850972 -0.751374 0.033903 0.287022 0.136582 
960600000395012 0.027412 0.632708 0.275352 -0.921844 -0.568061 0.531947 -0.167342 -0.507681 0.738935 -0.354032 
960600000398526 0.335105 1.882514 0.685668 -1.034975 -0.599871 0.165175 -0.861805 0.546318 -0.932036 -0.062761 
960600000020673 0.224324 1.319958 -0.060660 0.520817 -0.992470 0.269965 -1.077834 -0.906935 0.408138 -1.035152 
960600000322251 0.307512 1.055294 0.761657 -0.085308 -0.454157 0.405046 -0.559939 -0.569144 0.442418 0.166695 
960600000293441 -0.150855 1.006473 0.758486 -0.371640 -0.549787 0.288116 -1.445074 -0.733118 0.526147 -0.475987 
960600000219409 -0.199006 1.476076 0.084680 0.186040 -0.685552 0.494921 -1.426929 -0.376354 0.286054 -0.278867 
960600000223641 -1.037302 0.054917 -1.597785 -0.372502 -0.869754 2.037614 -0.651238 0.132524 0.096683 -0.722857 
960600000373684 0.133589 1.206512 1.064567 -0.676655 0.109629 0.385616 -1.106345 0.267215 1.780304 -0.272161 
960600000292314 0.701043 0.747310 -0.783810 0.299977 0.452842 0.507157 0.249927 1.043344 0.233346 -0.515759 
960600000444357 -0.255799 -0.155467 -0.344103 -1.532015 0.071156 2.608335 0.936044 -0.146496 0.233414 0.567189 
960600000377250 0.237593 1.609192 -0.713396 -0.438366 -1.070936 0.935954 0.212029 -0.683849 1.137960 0.058797 
960600000469863 0.081293 0.675627 0.662355 -0.317557 -0.641459 0.846829 -0.148264 0.068145 0.949882 0.450636 
960600000358921 0.039571 1.299882 -0.559131 -1.199022 -1.248279 0.264536 -0.804687 1.047540 -0.001529 0.972612 
960600000377051 -0.396859 0.539780 0.522698 -1.879572 -0.623741 0.886853 -0.597891 -0.157898 -0.175114 0.421250 
960600000354947 -0.151666 1.201470 -1.217805 -0.837859 -1.093302 0.792074 -0.659101 0.256752 -0.483149 0.828079 
960600000320563 -0.445702 0.887789 -0.261302 0.245410 0.473733 1.454684 -0.756092 -0.463694 -0.256426 -0.307920 
960600000466799 1.967064 -0.314416 -0.128771 0.606487 -0.868523 -0.455882 0.372007 0.266688 -0.528767 0.679528 
960600000380878 -0.124842 0.604762 0.919975 -0.521868 -0.485694 0.451067 -0.897310 -0.165176 1.100430 -0.238862 
960600000007414 0.292653 0.688881 -0.620382 -0.315901 -0.556305 0.428375 0.026407 -0.795988 0.418643 -0.361603 
960600000356621 0.158095 1.324411 0.248506 -0.122822 0.010770 0.517485 -0.523415 -0.315123 0.032948 -0.322710 
960600000264431 0.299958 1.971452 0.397517 -0.451897 -0.014363 0.451750 -0.888866 -0.335484 -0.004360 0.269156 
960600000346080 -1.146714 -0.337002 -0.729335 -0.571021 -0.575290 2.062815 -1.263684 1.482175 0.684651 -1.269436 
960600000356155 0.191624 1.037872 0.973054 -0.395703 -1.324666 0.827955 0.018376 -0.175620 1.023062 0.436869 
960600000382239 -0.134602 0.522570 -0.146585 -0.282017 -0.121300 1.416542 0.167633 0.858058 0.783143 0.252628 
960600000338844 -0.076939 1.109167 -1.395037 -0.569984 -0.900047 1.325093 0.236061 -0.395997 0.313857 0.159700 
960600000361635 -0.212264 -0.660739 -0.066096 -0.416353 -2.071334 1.170230 -0.072876 -0.284637 -0.485699 0.241155 
960600000302895 -0.049015 1.773988 -0.167294 -0.430007 -0.300899 0.747719 -0.646991 -0.383439 0.060804 -0.167706 
960600000352438 -0.022264 0.177099 -0.135011 0.353161 0.124646 2.097280 0.323614 1.355446 1.190309 0.137175 
960600000221138 -0.085394 1.039110 0.951814 -0.809780 -0.763038 0.723386 -0.473860 0.777188 0.421664 0.279891 
960600000485133 -0.221240 0.289744 0.766366 -0.856452 0.105830 1.820902 0.250783 -0.536522 0.465935 0.269889 
960600000408695 0.337097 0.409563 1.420113 0.415588 -0.804606 0.515363 -1.121475 -0.299843 -0.468603 0.880850 
960600000479153 0.345059 1.233027 -0.619141 -0.081475 -0.857557 0.648700 -0.113846 -0.623351 -0.441604 0.524385 
960600000220676 0.238867 0.696983 0.283048 -1.041234 -0.594637 -0.079161 -0.570387 0.447082 0.421272 0.137221 
960600000428924 0.033148 1.124205 1.108697 0.454927 0.285831 1.455117 -1.194969 -0.391797 -0.454567 1.197221 
960600000290949 -0.128891 -0.090028 -0.702552 0.273919 -1.372465 1.141800 -0.081698 -0.670661 -0.355265 -0.546712 
960600000251849 0.345011 1.187952 1.371436 0.327843 -0.340536 1.231022 -0.397025 -0.058940 0.294237 1.175253 
960600000447053 -0.343658 1.618557 -0.812124 -0.193372 -1.129747 1.704416 -0.455103 -1.423307 -0.635751 -0.148902 
960600000309431 -0.392496 0.470559 0.614722 -1.807412 -1.594867 0.432847 -0.994157 0.710629 0.520976 0.104165 
960600000263168 -0.173892 1.230871 -1.355977 -0.914884 -0.960805 0.913328 -0.525046 0.314851 -0.458933 0.870968 
960600000379191 0.477241 1.057998 -1.554334 1.392654 -0.384478 1.197275 -0.820718 0.025706 -1.325262 1.155998 
960600000466937 -0.018186 1.344198 -0.204559 -0.988272 -0.549988 0.359052 -1.325045 -0.750500 0.139100 0.855572 
960600000467107 0.009468 2.236888 -0.219947 -0.471771 -0.453718 0.952451 -0.925172 -0.773363 -0.297991 0.162225 
960600000354669 0.311835 -0.585475 -0.281423 -0.437223 -0.011389 0.623979 0.087628 -0.223865 -0.116531 0.189815 
960600000477695 -0.650811 0.894763 0.582304 -2.364817 -0.699320 1.111302 -0.778330 -0.146287 0.058947 -0.021303 
960600000375855 0.230729 0.249682 0.731463 -0.015316 -0.956337 0.054583 -1.103925 0.686846 -0.945398 -0.095316 
960600000383178 0.500935 1.498806 0.251516 -1.681679 -0.657325 0.222561 -0.260089 0.451766 -0.108442 1.108829 
960600000274026 0.665674 0.223861 1.249439 -1.259851 -0.258816 1.025637 0.517640 1.071663 0.151757 1.275938 
960600000328327 0.081331 1.005927 0.923016 -2.096738 0.278892 1.334098 0.160799 -0.655859 -0.173261 -0.671738 
960600000329468 -0.397722 0.889089 -0.407600 -0.097683 -0.068195 1.087423 -0.680542 -0.286080 0.018784 -0.043956 
960600000360120 0.499406 1.708364 0.953180 -0.594950 0.191559 0.608391 -0.802324 -0.862742 0.026499 0.981533 
960600000264607 -0.113719 0.975070 0.806046 -2.170905 0.133042 1.603337 0.077985 -0.886928 -0.421718 -0.698342 
960600000369127 -0.314718 -0.026664 -0.491962 -0.157204 -0.911532 1.748730 0.272828 0.459185 0.574787 0.540353 
960600000367355 -0.079434 1.734071 0.104871 -0.839962 0.069070 0.641923 -1.021833 -0.314632 0.390969 0.049702 
960600000356042 0.042020 0.774016 0.221807 -0.267633 -0.722289 0.649595 -1.287866 -0.592738 -0.799097 1.433828 
960600000256458 -0.230948 0.838228 1.075539 -0.089127 0.335956 1.891590 -0.595030 -0.471872 -0.234133 0.872131 
960600000009105 0.190578 0.729811 0.713035 0.081643 -1.041189 0.043696 -1.350337 -0.977008 0.617926 -0.297720 
960600000315410 0.280152 0.494358 -0.561812 -0.288806 -0.954296 0.435638 0.059404 -0.650839 0.319687 -0.036316 
960600000476755 -0.341323 0.828160 0.746988 -1.611954 -0.917374 0.569876 -1.072462 -0.470757 0.041334 0.403905 
960600000265382 -0.070213 0.836940 0.287153 -0.162781 -1.116871 0.851403 -0.223235 -0.498515 -0.248196 0.044169 
960600000413625 -0.109999 1.421339 0.121027 -0.205447 -0.487784 1.299558 -0.782341 -1.642038 -0.181299 0.450356 
960600000220849 -0.884829 -0.111640 -0.412507 -0.511883 -0.650707 2.151206 -0.398363 1.370550 0.587961 -0.353472 
960600000470087 0.212394 0.871842 1.251894 -0.650370 -0.792423 0.663381 -0.453472 -0.456452 0.391743 0.888768 
960600000352995 -0.212503 1.804914 -0.004552 -0.851970 0.133941 0.908973 -1.023350 -0.532085 0.345749 0.254259 
960600000357631 0.773410 1.068894 -0.904892 0.362187 0.828706 0.569864 -0.139209 0.551679 1.346479 -0.469928 
960600000350224 0.092564 1.338926 0.986846 -0.066806 -0.046410 1.065395 -0.882722 -0.665022 -0.095433 0.901694 
960600000299824 -0.457502 0.861472 0.756636 -0.975339 -0.314249 0.771097 -1.082923 -0.389965 -0.080919 -0.000271 
960600000361423 0.450071 0.846234 1.142639 -0.110485 0.045593 1.067214 -0.314667 -0.131472 0.414753 1.513470 
960600000199320 0.437098 -1.192554 -1.553083 -0.670735 -0.672902 0.850338 0.041764 2.004858 1.279621 -0.476559 
960600000440374 0.337343 1.511044 -0.158849 -0.254442 0.217809 0.106814 -0.903475 -0.594888 0.069942 -0.476908 
960600000349891 -0.623980 0.886015 0.657403 -2.403381 -0.733353 0.961106 -0.841590 -0.180770 0.051931 -0.055031 
960600000481934 0.462081 1.626922 0.963355 -1.522076 -0.586569 0.149665 -0.337816 0.782942 0.296918 0.069080 
960600000419361 0.314826 -0.066216 1.226675 1.032557 -0.747533 0.139766 -1.751135 0.663920 -0.286269 -0.527739 
960600000354718 -0.189768 1.293282 0.380410 -0.256607 -0.478730 0.549279 -1.108212 -0.044557 -0.079204 0.169658 
960600000334100 -0.237622 2.065803 -0.651196 -0.672588 -1.381169 0.929381 -0.848328 -0.514302 -0.129034 0.247552 
960600000261842 -0.004768 1.347749 -0.829550 0.110526 -0.877021 1.063241 -0.292492 -1.153528 0.037425 -0.684040 
960600000217133 -0.295988 0.294017 0.218797 -1.078032 -0.891157 0.427808 -0.852656 0.676431 -0.285033 0.311676 
960600000367343 1.079609 1.012093 -0.416249 0.933032 -1.151294 0.402466 0.366211 -0.641918 -0.587115 0.049804 
960600000399547 -0.891053 0.927031 0.619622 -2.432855 -0.715377 1.368104 -1.043051 -0.065059 0.148491 0.040622 
960600000255082 0.611894 -0.498067 -0.879318 0.192375 -0.440117 -0.051206 -0.352387 -0.819196 -0.128151 -0.349753 
960600000351933 0.794270 0.422145 0.481388 -1.857846 0.660969 1.759071 0.986305 -1.261681 -0.720395 -0.789194 
960600000367655 0.318334 1.438824 -0.160621 -0.452994 0.492737 -0.059894 -1.073361 -0.129447 -0.268063 -0.597095 
960600000476795 0.668993 0.649324 0.630303 -1.358416 0.111758 1.332886 0.941471 -1.012062 -0.378777 -0.968029 
960600000317790 0.246357 1.593319 -1.212165 -0.579931 -1.296304 -0.244806 -1.709247 -0.416458 -0.032037 0.718521 
960600000377284 0.728659 1.160529 -1.384924 0.144416 -0.749184 0.062174 -0.572245 0.331831 -1.433520 0.460055 
960600000363708 0.911867 1.048526 0.922671 -0.265938 0.132833 0.266848 -0.654342 -0.751101 -0.151558 1.437061 
960600000178640 0.135869 1.144386 1.312546 0.088787 -0.739956 0.814356 -0.632565 -0.114999 0.357472 0.473185 
960600000273963 0.334997 0.388277 -0.130627 -0.797781 0.066734 0.257921 -0.047028 -0.485291 -0.374968 -0.454457 
960600000338777 0.065376 1.644859 -0.695305 0.108077 -0.817988 0.984653 -0.118220 -0.434314 -0.286618 -0.776280 
960600000380942 0.099965 1.456500 0.928614 -0.162113 -0.087005 0.444469 -1.424542 -0.290354 -0.438641 0.423164 
960600000450832 0.124937 1.725204 0.611413 -0.189161 -0.111182 0.596131 -0.609961 -0.143388 0.702885 -0.624948 
960600000431165 -0.549250 1.377124 0.604556 -0.597435 -1.547686 0.920000 -1.487557 0.010469 0.645176 0.460283 
960600000428489 0.605542 0.695965 0.925465 -1.072465 -0.577604 0.285219 0.095308 0.765182 -0.060069 0.618895 
960600000381064 1.282599 0.005356 -0.036064 0.600696 0.395911 0.675760 0.869334 0.690420 1.163407 -1.009707 
960600000306496 0.027486 2.539981 -1.168837 -0.136237 -1.521591 1.548019 0.055598 -0.068025 0.036687 -0.571866 
960600000297323 0.279083 0.040340 1.194590 1.053413 -0.716033 0.069936 -2.064325 0.852257 -0.303062 -0.615989 
960600000299138 0.205410 1.455960 -0.603086 -0.108154 -1.086087 1.250720 0.287599 -0.894435 -0.104767 0.318320 
960600000367631 -0.056505 0.963228 0.525356 -1.463707 -0.268816 0.519146 -0.526207 -0.228098 0.180549 0.213526 
960600000218006 0.253941 0.341210 0.454995 0.117551 -1.049275 -0.254198 -1.123498 0.738466 0.139946 -0.121153 
960600000371067 0.434632 0.212830 1.411114 0.521818 0.316127 1.293957 -0.510375 -0.332234 -0.213876 1.134974 
960600000397133 -0.046636 0.005646 0.508397 -0.225797 -2.042275 0.540443 -0.344983 0.128676 0.089233 -0.009241 
960600000381097 0.673347 1.718392 1.134800 0.079570 0.119319 0.403511 -1.158767 -0.939496 0.565051 0.887421 
960600000360141 0.732665 0.475694 1.254963 0.679355 -0.471931 0.169321 -0.766753 0.468671 -0.726966 0.121182 
960600000376345 0.319123 1.070142 0.884643 0.226421 0.225957 1.093182 -0.767988 -0.614357 -0.351622 1.222323 
960600000353408 -0.045787 1.022345 -0.142212 -0.273988 -0.671348 0.883278 -1.264825 -0.470076 -0.498540 1.739575 
960600000263955 -0.090443 0.622253 0.519062 -0.401465 -0.533987 0.468106 -0.720526 -0.431986 0.107458 0.117664 
960600000393392 -0.136993 0.691473 -0.358484 -1.128220 -0.739072 -0.018181 -1.512549 -0.390108 -0.208520 0.488043 
960600000445688 -0.377766 1.065475 0.681151 -1.739968 -0.479794 0.863434 -0.720138 -0.203091 0.220137 0.219078 
960600000332118 0.749110 1.838063 1.070831 -0.118981 0.247182 0.477349 -0.892930 -0.849370 0.598981 1.076167 
960600000406873 -0.186633 1.659760 0.858985 -0.825184 -0.601642 0.600122 -1.268245 0.048040 0.829753 0.205431 
960600000257017 0.143274 2.081911 -0.644499 -0.247705 -0.918173 0.935408 -0.051753 -0.314245 -0.005908 -0.825531 
960600000359364 0.264540 0.383544 -0.469958 0.005392 -0.134210 0.972030 0.151410 1.274734 1.445619 -0.245972 
960600000346148 0.113865 0.625452 1.522264 0.066304 -1.690557 1.080747 -0.055530 -0.250248 0.447655 0.295796 
960600000321976 -0.456102 0.840132 0.758189 -1.604300 -0.626842 0.789577 -0.846905 -0.215137 -0.119235 -0.025001 
960600000347416 -0.112872 1.571412 -0.734711 -0.018779 -0.660171 1.180194 -0.089295 -0.418849 0.559243 -0.437756 
960600000444850 0.228430 1.758811 -1.232239 -1.017568 -0.799228 0.890921 0.199591 0.027417 -0.077200 0.315123 
960600000265148 0.495902 1.496744 0.516971 -1.941967 -1.082352 0.669456 0.275574 1.195078 -0.132432 0.729576 
960600000381958 0.258582 1.460963 0.921580 0.174543 -0.529926 0.960853 -0.546119 -0.264473 0.328978 0.917634 
960600000216554 -0.791612 -0.051742 -0.392656 -0.382917 -0.737363 2.034966 -0.618849 1.504252 0.887447 -0.127730 
960600000272322 0.492572 2.438787 -0.948966 -0.350149 -1.384908 1.161229 0.346807 -0.654233 0.008840 -0.348356 
960600000365255 -0.050036 0.679285 0.301576 -0.909194 -0.532368 0.485703 -0.370538 -0.062178 -0.239458 -0.078104 
960600000337797 -0.282628 1.059832 0.210042 -0.886943 0.046725 1.232524 -0.427823 0.221087 0.571689 0.816854 
960600000393963 0.340296 1.243777 0.245215 -2.049480 -0.876248 0.454236 0.074108 1.041418 0.055189 0.419101 
960600000381535 0.293809 0.820682 1.196132 -0.179345 -0.904776 0.514817 -0.317172 -0.247711 0.656133 -0.051355 
960600000382004 0.661959 1.545743 0.529554 -0.601418 0.483942 0.118226 -1.478439 -0.710035 -0.448000 1.189655 
960600000262506 0.215956 0.228615 0.558611 -0.338372 0.012597 0.560627 -0.238594 0.529319 0.769525 0.349409 
960600000324573 0.030643 0.694371 -0.356410 -0.131508 0.176402 0.831099 -0.598112 0.563500 0.798780 0.940845 
960600000481862 -0.061554 1.962681 0.019909 -0.779961 0.252900 0.622820 -0.965631 -0.336372 0.208627 -0.516363 
960600000255465 0.553659 0.387348 1.178257 -1.775273 0.136021 0.949391 0.366089 0.959828 0.414994 0.866717 
960600000473001 -0.287150 1.473098 -0.021411 -0.564384 -0.983660 1.223442 -1.316083 -1.948855 0.203594 0.558771 
960600000345133 0.274679 1.524308 0.637282 -0.617257 -0.381584 0.496862 -0.669206 -0.655137 0.246774 0.669114 
960600000478490 0.224879 0.355211 -0.446389 0.185728 0.074222 1.014269 0.062418 0.978587 1.369408 -0.389688 
960600000361158 0.461689 1.413602 0.623064 -0.391150 0.009340 0.401294 -0.357691 -0.171106 0.410439 0.325805 
960600000472929 -0.207199 1.048649 1.204423 0.320281 0.599062 1.811300 -1.594535 -0.527376 -0.228316 1.190920 
960600000389168 -0.143990 0.837217 0.917100 -0.881903 -0.802140 0.696333 -0.737327 0.047089 0.291630 0.775533 
960600000459799 -0.039354 1.469460 0.631383 0.007290 -0.301259 0.964384 -0.626738 -0.421278 -0.290537 0.076078 
960600000353224 0.106650 0.106382 -0.260810 0.549461 -0.516649 1.404064 -0.437251 -1.388671 -0.497574 1.055548 
960600000282272 -0.232150 0.891162 0.366497 -1.295962 -0.443626 0.768143 -0.394352 -0.060508 0.551193 0.172511 
960600000356076 -0.007351 0.795234 0.412895 -0.397738 -0.991463 0.688791 -0.382839 0.406767 0.919017 0.435158 
960600000444743 -0.332624 1.265654 0.490103 -0.737120 -0.823329 0.834385 -0.938013 0.106928 0.862159 0.501091 
960600000313756 -0.415374 0.833817 0.480965 -1.578631 -0.339084 1.048968 -0.473268 -0.456491 -0.009914 -0.026521 
960600000350348 0.364902 -0.103043 0.820179 1.012980 -0.068946 0.065846 -2.432574 -0.253677 -0.710317 -0.948062 
960600000291574 0.368596 1.657869 -1.721073 0.040584 -0.854562 1.028819 0.259084 0.071218 -0.328095 -0.264861 
960600000216181 -0.117876 0.602963 -0.131174 -0.777592 -0.649739 0.392509 -1.287671 -0.373873 0.082746 1.224391 
960600000274643 -0.234827 0.456142 0.577874 -1.301964 -1.331745 0.280345 -1.249662 -0.554288 0.287755 0.385258 
960600000303887 0.280209 0.971147 0.658071 -0.532667 -1.352383 -0.143149 -1.067781 -0.722827 0.746568 -0.041103 
960600000360214 1.111890 0.266724 0.104929 1.003186 -0.520383 -0.629650 -2.223953 -1.171187 0.802590 -1.473092 
960600000171111 0.943183 -0.218584 1.342200 -0.720258 -0.350311 1.568103 1.253770 -1.153284 -0.975883 0.289691 
960600000357516 -0.149819 0.130449 -0.314438 -0.945355 -0.887724 0.442337 -1.035146 -0.287982 0.309497 1.178789 
960600000300584 0.219221 1.896906 -0.135099 -0.804220 -1.000377 0.490065 -0.182481 -0.039743 0.695176 -0.094866 
960600000253699 -0.116285 2.036958 -0.742873 -0.318135 -1.233078 1.477854 -0.241318 -1.053581 -0.053443 -0.006187 
960600000348349 -0.285813 1.736651 0.037224 -1.732625 -0.539241 0.400576 -1.678607 -0.280316 0.692134 0.493490 
960600000341289 -0.314413 0.503646 -0.273996 -1.284018 -1.276252 0.702776 -0.586291 1.220708 -0.782624 0.597562 
960600000478874 0.365252 0.485895 0.836966 -0.400061 -1.247238 -0.058500 -0.697325 -0.707769 0.106444 0.149535 
960600000333942 -0.035103 1.753587 -0.114659 -2.028545 -1.217257 0.567418 -0.560866 0.366524 -0.303145 0.304237 
960600000385684 0.544521 0.526461 0.410247 -1.210931 0.271612 1.212475 0.803726 -0.834785 -0.043458 -0.748358 
960600000484855 -0.228432 1.901508 -0.749426 -0.440108 -1.341276 0.856316 -0.726722 -0.347206 -0.409913 -0.293437 
960600000281821 0.845280 1.811622 1.237307 0.056735 0.258800 0.301951 -1.133779 -0.919784 0.564109 0.797165 
960600000482325 -0.772770 0.938863 0.641066 -2.135713 -0.740343 1.269959 -0.911950 -0.248329 0.157377 0.072407 
960600000377547 0.126170 1.013468 0.774886 -1.962345 -0.518363 1.047913 0.171740 0.599777 1.155299 0.455825 
960600000280706 0.523582 -1.939839 -0.765408 -0.030780 -2.909093 0.741366 -0.536589 0.177562 -0.364582 0.549171 
960600000340935 1.216647 0.018086 -0.825295 -0.730932 0.172114 0.279289 -0.038084 -1.354085 0.042619 1.625473 
960600000363524 0.358593 1.319864 0.164979 -1.906076 -1.030474 0.747756 0.317228 1.124996 0.003657 0.693114 
960600000382177 -0.153131 1.358232 -0.420505 -0.562113 -1.176142 0.343254 -1.201028 -0.216643 0.221043 0.568684 
960600000312081 -0.271478 1.194014 0.365950 -0.700423 -1.096849 0.935500 -0.514581 0.136449 0.776702 0.483140 
960600000332576 0.582675 0.261769 -0.457984 0.380378 -0.794642 0.199582 0.045660 -0.333382 0.074096 0.031164 
960600000230449 -0.013899 1.612660 -0.321483 -0.270117 -0.696890 0.923663 -0.263696 -0.440510 -0.460076 0.041214 
960600000444986 -0.016266 1.107036 0.648847 0.700142 0.363406 1.526919 -1.274796 -0.502427 -0.681501 1.016901 
960600000339754 -0.166297 1.463732 0.250940 -0.645978 -0.676411 0.739309 -0.672458 -0.450257 0.107792 0.116633 
960600000402608 0.366834 -1.538885 -0.767632 -0.101494 -1.130776 0.504963 -0.213550 0.181110 0.422351 0.405547 
960600000386911 -0.308585 1.013278 -0.197630 0.062856 0.702977 1.220971 -1.360748 -0.262280 -0.879090 0.090539 
960600000362656 0.868957 2.083505 -1.338946 0.284064 -1.186519 0.712616 0.102837 -0.540189 -0.381932 0.248419 
960600000274364 -0.017622 1.236394 0.138208 -0.962051 -0.684341 0.153862 -1.373654 -0.094170 0.133666 0.778495 
960600000346037 -0.950627 -0.691697 -0.467331 -0.068502 -0.858830 2.181180 -0.868023 1.443324 0.694627 -0.638008 
960600000356505 -0.172238 0.364198 0.085467 0.518435 0.082572 1.371873 -0.993904 -0.655357 -0.735761 0.731597 
960600000246194 0.137726 0.259204 -0.740840 0.497477 -0.056858 1.090570 -0.307714 1.481575 1.070114 -0.051582 
960600000297814 0.843122 1.906850 0.156111 -2.051480 -0.947634 -0.120127 -0.018209 0.033222 -0.058044 0.406780 
960600000261937 1.152270 1.050733 1.036690 0.560213 0.646029 0.458339 -1.427503 -0.630764 -0.485114 1.812459 
960600000471730 -0.369635 1.110164 0.433590 -0.786324 -0.877137 0.839412 -0.881438 0.500903 1.207445 0.403695 
960600000323580 0.521004 1.049958 0.325666 -1.530689 -0.480194 -0.335811 -0.638387 0.631463 -0.344198 0.136950 
960600000273047 0.121823 1.584380 -0.145924 -0.053354 -0.980248 1.293165 -0.238575 -1.203540 -0.801183 0.664061 
960600000046087 1.054203 0.310533 -0.534109 -0.392311 0.118260 -0.512275 -0.206428 0.311732 -0.556232 -0.223303 
960600000392206 0.271109 1.481295 -0.163713 -1.048322 -0.381823 0.092536 -0.306954 0.042352 -0.039229 -0.546166 
960600000440005 -0.296720 1.808921 -0.262204 -0.314509 -1.309319 1.274158 -0.571305 -0.393073 -0.333712 0.482539 
960600000347839 0.224859 2.238099 -0.410223 -0.133970 -0.911609 0.924141 -0.546244 -1.180018 -0.174521 -0.031992 
960600000356705 -0.114801 0.746283 0.025272 -0.040122 -0.898861 0.777652 -0.815657 -1.658104 0.391874 -0.363912 
960600000265825 0.272883 0.248050 -0.513896 -1.033687 0.155430 -0.306876 -0.968560 -0.017506 -0.505674 -0.745017 
960600000377061 0.770715 2.094014 0.522820 0.187001 0.200716 0.156787 -1.688437 -0.570966 -0.012900 1.130129 
960600000400467 -0.805034 -0.858611 -0.861514 -0.549467 -1.124075 2.060232 -0.523740 1.641141 0.750059 -0.970131 
960600000256682 -0.195651 2.076606 0.173301 -0.605086 -1.426988 1.095478 -0.773622 -0.373102 -0.108638 0.725856 
960600000438547 0.163046 0.479454 -0.419066 0.082972 -0.647264 0.620409 -0.019438 -0.369330 -0.314851 -0.115240 
960600000399403 0.008653 1.363801 -0.381990 -1.109469 -1.098515 0.634501 -0.117450 0.200721 0.270794 0.223798 
960600000263864 -0.110490 1.418290 -0.978187 0.930090 -1.029434 1.923375 -0.778227 -1.859492 -0.658542 0.044280 
960600000356438 1.067914 -0.394062 0.865564 0.905153 -0.297712 0.851040 -0.374885 -0.121611 -1.218987 1.572209 
960600000380334 -0.665573 1.031207 -0.059941 0.224618 0.005752 1.774878 -1.680953 -0.445589 -1.077345 0.767417 
960600000483552 1.011241 0.319436 -0.354977 0.123774 0.382494 0.445412 -0.276102 -1.086892 -0.705830 1.285174 
960600000356990 -0.252374 1.876070 0.478580 -1.235196 -0.478753 0.757591 -0.932798 0.439897 0.253894 -0.010481 
960600000321348 0.311701 1.149991 -0.052187 -0.349656 -0.168376 0.368051 -0.341774 -0.403307 0.310748 0.312963 
960600000222008 0.036930 1.080529 -0.824198 -0.270906 -0.847528 0.875950 0.010859 -0.639197 -0.374728 -0.369859 
960600000263800 0.239199 1.478905 1.253237 -0.135901 -0.008731 0.912397 -0.838639 -0.792073 0.137227 0.691837 
960600000269321 -0.237245 0.872827 0.020853 -0.195765 -1.244720 1.055160 -0.680981 -0.250902 -0.390565 1.029955 
960600000363103 0.195476 -0.491242 0.317425 -0.103738 -0.083147 0.954475 0.023824 -0.684854 1.374168 -0.853385 
960600000411831 0.095819 1.553146 0.023811 -1.079255 -0.564986 0.609136 -0.208329 0.193956 -0.095985 0.176017 
960600000327145 0.229519 0.439535 -0.525998 -0.885174 -0.347047 0.113240 -1.178432 -0.764248 0.249444 1.341173 
960600000264705 -0.010368 -1.165961 -0.481809 -0.420642 -1.435112 0.656360 -0.365843 0.718713 0.704444 0.255427 
960600000305071 -0.276192 0.556978 0.654624 -1.036013 -0.176168 0.798655 -0.625480 -0.144278 0.084252 0.183555 
960600000296785 -0.348354 0.776222 0.707161 -1.392270 -0.518730 0.803368 -0.658683 -0.473727 0.139978 -0.088892 
960600000332454 -0.108296 0.667083 0.658531 -0.990085 0.214554 0.557032 -0.860569 -0.382096 0.782411 0.118759 
960600000379975 0.054982 0.770953 0.624769 -0.873949 -0.436142 0.721730 -1.074611 -0.303839 -0.167382 1.770429 
960600000332791 0.471881 0.125761 -0.326002 -0.713820 0.039077 0.496849 0.412570 -0.701565 0.736934 -0.695636 
960600000470298 -0.174568 0.772230 -0.282966 -1.324698 -0.914352 0.062324 -1.649021 -0.469798 0.203719 0.822263 
960600000441755 0.121008 0.775927 0.411043 -0.499552 -0.690811 0.707520 -0.162539 0.065157 1.106659 0.511926 
960600000299601 0.307560 -0.005719 0.343507 -0.812197 -0.005247 0.886313 0.371754 0.377134 1.306837 -0.046474 
960600000370208 -0.327807 1.489763 -0.013904 -1.071219 -0.517634 1.393601 -0.123648 -0.766120 0.301917 0.102604 
960600000418770 -0.175077 -0.669063 -0.060822 0.170442 -1.417914 1.131653 -0.164575 0.102313 -0.123566 0.272208 
960600000288266 0.502579 0.572906 0.492514 0.310171 -0.117149 0.420322 -0.345786 -0.374741 -0.320954 0.522681 
960600000363023 -0.019421 1.403655 0.310766 -1.182854 -0.314190 0.053406 -1.312347 -0.708946 0.334040 -0.671118 
960600000381823 0.257575 1.289967 -1.455926 -0.017001 -0.470792 1.472171 0.472538 -0.503609 -0.250665 0.288373 
960600000356130 0.214663 1.473018 0.565279 -0.459317 0.052470 0.675622 -0.473310 -0.586306 0.450922 0.292851 
960600000371085 -0.022332 1.747384 -0.481560 -0.392445 -0.452137 0.713969 -1.219064 -1.375425 -0.407811 -0.095714 
960600000247986 0.362440 1.708946 0.724763 -1.319899 -1.117907 -0.157147 -0.812729 0.909961 0.232715 -0.234148 
960600000401264 0.402897 -1.208469 -0.832632 -0.422821 -0.855795 0.214514 -0.233159 1.162517 0.832059 -0.537041 
960600000005260 -0.017250 1.775890 0.232267 -0.311950 0.007240 0.658538 -0.985200 -0.262199 -0.286678 0.123308 
960600000284509 -0.189878 0.562411 -0.966220 1.315947 -0.762999 1.206808 -1.341111 -0.754071 0.006092 0.305135 
960600000414906 0.176910 1.494554 -1.141025 -1.037038 -1.201903 0.697344 0.005190 0.441471 -0.202827 0.406530 
960600000309591 0.205364 0.700669 1.431047 0.045533 -0.498156 0.369264 -0.574371 0.456469 -0.088509 -1.160239 
960600000386788 0.215109 0.233931 0.990172 -1.386005 -0.004732 1.586776 0.711373 -0.704763 0.310533 0.011656 
960600000273859 0.092790 0.305823 -0.451886 -0.067091 -1.122973 0.144494 -0.846290 -0.826405 0.284262 0.106017 
960600000401633 -0.202000 1.226600 -0.502587 -1.079478 -0.758480 0.232320 -1.439785 -0.217588 0.813705 0.503108 
960600000264183 0.430091 -0.241110 0.402654 -1.174934 0.030081 0.658308 -0.172917 0.072409 2.085713 0.356545 
960600000264400 0.297097 1.697139 0.558820 -0.448746 -0.019252 0.535297 -0.514115 -0.203711 0.405602 0.158595 
960600000468678 -0.556564 1.303489 -0.201644 -1.672140 -0.214394 0.361428 -2.063231 -0.114783 0.489341 0.202493 
960600000337825 0.017714 0.844945 1.180843 0.332567 0.367120 1.569842 -1.038881 -0.517769 -0.252790 1.251363 
960600000356530 -0.213020 0.296054 0.527446 -0.608813 0.283523 0.900213 -0.681355 -0.412008 0.798444 0.309305 
960600000359424 0.074259 0.449616 1.200791 -0.129255 0.182661 1.525456 -0.274785 -0.303283 -0.173526 1.008056 
960600000221566 0.002825 -0.075408 -0.053617 -0.495114 -0.654962 0.922818 0.117943 -0.123150 0.295602 0.400191 
960600000483814 0.493120 0.166350 0.166621 0.534522 -0.433800 0.739196 0.326931 -0.233671 0.378940 -0.126330 
960600000360761 1.004377 0.075705 -0.831410 1.825625 -1.136549 1.128194 0.344903 -0.746573 -0.109046 0.231463 
960600000344456 0.689454 0.248968 1.013040 -0.438770 0.130228 0.276227 -0.485240 0.008399 -0.160778 1.209694 
960600000263125 -0.507753 0.652283 0.998465 -0.152546 -0.306987 1.246494 -1.226689 -0.337484 -0.422689 0.426450 
960600000286091 -0.088790 -0.048730 -1.211584 -1.049177 -1.278286 1.131916 0.047912 -0.360954 -0.230049 1.032288 
960600000398131 -0.871893 -0.340848 -0.851710 -0.605704 -1.038174 1.856929 -0.629785 0.923362 1.258960 -0.087258 
960600000325895 -0.271375 0.877180 0.583090 -1.546510 -0.241030 0.591357 -0.823094 -0.390714 -0.155872 -0.133403 
960600000479618 0.575785 -0.264280 0.831968 -0.113473 -0.021179 0.677718 -0.050660 0.188608 0.135863 1.147173 
960600000400972 -0.089498 1.739434 0.102307 0.140601 -0.446938 0.875016 -0.762027 -0.436406 0.510655 -0.481667 
960600000328083 -0.287484 2.228170 0.182241 -1.008505 -0.141042 0.922344 -1.513787 -0.301707 -0.012786 0.192649 
960600000304360 0.274846 -0.427192 0.909898 -1.048313 0.126264 0.556763 -0.653082 -0.126905 2.094819 -0.512410 
960600000262903 -0.164658 0.763468 0.759257 -1.526040 0.131834 1.117191 -0.123452 -0.803045 0.786939 -0.501188 
960600000355195 -0.190231 0.727575 0.893580 -2.130068 -0.063154 1.397696 -0.071631 -1.069735 -0.240208 -0.755849 
960600000427567 -0.270476 1.592572 -0.381662 -1.236997 -0.648640 0.712237 -0.916534 -0.067924 0.998697 0.528779 
960600000471457 -0.361445 1.541366 0.076804 -1.368524 -0.191572 0.549584 -1.633843 -0.199134 0.335134 0.608406 
960600000365692 -0.312495 0.944748 1.262665 -0.449709 -0.649010 1.280422 -0.740142 0.094781 0.639421 0.821338 
960600000255381 -0.084277 0.586919 -0.056210 -1.377417 -1.315649 0.226259 -1.385109 -0.678015 0.578005 1.252851 
960600000359552 -0.297997 1.113320 0.428282 -0.311805 -0.835785 1.064266 -0.622451 0.044676 0.650410 0.664609 
960600000355583 0.365568 1.474184 1.128352 -0.517537 -0.229534 0.788773 -0.456523 -0.635174 0.276996 0.804894 
960600000357177 0.091093 2.098604 0.509337 -0.345923 -0.159660 0.513736 -1.446283 -0.182065 0.018668 0.444333 
960600000419199 -0.178059 0.615943 0.858355 -2.027391 -0.303099 1.546385 0.088052 -0.937994 -0.448495 -0.734332 
960600000369810 0.274237 2.119382 -0.766066 -0.079633 -1.419725 1.699808 0.553564 -0.763395 0.024244 -0.405639 
960600000376609 0.671943 0.443315 1.448886 0.559276 -0.596953 0.171463 -1.570819 0.138214 -1.614434 -0.166034 
960600000475168 -0.014774 0.702449 -1.650406 -0.244971 -1.275567 1.180923 0.114736 -0.620465 -0.483144 -0.394985 
960600000320543 -0.239928 1.086453 -0.284859 -0.481827 -0.771637 1.494026 -0.572145 -1.941609 -0.056895 0.295523 
960600000408236 -0.089571 1.775033 0.171281 0.016324 -0.547458 0.926115 -0.684200 -0.146057 -0.457646 -0.336698 
960600000248600 -0.181642 1.202542 0.647832 -0.458843 -1.056209 0.629795 -0.908763 0.654430 0.895093 0.349481 
960600000449629 -0.055762 0.989140 0.436387 -0.541862 -0.387889 0.102588 -1.270970 -0.633887 0.554482 -0.636877 
960600000448182 0.263454 1.899570 -0.125638 -0.337311 -1.313645 1.258705 0.566968 -0.320579 0.305857 -0.300465 
960600000370299 0.551175 0.788610 0.004981 -0.479168 0.248604 -0.217263 -0.831852 -0.421521 0.246773 0.249437 
960600000287152 0.246237 1.510500 0.051005 -1.587731 -1.364830 0.113116 -0.358505 0.322947 -0.003790 0.056815 
960600000232501 0.557402 0.925881 0.403212 0.606512 -1.177450 0.910904 0.518394 -0.148790 0.201809 -0.155267 
960600000465992 0.529732 1.702752 0.357737 -2.039624 -1.403398 0.416928 0.240343 0.804401 0.156748 0.434561 
960600000341551 1.276708 0.346940 1.129512 -0.327723 0.443920 0.686679 0.194695 -0.363968 0.332628 1.820793 
960600000416125 -0.085905 1.610292 0.005910 -0.457437 -0.355211 0.458717 -1.050833 -0.121070 -0.197143 -0.129546 
960600000275015 -0.618289 0.304946 0.599701 -1.107281 -0.136543 1.471931 -0.511714 0.033383 -0.373542 0.213670 
960600000353796 -0.267891 1.115454 0.600828 -1.612429 -0.446169 0.766587 -0.643564 -0.157906 0.086143 0.243265 
960600000362222 -0.200850 0.896995 0.995754 -0.700231 -0.876674 0.754321 -0.693482 -0.143054 0.782093 0.097555 
960600000478290 0.067814 1.489926 -0.011890 -0.762823 -0.325691 0.154687 -0.891325 -0.284973 0.173593 -0.230855 
960600000361263 0.283419 1.611417 0.743327 0.311904 -0.111404 1.030291 -0.547716 -0.143578 0.344218 0.931723 
960600000380869 -0.260293 1.911841 0.032508 -0.526468 -1.099732 1.118844 -0.470597 -0.372669 -0.099966 -0.213225 
960600000289228 -0.150196 0.706477 -0.583000 -1.463729 -0.978655 0.310553 -0.801538 0.288711 0.457289 0.844771 
960600000381876 0.142052 1.372174 0.052444 -1.131388 -0.414181 0.048384 -1.174846 -0.226911 0.691889 0.668182 
960600000070846 0.504762 0.388020 -0.115381 -1.627864 0.355615 -0.513226 -1.615006 -0.466332 -0.835792 0.226449 
960600000353864 0.112008 1.596004 0.702467 -0.409139 -0.492887 0.249691 -1.572182 -0.573784 0.648593 0.511184 
960600000300504 0.299747 2.097620 -0.103783 -0.548652 -0.894789 0.435209 -0.199205 -0.063202 0.510221 -0.909089 
960600000359297 1.563013 -0.387532 -1.126944 0.459508 -1.739321 0.236150 1.066945 0.123261 0.080010 -0.013785 
960600000276066 0.240618 2.733768 -0.538295 0.237880 -1.625113 1.268445 -0.297484 -0.365723 -0.280282 -0.642577 
960600000351875 -0.522190 0.787631 0.382445 -1.977345 -0.605092 0.874155 -0.743177 -0.184299 0.059121 0.008517 
960600000243052 0.361457 -0.264650 0.247510 0.100449 -1.409804 -0.629302 -1.817848 0.705309 -0.135310 -0.572758 
960600000234454 0.731986 -0.690316 -0.356930 0.266548 -1.382872 0.233102 0.136391 0.010952 -0.416410 0.061981 
960600000378324 -0.321126 0.114283 -0.960786 -0.509585 -0.833325 1.535607 0.217812 0.397751 0.584835 0.351631 
960600000357682 -0.234216 0.756579 0.225171 -1.802493 -0.310131 0.454845 -0.717926 -0.099798 0.021764 0.008422 
960600000321388 0.024127 0.615515 0.944723 -1.815236 -0.034274 1.226292 0.047093 -1.134860 -0.247036 -0.749272 
960600000316377 0.186543 1.145009 0.526582 -0.414101 -0.407260 -0.144802 -1.559282 -0.746295 0.652097 -0.897422 
960600000382379 -0.379478 0.847888 0.125825 -1.413881 -0.258558 0.835657 -0.638040 -0.224915 0.405173 0.110462 
960600000270142 0.079167 -0.481257 0.249403 0.250708 -1.323484 0.991653 -0.192941 -0.030705 -0.436226 0.792938 
960600000342136 0.645141 0.252974 0.347516 0.383626 -0.151666 0.952391 0.426975 -0.419457 -0.090939 0.608252 
960600000438388 0.478136 1.736903 0.110084 -0.345702 -1.274320 -0.306696 -0.883154 -0.521214 0.376087 -0.837898 
960600000382688 0.178512 -1.417954 0.903837 -0.486261 -0.341720 0.786472 -0.400880 -0.248839 1.669583 -0.614839 
960600000352603 -0.165764 0.953813 -0.893098 0.082986 -0.966825 0.934108 -0.364676 -0.716435 -0.111009 -0.526335 
960600000290378 0.055103 0.039776 -0.195863 -1.083969 -1.100176 0.239555 -1.057424 -0.173684 0.497618 1.643653 
960600000372210 0.218874 1.935744 -1.603629 -0.276990 -1.026105 0.782039 -0.299856 -0.232047 -0.375684 -0.321750 
960600000401437 0.059456 0.328434 -0.392234 -1.139617 -0.823139 0.065014 -1.294490 -0.909618 0.391387 1.025336 
960600000479861 0.089383 1.567119 -0.144066 -0.877914 -0.929009 0.451590 -0.384564 0.824455 -0.121509 0.261247 
960600000360985 0.058220 1.547901 -0.626231 -0.313284 -1.041112 0.550388 -0.296658 -0.058133 0.202063 -0.217364 
960600000466363 -0.283950 1.268997 0.499222 -0.138795 -1.138108 1.046147 -0.759871 -0.519363 -0.040194 0.245663 
960600000223136 -0.091762 -0.193859 0.211152 -0.237166 -2.162956 2.034174 0.723351 -0.912608 -0.115451 -0.038760 
960600000388241 0.292045 1.832875 -0.086535 -1.459121 -0.620818 0.178590 -0.646681 0.202068 -0.678354 0.241639 
960600000390651 -0.171067 0.872575 1.237891 -0.059133 0.299033 1.732082 -0.724932 -0.309632 -0.307088 0.975110 
960600000248901 -0.485356 1.256961 -0.182131 0.638803 0.473390 1.578691 -1.432288 -0.102576 -0.752102 -0.255871 
960600000269289 0.074474 -0.462575 0.919291 -0.898293 0.413368 0.690096 -0.858576 0.035311 1.901374 -0.414327 
960600000408979 -0.002240 1.430817 -0.085872 -0.386888 -0.850726 0.032197 -1.151157 -0.306651 0.091356 -0.644754 
960600000277575 0.370413 2.153512 -0.052989 0.004010 -0.667486 0.836021 -0.225892 -0.245559 0.062565 0.589402 
960600000233078 0.435361 0.049626 -0.474268 -0.011292 -0.456654 0.533564 0.140852 0.812153 1.087142 -0.015876 
960600000321679 -0.341444 0.298534 0.401610 -1.469786 -0.987037 0.499266 -0.846432 -0.616495 -0.101671 0.159135 
960600000387176 -0.216882 0.358525 -0.391657 -1.184201 -1.402701 0.593638 -1.071464 0.018199 1.088984 1.550110 
960600000240874 0.730524 2.065510 1.385799 0.848429 -0.192431 0.398131 -1.549271 -0.474709 -1.163889 -0.267675 
960600000263826 0.265841 0.809581 1.689892 0.008964 -0.665915 0.859334 -0.628709 -0.213972 0.003805 0.932637 
960600000261716 0.600740 1.312357 1.013644 -0.700033 -0.618420 0.442632 0.144193 0.846006 0.321958 0.227181 
960600000215832 0.254219 0.367688 0.884516 0.213031 -0.534092 0.824024 -0.509314 0.051631 -0.349636 1.222466 
960600000341280 0.261145 -1.438500 1.028997 -0.725025 -0.124732 0.591026 -0.500708 -0.148778 1.357900 -0.440161 
960600000376293 0.110564 0.336026 -0.727054 -0.103630 -0.750097 0.612165 -0.117301 -0.787688 0.258060 -0.135036 
960600000272233 0.005726 1.870003 0.760190 -0.526461 -0.326884 0.849247 -1.138857 -0.349757 -0.185846 0.975964 
960600000417573 0.398779 1.083188 -0.990798 0.055497 -0.561463 1.070747 0.470546 -1.289898 0.630378 -0.781316 
960600000460236 0.766171 -0.000755 -0.061915 0.153638 0.534011 -0.082793 -0.777341 -0.318904 -0.296959 0.474061 
960600000375081 -0.098277 0.796724 0.748125 -0.941830 -0.836305 0.504873 -0.656427 0.201823 0.497979 0.405585 
960600000251527 0.328887 1.167286 -0.768979 0.317617 -0.556139 0.481147 -0.129113 -0.592966 0.015813 -0.632455 
960600000345853 0.574562 0.950431 1.092708 -0.348415 -0.775668 0.144204 -0.576033 0.088694 0.446359 0.823955 
960600000361107 1.088212 1.158840 0.993430 -0.438316 0.413885 0.312675 -0.421360 -0.548069 0.136302 1.498973 
960600000393776 -0.296572 1.318841 -0.120363 -0.572435 -1.024715 1.148310 -1.096086 -1.855053 0.331913 0.413668 
960600000386443 1.014283 1.569356 -1.239254 0.232984 -0.827443 1.151874 -0.134929 -2.679101 -0.878944 1.093758 
960600000262039 0.042367 1.127370 0.689452 -0.284131 -1.507365 1.432652 0.254705 -0.668898 0.520797 0.701602 
960600000446271 0.143606 0.309767 -0.627978 0.017959 0.119078 1.244759 0.059182 1.308464 1.317011 -0.032220 
960600000301072 -0.382974 0.377207 0.521019 -0.872373 -1.083033 0.609701 -0.752854 1.131562 -0.198518 0.071291 
960600000250559 -0.188708 1.724427 0.334473 0.247273 -0.665004 1.260990 -0.804246 -0.289987 -0.091913 0.572038 
960600000351416 -0.367455 0.896144 0.382794 -1.342021 -0.238609 1.003763 -0.476768 -0.232783 0.544972 0.173223 
960600000377027 -0.064751 1.273555 -0.317352 -0.230751 -0.781176 1.208651 0.153278 -0.477372 0.339964 -0.092230 
960600000299705 0.357244 1.729747 -1.763243 -0.963771 -1.579223 0.736412 0.065646 0.270329 -0.412374 0.217377 
960600000358126 0.270901 1.789069 -1.369302 -0.210829 -1.434529 1.118553 0.015739 -1.007766 0.040689 -0.503665 
960600000377771 -0.091658 1.335301 0.191159 0.173899 0.154964 0.929609 -0.583639 0.184849 0.424338 -0.180584 
960600000309457 -0.020191 1.776616 -0.955031 -0.109224 -1.413864 1.204095 -0.117814 -0.555659 0.463181 -0.304739 
960600000259089 0.024012 1.043618 0.894761 0.313885 0.559016 1.240821 -1.019610 -0.574494 -0.136293 0.599457 
960600000264552 0.142949 0.257386 1.120031 -1.421152 0.009027 1.610775 0.647165 -0.327383 0.058375 0.096801 
960600000254286 -0.074940 0.745026 -1.142833 -0.959215 -1.073289 0.476092 -0.591218 0.442203 -0.298372 0.910877 
960600000311505 -0.068672 1.487715 -0.185034 -1.383148 -1.154310 0.030144 -1.519075 1.212411 -0.156125 0.459331 
960600000373600 -0.114244 1.191728 0.122303 -0.509695 -0.083215 0.755440 -0.609953 -0.017090 0.856388 0.397314 
960600000261427 0.024066 0.284943 0.874744 -1.322584 -0.253794 1.790292 0.715864 -0.795606 0.259369 -0.094145 
960600000359380 1.286505 -0.240208 0.080877 0.787240 -1.474403 0.480489 0.632374 -0.576430 -0.385981 0.565023 
960600000451261 0.141089 0.504330 0.491022 -1.490815 -0.008300 1.719245 0.697258 -1.063120 0.232649 -0.150860 
960600000282249 0.016727 0.330868 0.463057 -0.296925 -1.021064 -0.145419 -1.233136 0.121169 0.368419 -0.692570 
960600000236709 0.985994 -0.195303 -1.573548 0.085916 0.744276 -0.025650 -0.437996 -0.191655 -0.516654 -0.541517 
960600000299882 0.752213 -0.305116 -0.620339 -0.412285 0.347297 -0.404605 -0.943024 -0.880450 -0.218139 0.157759 
960600000260762 0.132761 2.214305 -0.718205 -0.353900 -1.116708 0.657419 -0.773054 -0.310879 -0.479383 0.216363 
960600000346155 0.284978 -0.049771 0.193229 -0.777834 -0.679751 -0.176291 -0.538912 0.253441 0.118519 0.183299 
960600000360793 0.434138 1.273474 0.399408 -2.113738 -1.139985 0.528053 0.310617 0.750454 0.273049 0.429823 
960600000264065 -0.205581 -0.074290 -1.049231 -0.939970 -1.525073 1.069592 0.124245 -0.183990 0.296666 0.386244 
960600000331065 -0.522329 0.786357 0.603470 -1.682765 -0.772720 1.033829 -0.686216 -0.272568 -0.148039 0.139684 
960600000331127 -0.041596 0.446877 0.307613 -0.752219 -1.419803 0.905090 0.256248 0.099640 0.981655 0.119811 
960600000380256 0.684359 0.961605 1.226940 -2.264250 -0.071109 1.333329 1.120775 0.209516 0.252149 -0.243158 
960600000350386 0.325482 1.542170 -0.394037 0.107051 -1.187736 0.537005 -0.197113 -0.089909 -0.552402 -0.127040 
960600000376417 0.467956 0.560041 -0.398452 -0.563662 0.537745 -0.232724 -0.944667 -0.388318 0.041750 -0.048970 
960600000360689 -0.034038 0.683059 0.768222 -1.603510 -0.325213 0.865861 -0.146286 0.067541 -0.204931 0.497207 
960600000441158 -0.193050 1.206750 -0.484236 -0.293093 -1.133329 1.170499 -0.543552 -1.412541 0.471558 0.351154 
960600000223500 -0.125948 0.777038 -0.852929 -0.672910 -0.538303 1.373533 0.424653 -0.404619 -0.123704 -0.180343 
960600000258198 0.443717 1.974749 -0.440703 -1.239485 -1.765435 0.454508 -0.247992 1.776042 -0.457731 0.532247 
960600000415090 -0.230440 1.189091 -0.467298 -1.467573 -0.384270 -0.016060 -1.828451 -0.273193 0.016068 0.342357 
960600000468424 0.118337 0.151310 -0.254190 -0.023661 -1.028995 0.508515 -0.054091 0.396033 0.109713 0.076971 
960600000311083 0.457780 0.124558 0.784123 -1.709610 -0.235491 1.232554 0.877340 1.374477 -0.017280 0.110001 
960600000312150 0.197350 0.647947 0.516864 -0.156632 -0.613129 0.625395 -0.226537 -0.431726 0.514372 0.473920 
960600000334876 0.335515 0.652190 0.784318 0.439037 -0.708559 -0.272802 -2.639941 1.146041 -1.165402 0.046161 
960600000484121 -0.082544 1.586942 0.008850 0.014253 -1.208017 1.015329 -0.557719 -0.767803 -0.505042 0.030399 
960600000354376 0.155807 1.994853 -0.111297 -0.644664 -0.809100 0.584184 -0.708682 -0.796945 -0.284155 0.331005 
960600000380178 -0.044884 0.421729 0.751097 -1.444245 -0.145687 1.784972 0.664276 -0.645108 0.330949 -0.510132 
960600000364907 -0.249002 0.681976 0.691478 0.554802 0.306953 1.809598 -1.222641 -0.456807 -0.272445 1.272664 
960600000302640 0.625107 -0.810178 0.807077 -0.401806 0.284172 0.879275 0.127305 1.082510 1.246781 0.467423 
960600000295688 -0.364802 -0.277166 -0.228914 -0.465458 -1.051759 1.116950 -0.241899 1.278593 0.013811 -0.031154 
960600000381932 0.432564 0.604510 0.961289 0.043603 -0.624063 0.546076 -0.229491 -0.034006 1.018111 0.542786 
960600000263640 0.901074 1.189098 0.883996 -0.537696 0.310215 0.451375 -0.460188 -0.861656 0.248835 1.483000 
960600000347792 -0.013574 1.637715 0.373476 0.117419 -1.163622 1.387642 -0.822429 -1.917120 -0.339779 0.345096 
960600000278612 1.082994 -0.385464 0.811311 -0.287432 -0.064531 -0.005966 0.287329 0.389724 0.266787 0.327903 
960600000373347 0.370488 1.406156 0.434615 0.226552 -0.392110 0.124776 -1.121758 -0.558710 0.413825 -0.093415 
960600000469413 -0.030751 1.447871 0.735309 -0.660247 -0.364617 0.725515 -1.134103 0.030854 0.670192 1.156843 
960600000257663 0.585070 -0.274808 -0.508746 0.193482 -0.057935 0.081354 -0.113909 0.089024 -0.435696 -0.974758 
960600000303830 0.591543 0.604591 0.974640 0.513556 -0.621923 0.677395 -0.301311 -0.654642 -0.077136 0.892628 
960600000251472 0.183960 0.689219 0.883202 -0.402193 -0.282581 0.232709 -0.904463 -0.048281 1.562360 -0.383830 
960600000365891 -0.481891 1.464432 -0.253677 -0.080218 -0.119395 1.582407 -1.681714 -0.806052 -0.037700 1.436193 
960600000485615 0.254175 1.991786 -1.325940 0.035473 -0.999246 1.158854 0.065750 -0.099693 -0.106911 -0.142841 
960600000295408 0.310412 1.048512 0.351355 0.435476 0.053552 0.478336 -1.103505 0.112775 -0.513112 0.846251 
960600000317971 0.317422 -0.488251 0.509109 0.021491 -0.774786 0.786935 0.067685 0.095209 -0.323560 0.739444 
960600000377769 0.074454 2.135027 0.185277 -0.994319 -0.818631 0.153750 -1.140400 0.406343 -0.392286 0.016338 
960600000271234 -0.248505 1.700374 -0.154335 -0.378755 -0.951839 1.378105 -1.283709 -2.024107 -0.223509 0.526846 
960600000205890 -0.011033 0.858741 -0.458848 -1.424184 -0.254418 -0.365259 -1.756368 -0.257995 0.278514 0.044309 
960600000341247 -0.829233 -0.289441 -0.983044 -0.611119 -1.019171 1.610716 -0.750246 0.808710 1.258329 -0.255979 
960600000223023 -0.060296 1.816222 -0.002944 -0.496706 -0.664103 1.282162 -1.517999 -1.773086 0.047880 1.656234 
960600000420659 -0.016864 0.376331 0.324245 -1.061207 0.098423 0.346956 -0.598533 -0.488768 0.614447 -0.454696 
960600000161006 0.714804 -0.453674 -0.559152 -0.348208 0.394506 -0.199355 -0.783509 -0.524140 -0.786490 0.197001 
960600000393978 0.071002 0.351992 0.298381 0.179252 0.051521 0.866013 -0.386114 -0.701098 -0.088982 -0.061021 
960600000348099 0.086521 0.605272 0.355527 -0.590199 -0.045111 0.599687 -0.817772 -0.318655 0.180314 1.187742 
960600000268182 -0.107932 1.276413 0.402914 -0.251473 -0.912256 0.712846 -1.349721 0.212712 0.203579 1.420415 
960600000228945 -0.462060 0.986920 -0.244900 0.047396 0.148825 1.380688 -1.213108 -0.299405 -0.699957 0.473744 
960600000381098 0.534067 1.395967 0.858314 -0.116690 -0.000902 0.183484 -0.836125 -0.898774 0.098864 -0.043851 
960600000447731 0.012394 -1.241249 -0.708130 -0.624154 -1.065283 0.463769 -0.336691 0.147411 0.306910 -0.218294 
960600000350331 -0.114718 0.726856 1.076115 -2.154836 -0.117908 1.562457 0.058566 -0.859190 -0.145053 -0.849025 
960600000364860 0.711746 1.954823 1.022979 -0.652726 0.293663 0.507751 -0.757322 -0.907258 0.057515 0.983578 
960600000330945 0.405936 1.332904 -1.714950 -0.994064 -1.680816 0.633599 0.167852 0.528701 -0.545606 0.261070 
960600000338864 -0.430981 1.391079 0.700754 0.293278 -0.076115 0.927516 -1.847094 0.089536 -0.042031 0.115990 
960600000312734 -0.093037 1.928337 -0.721255 -0.458978 -1.643467 0.706119 -0.822305 -0.451225 -0.491552 -0.114047 
960600000479101 0.541642 0.217117 0.178955 -0.314335 0.335326 0.098931 -0.280118 -0.798636 0.042704 -0.387998 
960600000342793 0.449267 0.827884 0.123332 1.620741 -1.414048 0.932782 -0.639948 -0.429345 -0.713248 0.558810 
960600000371267 -0.218684 0.706805 0.535509 -0.323539 -0.894723 0.958612 -0.578409 0.164340 0.658694 0.782259 
960600000340954 -0.235604 0.920278 0.948018 -0.505717 -1.945565 0.633520 -0.726020 0.241904 0.486648 -0.306270 
960600000353646 0.024601 1.069997 -0.169634 0.008811 -0.473898 0.525447 -0.551263 -0.210546 0.485703 0.057389 
960600000287878 0.064830 -0.030288 0.639130 -0.042744 -1.911802 0.457679 -0.421651 0.062367 0.172690 0.211829 
960600000255882 0.168138 0.887054 0.512467 -0.446464 -1.290168 0.658212 -0.034121 -0.386890 0.835102 0.369662 
960600000265709 0.030087 0.841800 -0.042752 -0.636068 -0.951741 0.130781 -0.865920 -0.334826 -0.399201 0.314075 
960600000327650 0.438239 1.587853 -1.326512 0.030855 -0.904315 1.119101 0.328517 -0.792285 -0.116246 0.118318 
960600000377471 -0.135862 0.550881 -0.640187 -0.862526 -1.028786 0.376159 -0.743033 -0.270753 0.319750 0.674238 
960600000391676 0.284545 0.649987 1.577102 0.379225 0.760746 1.716835 -0.698367 -0.357895 -0.293870 1.046970 
960600000345997 0.180515 0.678911 0.517691 -0.262863 -0.375856 0.454986 -0.704407 -0.406531 0.533398 0.869552 
960600000347244 -0.031236 1.570017 0.165274 -0.276295 -0.446570 1.155272 -0.437433 -1.082908 0.406585 0.311630 
960600000324173 -0.097110 -0.125395 -0.328080 -0.267899 -1.200774 1.373378 0.079835 -0.032383 -0.044940 1.291322 
960600000262494 0.401172 0.922164 1.137875 0.703020 -0.516669 0.061628 -1.554628 -0.277438 -0.372650 -0.532161 
960600000295797 0.126651 1.500432 1.000349 -0.646491 -0.153650 0.766559 -0.854566 -0.487061 -0.005373 0.890407 
960600000261507 1.492529 -0.393788 -0.830396 0.741067 -1.265818 0.388800 0.945431 -0.247850 0.371857 0.203734 
960600000333547 -0.101321 2.057552 -0.054666 -0.510269 -1.187307 0.891619 -0.623573 -0.420140 0.007606 0.117601 
960600000354451 0.245008 1.291073 0.466900 -1.631037 -1.033167 0.115857 -0.728705 0.546663 0.312704 0.959714 
960600000327336 1.166668 0.539320 -1.245398 0.276259 0.947214 0.273448 -0.783031 0.271864 0.406783 1.929761 
960600000366488 0.196219 0.523120 1.709350 0.261721 -0.490884 0.582157 -0.601839 0.148026 0.119552 -1.450799 
960600000352925 0.274292 0.407798 0.877317 -0.913408 -0.726544 0.772162 0.095113 0.076754 1.587621 0.559521 
960600000358997 -0.095118 0.439777 1.006885 0.016229 0.290931 1.816337 -0.495134 -0.410744 -0.308654 1.185347 
960600000409667 0.195338 1.582718 0.380557 0.429281 -1.164906 1.180841 -0.711327 -1.779495 0.012473 0.246802 
960600000449241 0.060606 1.311512 0.165342 0.482015 -0.239383 0.569636 -0.882904 -0.386626 0.198984 -0.401656 
960600000409171 0.777737 2.313241 0.196990 -0.028667 0.215160 0.149852 -1.562106 -0.634055 -0.281882 0.909845 
960600000343325 -0.268605 0.365753 1.223405 -0.646056 -0.732627 0.893712 -0.788833 0.058031 0.635470 0.606872 
960600000348602 0.163491 1.262654 0.001865 0.042056 -1.121673 0.516018 -1.154891 -1.954403 0.303952 0.149670 
960600000433427 -0.017466 1.617476 0.269538 -0.720577 -0.620459 0.498914 -0.753397 -0.637000 0.123315 -0.180963 
960600000306010 -0.312491 1.840868 -0.125647 -0.769372 -1.303922 0.922652 -0.761155 0.063832 -0.337843 0.170527 
960600000382423 -0.005181 1.053778 0.943022 -0.184372 -0.120971 1.252226 -0.390653 0.122858 0.324875 0.962700 
960600000371341 0.094634 0.925142 1.007282 -0.025287 -0.389790 1.048258 -0.443832 -0.480961 0.263924 0.740297 
960600000327009 -0.163457 1.797151 0.491116 -1.861040 -0.886687 0.631010 -0.900723 0.131627 0.698902 0.339844 
960600000349722 0.213484 -0.226702 0.690478 -1.261039 -0.081829 1.818529 0.858227 -1.091067 0.171187 0.096707 
960600000317473 -0.382537 1.213179 -0.905622 -0.351836 -1.075723 1.165833 -0.086475 0.511476 -0.082208 -0.698310 
960600000312442 -0.222080 1.923270 -0.959966 -0.119732 -0.843886 1.670190 -0.188569 -0.838490 0.117883 -0.027005 
960600000354251 0.008633 1.514708 -0.118620 -0.283690 -0.121394 0.669819 -1.207234 -0.664847 0.326925 0.938227 
960600000251047 0.345495 0.799133 -2.289286 0.151688 -1.213509 1.154752 0.021818 -0.244348 -1.112713 0.249534 
960600000399970 0.029006 1.335067 1.258971 -0.559234 -1.149739 0.689534 -0.372393 0.319350 0.688116 -0.121263 
960600000363228 0.468991 0.898639 -0.272581 -0.302181 -0.010496 0.955969 0.551207 0.590174 1.294957 -0.047021 
960600000367766 0.356489 0.962940 -0.147379 -1.037103 -0.651309 -0.211601 -0.461903 0.659476 0.173862 -0.119601 
960600000346733 0.074740 1.247646 0.221583 -0.298458 -0.555820 0.685966 -0.199912 -0.265860 0.421566 -0.024577 
960600000431418 0.632439 1.006318 1.140873 0.471746 -0.223727 0.480584 -0.910020 -0.662411 -0.042576 1.085848 
960600000300574 0.387809 1.646176 0.799843 0.191176 0.130803 1.000697 -1.096411 -0.477526 -0.144620 1.490721 
960600000304604 -0.183476 0.701423 0.383617 -0.736204 -0.335728 0.402854 -1.030170 -0.304022 0.354947 0.305425 
960600000309597 0.117591 1.146666 1.073474 -0.097726 -0.275134 1.015416 -0.566910 -0.515799 0.046938 0.835433 
